tree
version=v4
num_class=1
num_tree_per_iteration=1
label_index=0
max_feature_idx=15
objective=lambdarank
feature_names=site_id visitor_location_country_id srch_length_of_stay srch_booking_window srch_adults_count srch_children_count srch_room_count prop_country_id prop_starrating prop_review_score prop_brand_bool prop_location_score1 prop_location_score2 prop_log_historical_price price_usd promotion_flag
feature_infos=[1:34] [2:231] [1:30] [0:475] [1:9] [0:8] [1:8] [2:230] [0:5] [-1:5] [0:1] [0:6.9800000000000004] [-1:1] [0:6.21] [0.01:1047901] [0:1]
tree_sizes=3558 3569 3578 3558 3595 3561 3586 3576 3584 3584 3578 3591 3584 3589 3580 3581 3588 3582 3578 3576 3578 3584 3578 3569 3581 3575 3589 3559 3579 3560 3593 3591 3598 3594 3582 3595 3561 3564 3580 3567 3582 3580 3576 3576 3572 3567 3571 3577 3581 3587 3585 3551 3585 3556 3564 3583 3560 3566 3568 3554 3574 3564 3574 3602 3565 3563 3551 3561 3566 3558

Tree=0
num_leaves=31
num_cat=0
split_feature=12 14 15 11 12 12 15 8 15 14 8 14 8 14 12 8 11 9 11 15 8 14 14 9 14 9 12 12 12 8
split_gain=5232.35 846.821 636.318 460.647 504.788 381.988 355.493 249.919 187.584 155.25 143.126 148.658 129.082 114.206 110.235 100.656 97.5511 74.4969 74.2971 66.6335 67.0369 54.9954 54.1125 53.563 51.3692 50.7816 47.7192 47.4836 47.3808 46.3236
threshold=0.037050000000000007 289.01000000000005 1.0000000180025095e-35 2.7400000000000007 0.15365000000000004 0.0072500000000000004 1.0000000180025095e-35 3.5000000000000004 1.0000000180025095e-35 141.21500000000003 2.5000000000000004 119.99500000000002 3.5000000000000004 162.37500000000003 0.0072500000000000004 2.5000000000000004 1.7000000000000004 3.2500000000000004 3.3500000000000005 1.0000000180025095e-35 3.5000000000000004 244.47500000000002 389.03500000000003 3.2500000000000004 151.12500000000003 3.2500000000000004 0.051350000000000007 0.25625000000000003 0.092350000000000002 2.5000000000000004
decision_type=2 2 2 2 2 2 2 2 2 2 2 2 2 2 2 2 2 2 2 2 2 2 2 2 2 2 2 2 2 2
left_child=2 3 5 4 8 10 7 23 12 -9 -1 -12 17 25 21 -7 -6 -2 -3 20 -18 -4 -17 -5 29 -8 -14 -25 -19 -16
right_child=1 18 14 6 16 15 13 9 -10 -11 11 -13 26 -15 24 22 19 28 -20 -21 -22 -23 -24 27 -26 -27 -28 -29 -30 -31
leaf_value=-0.048160754297731506 -0.013303436977841244 -0.00019386043813575287 -0.0091257708231434597 -0.015241892311729836 0.059765741651990736 -0.031968366058989693 0.009978966862793372 0.030609084684275784 0.040753743687976657 0.0085246022296660683 -0.0229838408429461 -0.040527675694068704 0.0050716426285888115 0.012971102461886151 -0.010534245456242068 -0.011078964561051475 0.029289756723075468 0.0049793603962562287 -0.025545502924412052 0.05902396763433148 0.05489138926148765 -0.044303078995902648 -0.043525812902665301 -0.0035862856729273712 -0.0070246486891062457 0.034116901537165532 0.037235023468139637 0.01054657099254358 0.021107560868613831 0.019363752505934452
leaf_weight=1938.2112986060893 369.89179228580906 389.89049882572726 1163.6830445377273 657.52230159155442 949.89222613419406 861.23670238332124 240.02140249501099 1254.0644624458509 770.74654101653141 2177.6370664533169 2328.8985895290389 2507.6311147155357 142.30419018483371 1149.7502738232724 155.27091164831654 2831.6607859983924 1114.9515725590172 1180.6989731362555 1116.8573041277996 366.68559188611107 331.78036924323533 122.83513336157193 134.6049522368121 2012.9457231192209 398.12873656628653 2363.6119331756199 608.18877805504599 843.31513031911163 741.27360318266437 782.28741225536942
leaf_count=66199 9133 8770 32470 18933 8650 27171 5544 23408 12094 52971 71221 83161 3205 26281 4324 81450 17744 27758 34307 3862 3837 3957 4332 53584 10938 43745 10174 19994 13430 17910
internal_value=-7.52884e-10 0.0169636 -0.0240925 0.020099 0.030513 -0.029547 0.0136977 0.00699771 0.0187205 0.016595 -0.0366805 -0.0320799 0.0131386 0.0260959 -0.00203868 -0.0169204 0.0467855 0.00724509 -0.0189854 0.0399863 0.035161 -0.0124845 -0.0125514 -0.00237545 0.00802257 0.0318917 0.0311364 0.000586461 0.0111997 0.0144123
internal_weight=32006.5 18782 13224.4 17275.3 6576.41 10602.2 10698.9 6945.48 3813.1 3431.7 6774.74 4836.53 3042.36 3753.38 2622.21 3827.5 2763.31 2291.86 1506.75 1813.42 1446.73 1286.52 2966.27 3513.78 1335.69 2603.63 750.493 2856.26 1921.97 937.558
internal_count=800557 397424 403133 354347 109887 333534 244460 168890 75794 76379 220581 154382 63700 75570 69599 112953 34093 50321 43077 25443 21581 36427 85782 92511 33172 49289 13379 73578 41188 22234
is_linear=0
shrinkage=0.05


Tree=1
num_leaves=31
num_cat=0
split_feature=12 14 8 8 12 14 8 14 11 12 14 12 11 8 12 14 15 12 14 13 13 12 15 13 15 11 13 11 12 14
split_gain=4290.03 1381.9 782.119 724.466 625.012 534.558 521.707 432.542 349.179 309.1 248.513 232.25 222.599 245.686 205.811 200.858 192.567 198.711 191.705 204.177 168.459 162.95 144.543 132.35 163.761 137.289 130.79 129.389 120.308 109.162
threshold=0.013250000000000001 129.00500000000002 2.5000000000000004 3.5000000000000004 0.10575000000000002 226.00500000000002 3.5000000000000004 180.00500000000002 3.6250000000000004 0.13075000000000003 192.00500000000002 0.35225000000000006 4.6150000000000011 1.5000000000000002 0.35945000000000005 153.11500000000004 1.0000000180025095e-35 0.037050000000000007 449.02000000000004 5.9850000000000012 5.3950000000000005 -1.0000000180025095e-35 1.0000000180025095e-35 4.955000000000001 1.0000000180025095e-35 3.5150000000000001 5.2150000000000007 3.3850000000000002 0.29145000000000004 109.99500000000002
decision_type=2 2 2 2 2 2 2 2 2 2 2 2 2 2 2 2 2 2 2 2 2 2 2 2 2 2 2 2 2 2
left_child=6 2 14 10 16 9 12 -8 11 20 23 -6 13 -1 -2 -15 -4 -18 19 28 22 -9 -5 -3 -25 -26 -12 -19 -7 -10
right_child=1 3 4 5 8 18 7 21 29 -11 26 -13 -14 15 -16 -17 17 27 -20 -21 -22 -23 -24 24 25 -27 -28 -29 -30 -31
leaf_value=-0.046452665562611982 -0.0031200807588535129 -0.014298456616210101 0.012272291453358425 0.0015687671459519254 0.022359333195650644 -0.010994854078758208 0.0016235334081617211 -0.03199886356204542 0.016537211356249255 0.015431877591547584 -0.031729256744355949 0.038498148696325916 0.007833323347432853 -0.020009677690183917 0.015579055784588059 -0.036595794239291712 0.01484395313424558 0.0028464292580310854 -0.024226632322424155 0.012056598008108259 0.010004301288704727 -0.00919485627336342 -0.017675179858720587 0.0039153487861180751 0.0029995236132716128 -0.027218161916269159 -0.013587173798176777 -0.01434937852516139 0.0036839261426765955 0.0032120824809984284
leaf_weight=1121.2256518952781 9283.211224457249 3323.700114375446 8676.9293066999526 2973.4875651902985 9112.4814652323257 5125.893775272998 5024.7108023342444 1776.8499707255396 4896.776883345563 8567.611889240623 1748.7073954208754 2951.172436957946 573.63890716951573 13643.71527870209 1748.7124100640649 2107.2429817486554 1777.6126058242517 2411.0626078960486 1235.5453304521507 1756.5448697246029 3440.0967186689959 1401.0951498173526 1452.3782266737544 3855.7307035062695 622.83939182455651 948.00472531374544 2300.1523354350356 2002.4986602568533 1918.2988421189366 2240.1029342676047
leaf_count=15768 69933 23017 68467 20289 33228 40148 48147 21973 24375 41350 12646 6667 5922 161655 6244 27564 10792 7465 12122 14346 21020 16901 7267 28330 2366 4684 15365 8582 12640 11284
internal_value=-9.43947e-11 0.00544385 0.0114149 -0.00141391 0.0151617 0.00330856 -0.0179073 -0.0075076 0.0211212 0.00886136 -0.0111804 0.0263074 -0.022797 -0.0238384 -0.000156009 -0.0222287 0.00746571 0.000729281 -0.00578369 -0.00319446 0.00170474 -0.021945 -0.00474627 -0.00644117 -0.00162869 -0.0152369 -0.0214228 -0.00495557 -0.00699748 0.0123548
internal_weight=110018 84369.6 45100.6 39269 34068.6 26469.9 25648.5 8202.66 19200.5 16433.6 12799.1 12063.7 17445.8 16872.2 11031.9 15751 14868.1 6191.17 10036.3 8800.74 7865.96 3177.95 4425.87 8750.27 5426.57 1570.84 4048.86 4413.56 7044.19 7136.88
internal_count=800557 502627 247037 255590 170860 169182 297930 87021 75554 89926 86408 39895 210909 204987 76177 189219 95306 26839 79256 67134 48576 38874 27556 58397 35380 7050 28011 16047 52788 35659
is_linear=0
shrinkage=0.05


Tree=2
num_leaves=31
num_cat=0
split_feature=12 14 9 12 12 11 8 14 12 14 13 14 8 12 12 12 14 13 8 9 14 11 11 11 11 11 8 12 14 11
split_gain=3669.59 810.993 557.267 508.503 874.125 425.961 250.37 270.513 246.041 237.846 236.108 214.211 235.814 201.667 188.83 173.656 161.722 160.561 157.557 153.956 153.172 150.256 141.388 139.541 132.61 131.724 125.411 123.5 117.702 117.521
threshold=0.019050000000000001 187.01000000000002 3.7500000000000004 -1.0000000180025095e-35 1.0000000180025095e-35 1.5000000000000002 3.5000000000000004 89.995000000000019 0.0018500000000000003 346.97000000000008 5.6150000000000011 219.00500000000002 2.5000000000000004 0.056250000000000008 0.25325000000000003 0.092350000000000002 89.995000000000019 4.995000000000001 3.5000000000000004 4.2500000000000009 174.42500000000004 3.8200000000000007 4.3750000000000009 3.4150000000000005 4.285000000000001 4.8550000000000013 1.0000000180025095e-35 0.42855000000000004 60.005000000000003 3.1150000000000007
decision_type=2 2 2 2 2 2 2 2 2 2 2 2 2 2 2 2 2 2 2 2 2 2 2 2 2 2 2 2 2 2
left_child=3 2 14 11 -5 13 7 29 -6 10 15 12 25 -4 26 -3 -14 -9 -10 24 -20 -16 -18 -17 -8 -1 -2 -15 -28 -7
right_child=1 9 5 4 8 6 19 17 18 -11 -12 -13 16 27 21 23 22 -19 20 -21 -22 -23 -24 -25 -26 -27 28 -29 -30 -31
leaf_value=-0.033385658786337445 -0.033654665634937721 -0.016844936417788288 0.0092770399297645838 0.070778061218209079 -0.026682691838187857 0.01831861906457348 0.013021337517066507 -0.004453023406381474 -0.012870683807104528 -0.017138479795530976 0.006460537999086623 -0.040006296310856691 -0.0055573456172491702 0.026739066848979268 0.016053254342360195 0.0082508662906320123 -0.022413704603224716 0.0072371892120048076 0.0076329328388847553 0.018307535245212819 -0.011355002848711892 -0.0017943381895403146 0.0030748562741229482 -0.0072173292285791103 0.00041800166493335315 0.019754783256871918 0.0073846527904644025 0.051363499140101021 -0.0041611972809522 0.0036104050898733645
leaf_weight=3276.6801396726514 311.60698405560106 2760.673818692565 1559.587603473803 337.76139856223017 2026.252244274714 4296.741497318726 6965.056897487957 6491.2937588653294 6025.930506885401 2831.2957157771452 5900.4051451788982 1527.6579118875088 2613.8470341411885 3275.4415876516141 3048.3839093900751 2231.6733100756537 6222.6290974415606 5364.6344709054101 2514.6600334083196 8861.5550086682197 1838.6875797981047 1923.2980174983386 596.21030868502567 4205.794559000642 2980.1095432479633 120.91892343992367 2854.2044283323921 602.91138978209347 9739.7415065554669 1985.7657968745334
leaf_count=47446 2873 24187 11436 1002 29966 22318 29502 42333 81542 29352 40723 21962 26559 9366 9975 9790 71119 35727 22493 41583 20782 11964 6154 31244 15065 1140 22944 871 66308 12831
internal_value=2.56515e-11 0.00549542 0.00827305 -0.0158549 -0.00858504 0.0113958 0.00947275 0.00528153 -0.0107458 -0.00383991 -0.00134615 -0.0223073 -0.0201999 0.0244611 0.000869638 -0.00635397 -0.0161317 0.000836627 -0.00763463 0.013515 -0.000386845 0.0091489 -0.0201851 -0.00185498 0.0092447 -0.0314944 -0.00231983 0.0305671 -0.00154453 0.0136697
internal_weight=105291 78190.2 60260.3 27101.2 12743.3 42383.1 36945.2 18138.4 12405.5 17929.8 15098.5 14357.9 12830.3 5437.94 17877.2 9198.14 9432.69 11855.9 10379.3 18806.7 4353.35 4971.68 6818.84 6437.47 9945.17 3397.6 12905.6 3878.35 12593.9 6282.51
internal_count=800557 470392 335096 330165 155785 221032 199359 113209 154783 135296 105944 174380 152418 21673 114064 65221 103832 78060 124817 86150 43275 21939 77273 41034 44567 48586 92125 10237 89252 35149
is_linear=0
shrinkage=0.05


Tree=3
num_leaves=31
num_cat=0
split_feature=12 14 12 11 15 13 14 12 12 9 8 8 14 14 13 13 12 11 14 13 13 11 14 13 8 14 13 12 11 14
split_gain=3029.84 840.574 704.045 350.739 322.885 266.037 301.986 192.848 185.145 175.209 156.097 126.598 139.405 117.256 152.808 124.824 108.446 108.323 92.1027 131.224 90.6331 89.6447 80.9705 113.557 80.122 87.1779 78.2731 84.2694 75.9766 74.8997
threshold=0.0058500000000000002 143.00500000000002 0.075250000000000025 1.7000000000000004 1.0000000180025095e-35 5.3350000000000009 259.00500000000005 0.23085000000000003 0.33805000000000007 3.2500000000000004 1.5000000000000002 2.5000000000000004 117.00500000000001 96.00500000000001 4.7750000000000012 5.245000000000001 0.17445000000000002 1.8700000000000003 389.03500000000003 5.0850000000000009 1.0000000180025095e-35 1.8700000000000003 78.00500000000001 4.7650000000000006 2.5000000000000004 65.00500000000001 5.1050000000000013 0.045350000000000008 3.2000000000000006 402.75500000000005
decision_type=2 2 2 2 2 2 2 2 2 2 2 2 2 2 2 2 2 2 2 2 2 2 2 2 2 2 2 2 2 2
left_child=4 2 9 8 11 7 17 20 -4 -2 -5 -1 -13 14 24 -15 -12 -7 19 -14 -3 -8 -18 -24 -11 -26 27 -22 -25 -23
right_child=1 5 3 10 -6 6 21 -9 -10 13 16 12 18 15 -16 -17 22 -19 -20 -21 26 29 23 28 25 -27 -28 -29 -30 -31
leaf_value=-0.029319025548208633 -0.011866127995496377 -0.0044659569736031158 0.018662518324118207 -0.015059125432704188 -0.0041206330854846492 0.020698775928235841 0.011217737043239251 0.0014293035812099936 0.040006684416737041 -0.0078419328715390244 0.0070096426913542568 -0.013041373146417524 -0.030321348846195653 -0.0049999306864474125 0.01655696621520987 0.0098281038277082469 0.01915485716298997 0.0046567158027745132 -0.048169849950752151 -0.014822168847993509 -0.03375728519273604 -0.0064818752768148582 0.0033507736726646068 0.021213938794690499 0.017873967143265904 0.00014312913678010369 -0.0099658586030267476 -0.015156716458369551 0.010860561457090346 -0.02081784547163117
leaf_weight=3824.4063279923284 2594.0832401233492 3193.8963799281046 3925.014961862471 601.16424393071793 3266.3628548913402 1163.221970145707 570.23869978066068 4224.1293629866559 1370.8446331070736 1557.3035757913021 11457.709809242981 5448.8852577935904 2712.7741017122753 6662.7183016025228 2591.1090639776085 1803.4631412685849 4409.8084021267714 11036.062041773344 373.90234987763688 2750.0270097633475 889.29158412781544 4126.9230711259297 3289.2572510913014 2698.6167286185082 1038.8894834234379 2083.6714258412831 3703.0999702923 1931.3559569725767 5160.3862683098996 1169.2310494123958
leaf_count=63588 30955 26628 11979 4440 34221 5676 4262 24565 2318 18958 67268 63582 39307 55718 18881 11154 20134 72202 5835 39124 11065 37458 14939 8464 7409 16578 29411 14462 25112 14864
internal_value=6.0304e-11 0.00405609 0.00802678 0.0124006 -0.0183755 -0.002301 0.0017035 -0.00749 0.0241875 0.000173786 0.0101403 -0.0214571 -0.0187928 0.00215842 0.00681559 -0.00184127 0.0107011 0.00618635 -0.0241621 -0.0225189 -0.0113671 -0.0076187 0.0134196 0.011151 0.00142206 0.00604226 -0.0147458 -0.0210211 0.0144157 -0.00964682
internal_weight=101628 83251.5 51244 32912.8 18376.4 32007.5 18065.7 13941.8 5295.86 18331.2 27616.9 15110 11285.6 15737.2 7270.97 8466.18 27015.8 12199.3 5836.7 5462.8 9717.64 5866.39 15558.1 11148.3 4679.86 3122.56 6523.75 2820.65 7859 5296.15
internal_count=800557 554900 314307 154654 245657 240593 134462 106131 14297 159653 140357 211436 147848 128698 61826 66872 135917 77878 84266 78431 81566 56584 68649 48515 42945 23987 54938 25527 33576 52322
is_linear=0
shrinkage=0.05


Tree=4
num_leaves=31
num_cat=0
split_feature=12 14 12 12 8 11 14 12 8 12 8 14 8 11 13 14 13 12 12 11 12 11 15 15 11 9 12 11 8 11
split_gain=2675.96 522.312 499.726 413.175 242.264 207.936 192.71 190.841 184.195 176.108 155.95 153.338 171.627 143.996 142.663 124.803 119.353 111.726 109.567 104.473 99.3958 107.136 106.357 92.0708 89.7955 104.06 115.467 89.6381 85.5817 83.7684
threshold=0.028250000000000001 119.00500000000001 -1.0000000180025095e-35 1.0000000180025095e-35 2.5000000000000004 2.1400000000000006 299.00500000000005 0.28725000000000006 2.5000000000000004 0.47985000000000005 3.5000000000000004 198.99500000000003 3.5000000000000004 3.6250000000000004 5.3250000000000011 286.73500000000007 6.0250000000000012 0.0010500000000000004 0.084150000000000016 4.6150000000000011 0.057350000000000005 4.0200000000000005 1.0000000180025095e-35 1.0000000180025095e-35 3.2000000000000006 2.7500000000000004 0.099950000000000025 1.5000000000000002 2.5000000000000004 4.2100000000000009
decision_type=2 2 2 2 2 2 2 2 2 2 2 2 2 2 2 2 2 2 2 2 2 2 2 2 2 2 2 2 2 2
left_child=2 4 11 -4 24 7 8 -6 -3 18 17 12 19 -11 20 -12 -8 -5 -10 28 -7 22 -22 -19 25 -2 -27 -20 -1 -23
right_child=1 6 3 10 5 14 16 -9 9 13 15 -13 -14 -15 -16 -17 -18 23 27 -21 21 29 -24 -25 -26 26 -28 -29 -30 -31
leaf_value=-0.029838901398686044 -0.012351156433138357 -0.012182191974100795 0.042678044986270279 -0.031588684330465064 0.015268369775873631 -0.001057139472641633 -0.016105818692826249 0.035702638202451141 -0.0029393226203728931 0.03120098362984421 0.00043208310313615661 -0.034142424980142541 -0.0070663784419807366 0.0076599075707824401 0.023180078098461426 -0.018717398989450431 0.0029621739699100336 -0.013846411460575529 0.01648589176785507 0.0038719941656116842 0.0087282938180596372 -0.0093633419097925493 0.019551203861877208 -0.0014084597926807803 -0.0077514272173040662 -0.0025353804561445152 0.012524470203656142 0.0031063783419255911 -0.019006451969758975 0.0069260924786440263
leaf_weight=2795.3937965433579 761.73976785107516 2049.2617566261906 408.90324877668172 709.25090793950949 5413.2087557865307 2559.6722759150434 2450.9929933396925 1448.3032685117796 7936.6991647272371 915.44686381472275 5663.486072803149 1704.6801951426896 2699.2652570771752 2236.7446186689194 1708.6867257559206 1001.2713133359794 1233.7543778304826 6298.1406749569578 1342.6884083030745 385.51926418370567 6482.3904849957908 1022.1128163628746 3493.1593869586941 1948.0796108583454 1762.4497624158976 1941.3525249210652 3695.9124347912148 18503.463207658264 5243.4848903111415 3464.0619534333237
leaf_count=46621 6635 14746 1002 13762 22926 18568 27403 2598 60515 2472 54589 28015 28825 12711 7278 13004 13330 96108 3840 3870 33769 5634 12498 18668 17317 18394 17065 111682 67049 19663
internal_value=3.33245e-11 0.00525478 -0.0128234 -0.00693722 0.00974299 0.0121352 0.00112347 0.0195816 0.00233497 0.00329664 -0.00823604 -0.0201783 -0.0180384 0.0144966 0.00940729 -0.00244481 -0.00972133 -0.0125459 0.00202591 -0.0215539 0.00802471 0.00963216 0.0125182 -0.0109081 0.00224193 0.00499436 0.00733818 0.00401157 -0.0227733 0.00321477
internal_weight=99279.6 70422.1 28857.5 16029.1 33753.1 25591.6 36669.1 6861.51 32984.3 30935 15620.2 12828.3 11123.7 3152.19 18730.1 6664.76 3684.75 8955.47 27782.9 8424.4 17021.4 14461.7 9975.55 8246.22 8161.45 6399 5637.26 19846.2 8038.88 4486.17
internal_count=800557 429044 371513 197133 182345 122934 246699 25524 205966 191220 196131 174380 146365 15183 97410 67593 40733 128538 176037 117540 90132 71564 46267 114776 59411 42094 35459 115522 113670 25297
is_linear=0
shrinkage=0.05


Tree=5
num_leaves=31
num_cat=0
split_feature=12 14 12 11 15 8 7 14 13 12 14 12 12 11 8 8 12 8 14 8 9 14 13 2 11 11 13 14 10 14
split_gain=2334.04 543.601 399.594 326.625 283.825 242.414 149.486 145.636 136.811 134.008 133.885 133.119 250.657 115.699 127.761 114.234 103.578 103.269 99.4399 94.1089 85.3294 80.9321 107.52 78.5453 76.1749 73.8492 67.9362 64.5662 63.3339 67.2714
threshold=0.010350000000000002 168.99500000000003 0.23085000000000003 1.2450000000000003 1.0000000180025095e-35 3.5000000000000004 217.50000000000003 373.02000000000004 5.9450000000000012 0.045350000000000008 100.00500000000001 -1.0000000180025095e-35 1.0000000180025095e-35 3.5950000000000002 3.5000000000000004 4.5000000000000009 0.092350000000000002 4.5000000000000009 178.56000000000003 2.5000000000000004 3.7500000000000004 99.00500000000001 5.2750000000000012 2.5000000000000004 1.7000000000000004 1.5000000000000002 5.5850000000000009 99.00500000000001 1.0000000180025095e-35 68.995000000000019
decision_type=2 2 2 2 2 2 2 2 2 2 2 2 2 2 2 2 2 2 2 2 2 2 2 2 2 2 2 2 2 2
left_child=4 2 5 -4 11 9 17 8 15 -2 -8 18 23 14 20 16 -3 28 19 -1 27 24 -23 -13 -11 -18 -15 -5 -7 -30
right_child=1 7 3 13 -6 6 10 -9 -10 21 -12 12 -14 26 -16 -17 25 -19 -20 -21 -22 22 -24 -25 -26 -27 -28 -29 29 -31
leaf_value=-0.028029076880484421 -0.004995616302303954 -0.010359996119081257 0.038286318249185575 0.0086742559475299075 -0.0034030197444967023 -0.0030908680459590431 0.025855146153671724 -0.015355228165330456 0.010724281679232721 0.014733354838132297 0.010012630066043141 0.042793065086025969 -0.014965780578563776 0.0047861859518557107 0.025665399360898414 0.0070737050787708158 0.016701328571623746 0.016166979201171258 -0.032802204543453541 -0.016340631665426337 0.016262705672853608 -0.0031471478304743285 0.015029875522863745 -0.015170206114381128 0.0038657973585099698 -0.0025894794869406774 0.02214444613177094 -0.010835505045721462 0.029718246398855799 0.0044313027272163919
leaf_weight=2408.6558575385716 7162.7875870279968 5030.2122476509539 1198.4993376107886 1710.7420562417246 3850.6579989098245 3386.6131209176965 1850.5533409537748 2082.7738640669268 2065.2089747991413 2012.8792616999708 4773.8516159064602 259.40234284847975 4950.3622635672218 6194.9263285960769 2146.8202387299389 2488.9327414799482 522.35796518065035 1523.1818378525786 1738.7599231607746 6041.6095845639356 3520.912890415173 6455.23725981405 930.86406732490286 75.444298950955272 8105.6405490036414 9876.3024643159006 620.09728871984407 563.84410745278001 286.64994110865518 3189.6459541148506
leaf_count=42973 79401 48835 2255 6303 41249 19735 6856 25590 15327 9048 24179 609 85799 35085 5184 20523 1536 7620 30403 77992 12449 46252 6191 298 59270 66484 2949 2189 1134 16839
internal_value=3.02838e-11 0.00386753 0.00650138 0.0131837 -0.0155502 0.00381421 0.00882421 -0.00277312 -0.00146172 0.000765539 0.0144383 -0.0185729 -0.0121338 0.011145 0.015246 -0.00286628 -0.00446976 0.00438949 -0.0219129 -0.0196723 0.0113863 0.00312297 -0.000856313 0.0297334 0.00602768 -0.00162044 0.00636561 0.00383801 0.00177555 0.00651642
internal_weight=97024.4 77699.5 55633.7 15955.8 19324.9 39677.9 15010.5 22065.8 19983 24667.4 6624.4 15474.2 5285.21 14757.3 7942.32 17917.8 15428.9 8386.09 10189 8450.27 5795.5 17504.6 7386.1 334.847 10118.5 10398.7 6815.02 2274.59 6862.91 3476.3
internal_count=800557 521234 342939 66414 279323 276525 76363 178295 152705 200162 31035 238074 86706 64159 26125 137378 116855 45328 151368 120965 20941 120761 52443 907 68318 68020 38034 8492 37708 17973
is_linear=0
shrinkage=0.05


Tree=6
num_leaves=31
num_cat=0
split_feature=12 14 15 12 12 12 11 11 12 15 8 11 14 9 8 11 2 12 11 14 8 11 12 12 12 14 8 14 13 8
split_gain=2118.36 471.986 309.61 281.651 270.809 258.467 253.67 142.708 140.055 124.917 124.727 119.856 119.515 103.402 85.6966 85.3493 79.0924 78.4743 76.5935 71.5264 75.6175 69.6867 67.62 63.4832 60.6551 60.5804 59.1413 65.2627 58.3712 56.3691
threshold=0.019050000000000001 199.00500000000002 1.0000000180025095e-35 -1.0000000180025095e-35 0.15365000000000004 1.0000000180025095e-35 1.2450000000000003 2.3500000000000001 0.28725000000000006 1.0000000180025095e-35 2.5000000000000004 3.7950000000000004 96.00500000000001 3.2500000000000004 1.0000000180025095e-35 2.3500000000000001 1.5000000000000002 0.17445000000000002 5.0450000000000008 219.00500000000002 3.5000000000000004 0.89500000000000013 0.062850000000000003 0.50765000000000016 0.64545000000000008 522.04000000000008 3.5000000000000004 107.00500000000001 5.1150000000000011 3.5000000000000004
decision_type=2 2 2 2 2 2 2 2 2 2 2 2 2 2 2 2 2 2 2 2 2 2 2 2 2 2 2 2 2 2
left_child=3 2 4 9 15 21 23 8 -4 14 -7 17 -12 -8 18 22 -14 29 -1 20 -16 -5 -2 -6 -9 -13 27 -15 -17 -3
right_child=1 11 7 5 6 10 13 24 -10 -11 12 25 16 26 19 28 -18 -19 -20 -21 -22 -23 -24 -25 -26 -27 -28 -29 -30 -31
leaf_value=-0.0447394913529158 -0.00091069206783708475 -0.014463609251303876 0.015323530277565799 0.048019036949921878 0.022099780240993908 -0.020211696341360177 -0.0048492467647352567 0.0084371066785220699 0.039363975992539046 -0.0075186261291400039 0.0030221316166445405 -0.0073434296069818609 -0.017556552167244301 0.0090704108600412441 -0.020993067552583834 -0.0053780411026503293 -0.0058203494244828576 0.0091067760849736865 0.024181806840852235 -0.033378905850131188 -0.0097831116491707681 0.001596296034451053 0.0079495348284132541 0.046728885788855784 0.025509925871600721 -0.028284845997597747 0.011314360917102247 0.00028007641005889806 0.0016140254948901164 0.00015448034948410097
leaf_weight=537.42002955684438 4176.1858410109999 843.0388019689708 3533.2327196709812 256.00674039591104 1243.9750848556869 1989.9123133628746 1852.0327570835361 14222.204234610079 731.21501495223492 2104.6228480754653 2451.0203477952164 7289.5408430614043 2230.3285758312559 4496.4550215392374 6365.2261726174038 8031.5273397836136 4028.5154607267468 2031.0564049623208 43.580035943188705 873.95845787075814 1969.9507039288292 118.14861393906176 4445.8711960406508 331.32418161258101 539.98389712092467 362.52555927820504 6384.0890115962829 3980.9556748416508 4750.3244466128526 3028.7695168809732
leaf_count=10615 40415 8173 14116 559 2928 38832 13193 73194 1228 23012 30507 68640 33649 22173 98186 74447 51795 10156 515 17100 24952 443 23517 553 1750 4790 27993 24990 33674 24462
internal_value=2.34377e-11 0.00420368 0.00614502 -0.0132275 0.00363132 -0.00748918 0.00809918 0.011389 0.0194457 -0.0185698 -0.00891761 -0.0042061 -0.00633729 0.00629134 -0.0209455 -0.000186291 -0.0100025 0.00114705 -0.0395698 -0.0197705 -0.0183437 0.0333599 0.00365799 0.0272799 0.00906161 -0.00833555 0.00767968 0.00494251 -0.00277947 -0.00302843
internal_weight=95243 72274.3 58719.4 22968.7 39692.7 11073.9 18288.8 19026.6 4264.45 11894.8 10699.8 13554.9 8709.86 16713.5 9790.14 21403.9 6258.84 5902.86 581 9209.14 8335.18 374.155 8622.06 1575.3 14762.2 7652.07 14861.5 8477.41 12781.9 3871.81
internal_count=800557 470392 354171 330165 263883 155785 91830 90288 15344 174380 154783 116221 115951 88349 151368 172053 85444 42791 11130 140238 123138 1002 63932 3481 74944 73430 75156 47163 108121 32635
is_linear=0
shrinkage=0.05


Tree=7
num_leaves=31
num_cat=0
split_feature=12 14 12 11 14 12 8 8 14 13 8 12 8 2 15 11 3 11 8 3 14 14 8 11 12 12 9 11 11 13
split_gain=1899.06 451.206 353.789 231.014 162.093 156.947 156.652 144.731 175.703 140.153 115.037 103.042 102.806 92.3456 90.7009 90.1711 85.4853 77.3416 72.4777 65.0997 69.6361 65.0339 62.8092 59.5065 58.8951 85.447 58.0162 57.3933 54.5171 56.1231
threshold=0.0058500000000000002 152.00500000000002 0.080450000000000008 1.7000000000000004 265.09500000000008 0.36685000000000006 2.5000000000000004 2.5000000000000004 119.99500000000002 5.3950000000000005 3.5000000000000004 0.22675000000000003 3.5000000000000004 1.5000000000000002 1.0000000180025095e-35 3.2800000000000002 4.5000000000000009 4.7150000000000007 3.5000000000000004 1.5000000000000002 83.00500000000001 83.00500000000001 3.5000000000000004 2.2500000000000004 -1.0000000180025095e-35 1.0000000180025095e-35 4.2500000000000009 1.0000000180025095e-35 5.2150000000000007 6.1350000000000007
decision_type=2 2 2 2 2 2 2 2 2 2 2 2 2 2 2 2 2 2 2 2 2 2 2 2 2 2 2 2 2 2
left_child=7 2 10 5 9 27 19 17 14 11 26 18 -6 -14 -9 22 -10 -1 -3 20 -5 -12 -8 -13 -18 -26 -2 -4 29 -15
right_child=1 4 3 6 12 -7 15 8 16 -11 21 23 13 28 -16 -17 24 -19 -20 -21 -22 -23 -24 -25 25 -27 -28 -29 -30 -31
leaf_value=-0.025950867825560265 -0.0044213850337210129 -0.013531801463787888 0.028683123808570962 0.018622019848458442 -0.025175392922433044 0.035649879603661672 0.0096931987262385555 -0.010535309649889978 -0.030936343859663824 0.004500251349823672 0.0157631577748551 0.019492570193992993 -0.017417654888745988 -0.0031764294366279223 0.0041032447831346784 0.0061969269252397938 -0.020043542832759813 0.011276382862878673 -0.0030445794770125739 -0.0032905067008245584 -0.013646505306471116 0.0033232078193210141 0.017904893771937234 0.0004635904203188232 0.035808679407433167 -0.011184195642698208 0.003437955450643103 0.011683898374257954 -0.013005577643446481 0.012642264860624058
leaf_weight=3543.137827662169 9093.3656981240492 2884.164792417665 585.13075405359268 730.01553932274692 849.83531126496382 1101.9380245101638 6716.3954514563084 5019.7478217630414 1275.1513712299056 9493.4448394543724 1311.8890339757781 478.16909743752331 1451.0196154135629 2515.4190361060901 1340.8151166109601 12311.300579435774 3104.244778942666 145.23740530962823 3842.2831676438218 4171.5763914275449 216.85857567435596 5275.1993671823293 3564.4211742808111 2917.7904858253896 104.88987016491592 1243.8255334094865 3165.5032310959068 3279.0174995851703 1000.2471884911647 721.55527474964038
leaf_count=68540 100816 31262 1545 4298 9535 2083 31964 68475 22197 64923 7516 1317 17022 25069 13808 67209 49781 1609 31441 31178 1678 34879 10603 18173 275 20972 32892 10538 11701 7258
internal_value=3.73603e-11 0.00321225 0.00592733 0.00907387 -0.00213638 0.0190047 0.00729413 -0.0158152 -0.0131699 0.000136125 0.000471596 -0.00395683 -0.00895448 -0.00653104 -0.00744948 0.00908353 -0.0195219 -0.024485 -0.00754129 -0.000604011 0.0112317 0.00580076 0.0125402 0.00314297 -0.0162533 -0.00752955 -0.00239193 0.014258 -0.00280296 0.000349722
internal_weight=93453.6 77676.5 51522.6 32676.7 26153.9 4966.09 27710.6 15777 12088.7 19615.9 18846 10122.4 6538.08 5688.24 6360.56 22592.1 5728.11 3688.38 6726.45 5118.45 946.874 6587.09 10280.8 3395.96 4452.96 1348.72 12258.9 3864.15 4237.22 3236.97
internal_count=800557 554900 337199 161096 217701 14166 146930 245657 175508 147116 176103 82193 70585 61050 82283 109776 93225 70149 62703 37154 5976 42395 42567 19490 71028 21247 133708 12083 44028 32327
is_linear=0
shrinkage=0.05


Tree=8
num_leaves=31
num_cat=0
split_feature=12 14 12 12 12 11 14 8 9 11 15 12 12 15 13 11 12 15 14 8 7 11 14 8 14 14 11 11 11 2
split_gain=1764.5 362.664 312.017 213.02 195.722 176.33 169.685 187.27 151.435 143.132 116.92 114.131 110.881 78.6205 72.1264 72.103 70.6746 69.7527 69.3271 72.1992 68.6981 58.4696 53.6431 53.3377 67.7836 54.8763 51.2872 50.882 50.8184 48.5829
threshold=0.028250000000000001 111.00500000000001 -1.0000000180025095e-35 1.0000000180025095e-35 0.20035000000000003 1.2450000000000003 340.01000000000005 3.5000000000000004 3.2500000000000004 2.9150000000000005 1.0000000180025095e-35 0.0018500000000000003 0.36685000000000006 1.0000000180025095e-35 4.8250000000000011 4.3250000000000011 0.13075000000000003 1.0000000180025095e-35 198.99500000000003 3.5000000000000004 215.50000000000003 4.6850000000000014 99.00500000000001 3.5000000000000004 118.00500000000001 137.04500000000004 1.7000000000000004 2.2500000000000004 0.89500000000000013 2.5000000000000004
decision_type=2 2 2 2 2 2 2 2 2 2 2 2 2 2 2 2 2 2 2 2 2 2 2 2 2 2 2 2 2 2
left_child=2 4 10 28 8 -6 7 16 -2 12 18 -5 -9 -7 22 -15 26 23 19 21 29 -1 -10 25 -25 -13 -3 -18 -4 -8
right_child=1 6 3 11 5 13 20 9 14 -11 -12 17 -14 15 -16 -17 27 -19 -20 -21 -22 -23 -24 24 -26 -27 -28 -29 -30 -31
leaf_value=-0.021458608482040595 -0.0057740801294697969 0.0022856085213606666 0.045267097500972783 -0.020253200442011513 0.035416845784379279 0.0085215280835378888 -0.01615358589328186 0.0087711922946087564 0.0059162685955307312 0.0022667237505635952 -0.0063115232610039852 -0.0086198476160290975 0.029867456416686901 0.021632194792195369 0.011399044597186938 0.0049767070543554788 0.0080610874304516446 -2.1753741173253088e-05 -0.031226468725359585 -0.0090482328650478058 -0.019759947939443363 0.0040825735206918195 -0.00559073720657648 0.0081767828196575264 -0.0074415625663727019 -0.020997073977761353 -0.0096341562559412106 -0.0018909798898848315 0.004330049278133432 0.0066472448207812312
leaf_weight=6163.6053818665096 2589.881635737489 1139.2898636222817 238.97695007920265 1498.7827769492287 880.85391285223886 5998.2731380214682 381.67011134175118 5537.2749087307602 7638.9728407270741 16677.148928555427 1981.3916806859197 4073.9448967092321 701.79495182354003 2830.95573797822 6295.2868392274249 843.38291202578694 1654.7945377957076 3827.3215429600095 1142.239005561918 1742.0396634615608 1282.4268664356787 232.52546048851218 1167.6224843540695 931.48832817387301 2732.7746354957344 1147.8430704681668 4340.6842876456212 5736.926924613188 111.03314883448184 602.31061232136562
leaf_count=102472 26226 7689 559 29966 1769 28913 5222 26409 50093 111342 23012 68403 1592 8903 34172 3834 5820 35201 23754 22264 17096 2878 8156 9068 32942 20551 42393 43327 443 6088
internal_value=-2.26228e-11 0.00431868 -0.0110876 -0.00625439 0.00861105 0.014 0.00113274 0.00197296 0.00539643 0.00468366 -0.0173373 -0.00720342 0.0111442 0.0120496 0.00731211 0.0178092 -0.00285307 -0.00566497 -0.0196913 -0.0180723 -0.0121348 -0.0205301 0.00439061 -0.00809557 -0.00347124 -0.0113406 -0.00715603 0.000337003 0.0322807 -0.00219683
internal_weight=92123.5 66299.6 25824 14562.2 28245.2 10553.5 38054.3 35787.9 17691.8 22916.2 11261.8 14212.2 6239.07 9672.61 15101.9 3674.34 12871.7 12713.4 9280.41 8138.17 2266.41 6396.13 8806.6 8886.05 3664.26 5221.79 5479.97 7391.72 350.01 983.981
internal_count=800557 429044 371513 197133 162066 43419 266978 238572 118647 139343 174380 196131 28001 41650 92421 12737 99229 166165 151368 127614 28406 105350 58249 130964 42010 88954 50082 49147 1002 11310
is_linear=0
shrinkage=0.05


Tree=9
num_leaves=31
num_cat=0
split_feature=12 12 11 12 14 12 8 15 12 8 14 14 13 13 15 11 7 14 15 14 8 9 11 11 11 14 14 14 9 11
split_gain=1575.03 414.664 377.72 256.376 249.128 192.968 164.921 116.965 110.707 106.023 143.165 85.8438 116.495 105.603 78.2374 76.5631 66.3333 68.7451 63.2224 62.0212 63.5542 61.2459 60.8606 60.8483 60.3222 66.0265 59.407 56.8123 83.5498 56.0475
threshold=0.047150000000000004 -1.0000000180025095e-35 2.2500000000000004 0.35225000000000006 239.00500000000002 1.0000000180025095e-35 2.5000000000000004 1.0000000180025095e-35 0.0014500000000000001 2.5000000000000004 121.00500000000001 139.00500000000002 4.995000000000001 5.2350000000000012 1.0000000180025095e-35 1.2450000000000003 54.000000000000007 413.22500000000008 1.0000000180025095e-35 68.010000000000005 2.5000000000000004 3.2500000000000004 4.1650000000000009 4.4000000000000012 4.7150000000000007 211.00500000000002 249.00500000000002 45.010000000000012 2.2500000000000004 0.89500000000000013
decision_type=2 2 2 2 2 2 2 2 2 2 2 2 2 2 2 2 2 2 2 2 2 2 2 2 2 2 2 2 2 2
left_child=1 9 3 14 6 29 27 21 -7 24 18 12 19 -13 -2 -5 -6 -18 -11 20 -10 -8 -9 -12 25 -1 -15 -4 -29 -3
right_child=2 5 4 15 16 8 7 22 11 10 23 13 -14 26 -16 -17 17 -19 -20 -21 -22 -23 -24 -25 -26 -27 -28 28 -30 -31
leaf_value=-0.026057440858025877 0.0065844947253667595 0.047357806660371322 0.015195844941301554 0.039837725670587763 0.0077802238054623498 -0.020493049530519211 -0.0085143935296417544 0.012146988406075485 -0.0068397151599321644 -0.011071707947679945 -0.023888603871075068 -0.016985438034796501 0.0055776528645634805 0.00023760292403080162 0.016510457629965537 0.020780422809427226 -0.0064374352136480871 -0.022696194863098994 0.0036235018763081982 -0.0077469255728038894 0.0091638245032639332 0.0036058362722449335 0.005366269835555001 -0.0057359769797688323 0.0053890364046642499 -0.07618029131537464 -0.012099486065797069 -0.038195939459569318 -0.0044459581674378777 0.0036450533783121512
leaf_weight=2427.4442566634389 8872.4515229630051 222.8680629208684 345.22582676191814 743.43159983679652 685.20207253488479 1153.0281862794654 1100.7936159607489 7066.2957302655559 1181.7028392549837 3647.8629821254872 3228.4379017180763 2595.6621084096842 3557.3056228973437 2723.5765745512908 2557.4540446086321 1810.588507339824 4580.6410629761522 757.6789021747536 915.6246911205817 6374.1858162279241 1305.9933796415571 19617.215587246581 6223.9465750282397 538.67314059496857 148.48876038612798 67.531049788813107 1520.552971422323 191.15620666579343 4504.4532058791374 109.28866815567017
leaf_count=47151 44124 559 3079 1453 6546 24414 10309 30220 20800 49802 55507 37401 33258 27924 8356 4463 43925 11048 9198 80609 12679 128558 34134 9357 1540 1825 20177 2436 39262 443
internal_value=1.39335e-11 -0.00898692 0.00482672 0.0120057 0.00259942 -0.00482878 0.00405939 0.0053104 -0.00544394 -0.016847 -0.0140786 -0.00454296 -0.00206564 -0.0090411 0.00880544 0.0263277 -0.00686525 -0.00874507 -0.00812324 -0.00513378 0.00156184 0.00296186 0.00897151 -0.0212929 -0.0255715 -0.0274141 -0.00418243 -0.00438062 -0.00581991 0.0329751
internal_weight=90774.8 31718.2 59056.5 13983.9 45072.6 20744.2 39049.1 34008.3 20412 10974.1 8330.6 19259 12419.2 6839.79 11429.9 2554.02 6023.52 5338.32 4563.49 8861.88 2487.7 20718 13290.2 3767.11 2643.46 2494.98 4244.13 5040.84 4695.61 332.157
internal_count=800557 432644 367913 58396 309517 258264 247998 203221 257262 174380 123864 232848 147346 85502 52480 5916 61519 54973 59000 114088 33479 138867 64354 64864 50516 48976 48101 44777 41698 1002
is_linear=0
shrinkage=0.05


Tree=10
num_leaves=31
num_cat=0
split_feature=12 14 12 15 11 8 8 14 13 8 14 14 12 11 7 8 15 14 12 14 13 13 11 14 10 13 9 8 13 3
split_gain=1466.15 361.033 226.986 202.999 190.734 152.174 134.645 105.017 110.382 94.7889 90.4953 85.1999 70.507 80.799 69.8884 65.5547 63.8917 60.3131 60.1818 57.6624 98.1711 56.3544 54.6994 54.5359 54.4483 62.22 60.4149 53.3595 51.5339 54.2367
threshold=0.010750000000000001 156.28500000000003 0.13075000000000003 1.0000000180025095e-35 2.5200000000000005 3.5000000000000004 2.5000000000000004 299.00500000000005 5.7250000000000005 3.5000000000000004 157.65500000000003 398.61500000000007 0.065850000000000006 1.5000000000000002 54.000000000000007 3.5000000000000004 1.0000000180025095e-35 169.00500000000002 0.35225000000000006 99.00500000000001 5.0150000000000006 3.8850000000000002 3.2800000000000002 129.00500000000002 1.0000000180025095e-35 5.535000000000001 4.7500000000000009 2.5000000000000004 5.7350000000000012 29.500000000000004
decision_type=2 2 2 2 2 2 2 2 2 2 2 2 2 2 2 2 2 2 2 2 2 2 2 2 2 2 2 2 2 2
left_child=3 2 6 9 5 16 -2 8 12 10 -1 -11 -3 -14 -9 22 -4 27 -7 24 21 -21 -6 -17 25 26 -8 -5 -16 -30
right_child=1 7 4 17 15 18 19 14 -10 11 -12 -13 13 -15 28 23 -18 -19 -20 20 -22 -23 -24 -25 -26 -27 -28 -29 29 -31
leaf_value=-0.016641194636408806 -0.0053023730273681173 -0.0084174418455094865 0.0091838474801068833 -0.013646196476874532 0.0074298002976395123 0.022440945789734473 0.0033137938202547701 0.0068960235892343074 0.0069811866537020876 -0.0074896384241806974 -0.030774928395822566 -0.036529145174476037 0.015520911722026463 -0.0015859765831720365 -0.020121188133337742 0.012122273618580464 0.021851087694995122 -0.015357494068063275 0.043014956943050041 0.004180171369381985 0.0057035865021397214 -0.0076349903643776074 -0.00072452786577532468 0.0030702995452345405 0.0099216730235805878 -0.085288624998673984 -0.049381522363904778 0.0042431205906180505 -0.016711487626368902 0.00039687243010232083
leaf_weight=8350.7839522648719 4829.827786641079 3719.3539026237559 5255.9919572032522 510.57803827035241 3592.0793883593287 1309.9684913540259 3323.0471363016404 542.99909363500774 3914.2282084466424 3767.8717760829895 1310.2311145109707 270.72927235352108 735.15313412831165 11299.747292746324 1309.8456377508119 5109.7500672452152 1228.0338511900045 711.25796333316248 487.79793668026105 1472.5342305153608 6116.3795407655416 3207.6302282216493 4811.0954083659453 2467.4186767854262 5702.1610712066758 20.327358779497445 55.297722436953336 2270.3215506789275 833.0671055156854 1043.5439866820816
leaf_count=150381 57064 41146 19859 7464 19845 3167 24959 5826 28497 56583 27229 5974 2545 80405 17082 20179 3009 10198 872 11291 42303 29687 36570 10902 37946 192 514 24157 12182 12529
internal_value=5.67984e-11 0.00311735 0.00555768 -0.0131258 0.00899359 0.0151517 0.0021864 -0.0019921 -0.000533461 -0.015869 -0.018558 -0.00943631 -0.00240052 -0.000541001 -0.00968472 0.00580214 0.0115829 -0.00236454 0.0280234 0.0040042 0.00153295 -0.00391755 0.00276118 0.0091746 0.0069359 0.00192649 0.00245126 0.000958611 -0.0125102 -0.00719789
internal_weight=89579.1 72387.3 48989.3 17191.8 24262.1 8281.79 24727.2 23397.9 19668.5 13699.6 9661.02 4038.6 15754.3 12034.9 3729.46 15980.3 6484.03 3492.16 1797.77 19897.4 10796.5 4680.16 8403.17 7577.17 9100.83 3398.67 3378.34 2780.9 3186.46 1876.61
internal_count=800557 518571 318359 281986 114403 26907 203956 200212 152593 240167 177610 62557 124096 82950 47619 87496 22868 41819 4039 146892 83281 40978 56415 31081 63611 25665 25473 31621 41793 24711
is_linear=0
shrinkage=0.05


Tree=11
num_leaves=31
num_cat=0
split_feature=12 14 12 11 15 12 9 9 2 8 11 14 13 8 14 14 14 15 14 7 13 14 13 8 8 13 14 13 14 11
split_gain=1364.74 358.792 241.731 220.398 135.951 134.064 112.009 88.5671 84.6252 81.3456 103.32 100.424 73.2866 73.2066 74.2674 67.9854 66.4405 62.3008 59.4888 59.1653 56.3659 65.8205 55.2755 53.3671 50.0797 49.6202 60.5722 48.6855 47.7698 47.6591
threshold=0.0072500000000000004 194.00500000000002 0.086650000000000019 1.7000000000000004 1.0000000180025095e-35 0.36685000000000006 3.7500000000000004 3.7500000000000004 1.5000000000000002 3.5000000000000004 4.0200000000000005 84.00500000000001 4.9750000000000005 3.5000000000000004 109.00500000000001 149.00500000000002 335.02500000000003 1.0000000180025095e-35 49.005000000000003 14.500000000000002 5.8650000000000011 435.04000000000002 5.2650000000000006 3.5000000000000004 1.0000000180025095e-35 4.7750000000000012 109.00500000000001 5.2950000000000008 129.00500000000002 4.9050000000000011
decision_type=2 2 2 2 2 2 2 2 2 2 2 2 2 2 2 2 2 2 2 2 2 2 2 2 2 2 2 2 2 2
left_child=4 2 6 5 13 23 18 -3 16 11 28 19 -13 15 -15 -1 -9 25 -2 -5 -10 29 -12 -4 -21 -8 -27 -28 -11 -22
right_child=1 7 3 9 -6 -7 17 8 20 10 22 12 -14 14 -16 -17 -18 -19 -20 24 21 -23 -24 -25 -26 26 27 -29 -30 -31
leaf_value=-0.016543033034236258 0.0083802978164691008 -0.015131975665594505 0.0086744462724863327 -0.034397344256468072 -0.0039643464806493143 0.031638960290080884 -0.0045350192941862166 -0.0063702207848415227 -0.0027803578555330825 0.015991568064284211 -0.0006092647244061093 -0.0035538544630244829 0.0046658267707121465 0.0026027807312199551 -0.014105079647278782 -0.028806597685460539 -0.025423555894133455 0.0071626894059898961 -0.0069465364952337452 -0.021148935725551744 0.01426423093451426 -0.010109426272929867 0.0081291219433957864 0.021772850427245839 0.0093686332208317482 0.0093318737251326927 -0.0046130073767528335 0.0060547027178421879 0.0077669343315576751 -0.0011474519208731029
leaf_weight=7398.0161289952812 713.82323207159061 1631.8051944108447 2815.9990439112298 80.634793213801458 2924.1602396452799 1163.0645221350715 3371.0632415085565 3364.918583238381 6382.7451512453263 4158.4438869585283 3388.1118040927686 5830.2651687647449 5069.8955865893513 890.85009300970705 2624.8380712894723 1333.8751642035786 529.54694125737296 5179.548309284728 5598.1670395574765 137.42190479137935 1571.9318373671267 535.57623317523394 3884.6454553809017 1074.3049352460075 6178.300555634778 2375.3437086485792 2792.7211906403536 1733.3820655092131 3067.9896667071152 736.74029615917243
leaf_count=135177 8598 14651 9859 727 36427 2386 38441 30690 58305 12938 18092 39829 34436 11016 45541 28847 8733 32409 64297 1328 12557 7431 20124 2810 37936 19957 31368 14207 14117 7323
internal_value=2.62838e-11 0.00282292 0.00457716 0.00704487 -0.0136509 0.0167445 0.00039903 -0.0041465 -0.00278032 0.00550329 0.00826552 0.00318779 0.000269293 -0.0159636 -0.00987143 -0.0184164 -0.00896098 0.00269157 -0.00521322 0.00816125 -0.000171633 0.00568258 0.00405823 0.0122916 0.00870461 0.000437171 0.00286587 -0.000527547 0.0124998 0.00934608
internal_weight=88538.1 73366.4 58613.1 36849.1 15171.7 5053.37 21764 14753.3 13121.5 31795.7 14499.2 17296.5 10900.2 12247.6 3515.69 8731.89 3894.47 15452.1 6311.99 6396.36 9226.99 2844.25 7272.76 3890.3 6315.72 10272.5 6901.45 4526.1 7226.43 2308.67
internal_count=800557 543549 403859 194582 257008 15055 209277 139690 125039 179527 65271 114256 74265 220581 56557 164024 39423 136382 72895 39991 85616 27311 38216 12669 39264 103973 65532 45575 27055 19880
is_linear=0
shrinkage=0.05


Tree=12
num_leaves=31
num_cat=0
split_feature=12 14 12 12 12 11 9 13 14 8 14 11 8 15 11 11 13 12 14 11 15 2 8 14 11 15 8 11 14 11
split_gain=1314.38 295.921 208.087 186.218 182.132 168.963 123.093 105.664 100.208 90.0554 126.355 78.0041 76.9645 68.7427 64.2009 59.7149 57.7836 55.9671 56.0341 55.914 54.4861 57.3747 63.2076 53.2574 52.0847 50.7545 46.922 46.8371 46.6642 46.2264
threshold=0.022350000000000005 146.02500000000003 -1.0000000180025095e-35 1.0000000180025095e-35 0.26765000000000005 1.2450000000000003 3.2500000000000004 5.2250000000000005 249.00500000000002 2.5000000000000004 128.99500000000003 4.5450000000000008 2.5000000000000004 1.0000000180025095e-35 1.7000000000000004 1.5000000000000002 1.0000000180025095e-35 0.0028500000000000005 231.155 4.7150000000000007 1.0000000180025095e-35 2.5000000000000004 3.5000000000000004 41.010000000000012 3.0650000000000004 1.0000000180025095e-35 1.5000000000000002 2.6000000000000005 168.99500000000003 5.1250000000000009
decision_type=2 2 2 2 2 2 2 2 2 2 2 2 2 2 2 2 2 2 2 2 2 2 2 2 2 2 2 2 2 2
left_child=2 4 9 -4 6 -6 23 16 14 19 25 13 -5 -7 -9 -8 -3 -14 -19 -1 21 22 26 -2 -22 -11 -17 -10 -18 -28
right_child=1 7 3 12 5 11 15 8 27 10 -12 -13 17 -15 -16 20 28 18 -20 -21 24 -23 -24 -25 -26 -27 29 -29 -30 -31
leaf_value=-0.025760948542581666 0.015601471444761093 -0.00099487089488895799 0.031617330642424231 -0.016142431753384232 0.033768757285131346 0.008942093673344427 0.011052969757450666 0.017446986474627009 0.0062929358894253974 -0.010476355055949217 -0.020681410785373 0.0009538503429471041 -0.013893314273060165 0.019086295166439719 0.002993234277474078 -0.022647404463490155 -0.0037248458873897824 -0.001544509827597835 -0.01373924597079286 0.0070718915152339955 0.012245356020067419 -0.0032266709470951376 0.0091093290312634738 -0.0063527022073852028 0.00438003697898591 0.0025262991192322327 0.0015345253507211194 -0.0064883539999543915 -0.014268553668814002 0.030688964849900264
leaf_weight=2389.5412087739387 301.40707464562729 3610.7257527696202 320.34642658801749 1921.6994695076719 807.90774944005534 5163.1237027575262 3875.3760614440544 829.81730428757146 860.17032123287208 3713.4442986493814 3262.9632161974441 1922.2674459653208 1511.8461168658687 2468.5166151092853 10360.237124534091 196.89251015265472 1884.5608942462131 6376.8984254889074 1105.2616510608932 137.11170275247423 3476.3109735357575 3359.4837657293538 4185.9005109933205 3308.2160851993831 5335.1575572192669 940.59718879195862 7155.7743209212786 4299.4914233830641 2367.9473085452337 138.59651263733394
leaf_count=48976 3037 29760 1002 42124 1685 22374 20173 3541 5940 53867 60066 11625 29892 7334 73210 2241 15244 81731 16242 1540 14406 26673 20272 34574 28151 9931 62034 49393 22659 860
internal_value=1.87012e-11 0.00351291 -0.0106795 -0.00595686 0.00606604 0.0118126 0.00416567 -0.000883589 0.00140705 -0.0157605 -0.0131375 0.00995588 -0.00705956 0.0122233 0.00406508 0.00529648 -0.00564642 -0.00511888 -0.00334591 -0.0239792 0.00436104 0.00253153 0.00418815 -0.00451951 0.00748307 -0.00784848 0.00143834 -0.00435758 -0.00959596 0.00208847
internal_weight=87587.6 65907.9 21679.7 11236.1 41694.9 10361.8 31333.1 24213 16349.7 10443.7 7917 9553.91 10915.7 7631.64 11190.1 27723.5 7863.23 8994.01 7482.16 2526.65 23848.1 15036.6 11677.2 3609.62 8811.47 4654.04 7491.26 5159.66 4252.51 7294.37
internal_count=800557 455186 345371 170991 255439 43018 212421 199747 132084 174380 123864 41333 169989 29708 76751 174810 67663 127865 97973 50516 154637 112080 85407 37611 42557 63798 65135 55333 37903 62894
is_linear=0
shrinkage=0.05


Tree=13
num_leaves=31
num_cat=0
split_feature=12 12 11 12 12 14 11 9 8 15 14 11 14 15 8 14 12 8 3 11 14 8 8 14 10 8 8 13 13 8
split_gain=1222.31 315.067 301.157 228.245 153.615 135.22 120.293 105.496 100.905 93.186 90.6491 123.372 87.0205 85.7782 76.1802 71.7433 66.136 60.9515 51.1108 50.403 49.3542 48.8377 47.9027 62.362 50.1381 44.7427 43.5401 43.0408 42.9509 42.6064
threshold=0.045350000000000008 -1.0000000180025095e-35 3.2800000000000002 0.29685000000000006 1.0000000180025095e-35 208.11500000000004 1.2450000000000003 3.7500000000000004 3.5000000000000004 1.0000000180025095e-35 219.00500000000002 4.3750000000000009 112.00500000000001 1.0000000180025095e-35 2.5000000000000004 119.99500000000002 0.0022500000000000007 3.5000000000000004 20.500000000000004 0.89500000000000013 449.02000000000004 4.5000000000000009 3.5000000000000004 128.00500000000002 1.0000000180025095e-35 3.5000000000000004 1.0000000180025095e-35 5.0850000000000009 4.785000000000001 3.5000000000000004
decision_type=2 2 2 2 2 2 2 2 2 2 2 2 2 2 2 2 2 2 2 2 2 2 2 2 2 2 2 2 2 2
left_child=1 10 3 7 19 8 -5 18 -4 16 11 14 17 29 -1 25 -6 -9 -2 -3 -7 -10 23 26 -24 -16 -18 -17 -28 -8
right_child=2 4 5 6 9 20 13 12 21 -11 -12 -13 -14 -15 15 27 22 -19 -20 -21 -22 -23 24 -25 -26 -27 28 -29 -30 -31
leaf_value=-0.023325883078991312 0.0033484357132291353 0.044505623151078748 -0.0016879174400105416 0.033544327010521277 -0.018201039859802658 -0.004315225156308302 0.0070352931696700512 0.0087902351694560347 0.0040159099956990673 0.00028349150476328149 -0.029720571895098104 0.0065521055933343668 0.0042020349509595536 0.02548555185161084 -0.011561414695530001 -0.026176058611170134 -0.030515587807520724 0.018796504582883931 -0.0062137080439856329 0.0017325127027755139 -0.020398713949506337 0.012576993869523337 -0.0099281289776581832 -0.01683921320924232 0.00099206766720161981 0.00076404426036757447 -0.0087527178774517485 -0.01254595247111576 0.00095187338566478938 0.018542887465118185
leaf_weight=2256.1158833086374 3878.7710077329539 208.2679925635457 8549.6362203303725 878.61640241835266 1275.6676725308644 6290.8719486386399 2984.1304162847809 5681.1878715050407 11210.584115613485 5683.355787909124 989.46582567453152 689.31144107569708 8772.7558672946179 1171.2989666676149 3094.8391069420613 1209.5377341410494 175.5825929538114 2078.7305836826563 2184.5200436499435 102.90403990959749 516.11615613583126 1956.6026756148785 1530.5177805727581 1820.3589982870035 3355.6578766271705 966.16492913872935 3092.4043652751134 1111.3760234203655 1805.9874936871929 1101.1610834635794
leaf_count=46798 26849 559 75017 1942 30295 63528 11493 31720 61168 52618 21962 9615 52779 2789 43520 22720 3772 6382 16241 443 8100 11453 19679 32153 36359 11117 52656 18648 24866 3316
internal_value=-5.70603e-12 -0.00829314 0.00425376 0.00786692 -0.004482 0.000614335 0.0164195 0.00554476 0.00254171 -0.00506057 -0.0153307 -0.0138042 0.00761373 0.0135571 -0.0154286 -0.0126368 -0.00738684 0.0114707 -9.66726e-05 0.0303606 -0.0055347 0.00528806 -0.00621581 -0.00889996 -0.00242851 -0.00862903 -0.00605164 -0.0196492 -0.00517473 0.0101371
internal_weight=86622.5 29367.5 57255 28731.2 19050.7 28523.8 6135.21 22596 21716.8 18739.5 10316.8 9327.35 16532.7 5256.59 8638.03 6381.92 13056.2 7759.92 6063.29 311.172 6806.99 13167.2 11780.5 6894.33 4886.18 4061 5073.97 2320.91 4898.39 4085.29
internal_count=800557 427780 372777 153511 253400 219266 19540 133971 147638 252398 174380 152418 90881 17598 142803 96005 199780 38102 43090 1002 71628 72621 169485 113447 56038 54637 81294 41368 77522 14809
is_linear=0
shrinkage=0.05


Tree=14
num_leaves=31
num_cat=0
split_feature=12 14 12 11 15 14 13 8 8 9 14 8 14 14 12 11 7 9 13 13 13 11 11 13 14 12 8 3 5 15
split_gain=1122.8 285.514 207.909 169.087 155.242 114.906 108.239 94.5087 84.4514 73.3406 66.5942 61.0714 58.1562 55.1571 54.329 58.5614 54.1146 51.0611 48.7208 55.5526 52.9721 49.3107 47.8758 45.0848 44.0434 43.754 43.4619 43.4004 42.9286 42.5527
threshold=0.013650000000000001 141.21500000000003 0.19775000000000001 1.2450000000000003 1.0000000180025095e-35 340.01000000000005 5.5250000000000012 2.5000000000000004 3.5000000000000004 3.7500000000000004 89.00500000000001 2.5000000000000004 233.83500000000004 118.99500000000002 0.084150000000000016 0.89500000000000013 99.500000000000014 3.2500000000000004 4.9150000000000009 1.0000000180025095e-35 4.3150000000000004 3.4150000000000005 4.7150000000000007 6.0650000000000004 185.79500000000004 0.55685000000000007 2.5000000000000004 29.500000000000004 1.5000000000000002 1.0000000180025095e-35
decision_type=2 2 2 2 2 2 2 2 2 2 2 2 2 2 2 2 2 2 2 2 2 2 2 2 2 2 2 2 2 2
left_child=4 2 7 -4 8 6 11 -2 13 -5 16 -3 28 17 -13 -16 -9 -1 19 -12 -21 -20 -15 -7 26 -8 -6 -25 -10 -11
right_child=1 5 3 9 24 23 25 10 12 29 18 14 -14 22 15 -17 -18 -19 21 20 -22 -23 -24 27 -26 -27 -28 -29 -30 -31
leaf_value=-0.020213374041160151 -0.0029409835481873704 -0.014584884488326814 0.02936968962599015 0.0034041583430883095 -0.013065621164905934 -0.017481821924471407 0.003143682588134915 0.00026615902638052328 -0.0065855579445754254 0.0086791488896964513 0.0056071880246573516 -0.0065841750420599452 -0.018368184770740689 -0.023645678835083728 0.020483611287725727 -0.00057627600048156208 0.010322947911657818 -0.010772780800174436 0.0077706538146606052 -0.07105057072339914 -0.0045640830686523122 0.00010112634720378546 0.0034476187189578693 -0.017274405557860226 -0.014636278685940472 0.015775450182437714 0.0027878358081006374 0.0055848345380095201 0.012284937153735692 0.015719713229357845
leaf_weight=2119.5127046267153 5564.8360129015055 1015.1963268056279 1072.3829901698045 4361.2118224664591 518.9369907368673 1401.1426004214445 8155.3868071720353 1720.3391694218153 2874.3412364026881 5824.887161876075 1831.1481149224564 4293.8489810128231 1008.9988022840698 2786.8455070734781 341.94502139487304 9525.3320365219843 6012.8720144375693 4417.4463336348999 5102.941010755254 30.2188246906735 3477.8260747615714 3556.3689972013235 173.18716874590609 333.85029916267376 601.79293882648926 748.4492418182781 2589.9551540231332 549.24581672414206 336.68647584598511 3398.1074131950736
leaf_count=44421 62279 9972 2474 24193 8012 20371 62618 12731 43366 26958 12306 47353 20547 61726 1060 67630 38404 78404 31623 368 28543 23044 2566 5438 9297 4293 28393 6491 3681 11995
internal_value=5.06699e-11 0.00288981 0.0054522 0.0102557 -0.0113282 -0.00118766 -0.000171006 0.00287299 -0.0137827 0.00874682 0.00436177 -0.00273867 -0.00789721 -0.0163979 -0.00188943 0.000153543 0.0080857 -0.0138338 0.00230455 -0.00145201 -0.00513681 0.00462079 -0.0220605 -0.0119051 -0.00225508 0.0042055 0.000141573 -0.00305699 -0.00460693 0.0112732
internal_weight=85745.2 68317.5 41953.1 14656.6 17427.7 26364.4 24080.2 27296.6 13717 13584.2 21731.7 15176.3 4220.03 9496.99 14161.1 9867.28 7733.21 6536.96 13998.5 5339.19 3508.04 8659.31 2960.03 2284.24 3710.69 8903.84 3108.89 883.096 3211.03 9222.99
internal_count=800557 500144 274918 65620 300413 225226 192926 209298 254711 63146 147019 126015 67594 187117 116043 68690 51135 122825 95884 41217 28911 54667 64292 32300 45702 66911 36405 11929 47047 38953
is_linear=0
shrinkage=0.05


Tree=15
num_leaves=31
num_cat=0
split_feature=12 12 11 14 8 15 15 8 14 14 13 15 12 11 14 8 8 14 7 8 14 9 14 8 3 13 7 14 7 8
split_gain=1060.08 278.397 286.225 175.333 107.268 104.3 101.778 101.35 87.7112 73.5574 75.9754 65.7693 65.7248 64.1572 59.4256 55.0289 52.6732 52.4025 55.4597 51.0223 50.5153 55.3725 47.1524 48.3093 46.9304 45.2885 42.3837 42.1171 48.5417 41.6573
threshold=0.0072500000000000004 0.13075000000000003 2.5200000000000005 249.00500000000002 3.5000000000000004 1.0000000180025095e-35 1.0000000180025095e-35 3.5000000000000004 413.22500000000008 109.99500000000002 4.6650000000000009 1.0000000180025095e-35 0.36685000000000006 3.6500000000000008 64.995000000000019 1.0000000180025095e-35 1.5000000000000002 100.00500000000001 215.50000000000003 2.5000000000000004 119.99500000000002 4.2500000000000009 89.995000000000019 3.5000000000000004 97.500000000000014 5.1150000000000011 99.500000000000014 134.99500000000003 99.500000000000014 2.5000000000000004
decision_type=2 2 2 2 2 2 2 2 2 2 2 2 2 2 2 2 2 2 2 2 2 2 2 2 2 2 2 2 2 2
left_child=5 3 7 4 9 15 8 11 16 10 14 -3 -9 -8 -2 26 -4 18 -6 -5 21 -18 29 -24 27 -22 -1 -25 -29 -17
right_child=1 2 6 19 17 -7 13 12 -10 -11 -12 -13 -14 -15 -16 22 20 -19 -20 -21 25 -23 23 24 -26 -27 -28 28 -30 -31
leaf_value=-0.010688515947625996 0.0025385275676255924 0.0075137640312336277 -0.018976188437270246 -0.057013524114074544 0.0038196024072126044 -0.003768496341700392 0.013703632801486974 0.016649786884970715 -0.022536658840529813 -0.006273834609374038 0.0048545923983578237 0.020338089971291121 0.034428748454012718 0.0045235389572961622 -0.0074909495088390961 -0.015499123333750428 0.0021053768287206372 0.0020464940982751296 0.016842296076029797 -0.010738684679028066 -0.0058711856631945185 0.012952748415665986 -0.019351266055266859 -0.0043545194047580824 0.004426962228006987 0.0015569912881825572 -0.039396682086457829 -0.0049867920109803003 -0.023798997689943875 -0.0044928212120640921
leaf_weight=194.49101636750856 2497.6832764054416 5520.7310131858103 320.47845314641017 60.67958417837508 1984.7266393946484 2774.7554770733695 2593.7886300729588 1974.2860259409063 402.93231325369561 6593.7359649701975 5143.3981645760359 1220.8400027630851 705.60901260748506 7148.6672963701421 3613.8418684541248 1466.0765824084519 4101.244727380923 10804.016993270605 1390.2109280540608 3250.6710289690818 2945.2769376465585 1649.7177293375134 4428.5115509097523 813.30037214513868 419.38148500164971 6765.0627397045027 379.29857327975333 486.11873807944357 1163.9548954218626 2078.5718815443688
leaf_count=4226 29677 22335 3678 1215 12637 36427 9515 6139 6751 74870 47748 3236 1530 41389 40400 35558 29335 81447 5958 40803 23749 8233 88749 11776 6789 52904 9795 8263 24211 31214
internal_value=-1.04184e-11 0.00250465 0.00564206 -0.000633621 0.000498819 -0.0124642 0.00292987 0.0131058 0.000499342 -0.00208024 0.000376585 0.00983614 0.0213309 0.00696761 -0.00339206 -0.0145753 0.00108749 0.00374538 0.00918394 -0.0115867 0.00150336 0.00521705 -0.0137776 -0.0160721 -0.0110346 -0.000696075 -0.0296658 -0.0136669 -0.0182568 -0.00904506
internal_weight=84892.1 70687.6 35348.6 35339 32027.6 14204.5 25927.2 9421.47 16184.7 17848.7 11254.9 6741.57 2679.9 9742.46 6111.53 11429.7 15781.8 14179 3374.94 3311.35 15461.3 5750.96 10855.9 7311.27 2882.76 9710.34 573.79 2463.37 1650.07 3544.65
internal_count=800557 543549 208794 334755 292737 257008 175554 33240 124650 192695 117825 25571 7669 50904 70077 220581 117899 100042 18595 42018 114221 37568 206560 139788 51039 76653 14021 44250 32474 66772
is_linear=0
shrinkage=0.05


Tree=16
num_leaves=31
num_cat=0
split_feature=12 14 12 12 11 12 8 14 11 14 7 13 8 8 12 11 14 14 8 8 13 14 14 14 13 13 11 12 10 1
split_gain=1027.89 266.392 203.465 148.444 132.702 132.104 116.194 78.6677 105.373 73.8719 88.0632 75.6302 73.5349 66.4607 59.7317 54.7278 54.293 53.8195 49.9236 45.7715 45.3879 72.1826 66.493 45.2273 60.8042 45.2429 44.9944 60.0105 44.4092 46.3942
threshold=0.028250000000000001 162.37500000000003 -1.0000000180025095e-35 1.0000000180025095e-35 1.7000000000000004 0.23765000000000003 2.5000000000000004 233.83500000000004 4.5900000000000007 79.995000000000019 204.00000000000003 5.0450000000000008 2.5000000000000004 3.5000000000000004 0.0014500000000000001 3.4500000000000006 121.00500000000001 449.02000000000004 3.5000000000000004 4.5000000000000009 5.2150000000000007 116.00500000000001 188.83500000000004 59.995000000000012 4.3250000000000011 3.5450000000000004 3.7950000000000004 0.67495000000000016 1.0000000180025095e-35 134.50000000000003
decision_type=2 2 2 2 2 2 2 2 2 2 2 2 2 2 2 2 2 2 2 2 2 2 2 2 2 2 2 2 2 2
left_child=2 4 7 -4 5 18 23 8 12 10 28 -11 -1 -3 -5 -13 -14 26 -2 -12 21 -16 -22 -6 25 -25 27 -15 -8 -30
right_child=1 13 3 14 6 -7 9 -9 -10 11 19 15 16 17 20 -17 -18 -19 -20 -21 22 -23 -24 24 -26 -27 -28 -29 29 -31
leaf_value=-0.022582930581248106 0.0048764550698931824 -0.007140587638263177 0.029688602136573247 -0.017570164344765909 0.0052364711076627627 0.023678620739260234 -0.0011467587982868092 -0.029368593337691276 0.0082346574620117789 0.00133706216574113 0.015460093102807874 0.011303505852518025 -0.0083116874893017622 0.0033524563776410146 -0.0035090553970490174 0.0044428689524972703 -0.017963220895251941 -0.01360752842697964 0.016003342518918839 -0.10219534962358937 0.0069358132010049938 -0.013490122770197338 -0.007042602491697263 -0.0061378910994657329 -0.00091191100303899793 -0.025418349225557586 -0.0018167667265985542 0.040875097124342126 0.023436589782426534 -0.0033762544942928549
leaf_weight=2131.6649666352896 3814.6995708746836 4299.736111116712 301.63571604574099 993.67498710885411 1620.3813983699074 1757.6559578916058 1770.9819313721964 819.60378307322389 539.59365232510027 11290.752657605801 3775.6367490342818 4620.1349603245035 3990.0134623458143 5505.0292010750854 5467.4972607733216 7838.5786311813863 2295.3370629501296 693.61708250513766 1370.1777248431463 8.2844400629401189 1728.3922120361822 2708.8903906929772 1675.4158214904601 768.31508241809206 3310.3978525678394 503.77079259348102 7642.0702835569973 108.65979606937617 446.03849080577493 252.75039256596938
leaf_count=47452 23917 41529 1002 24414 15065 4265 12517 19172 7321 73408 19428 23389 56894 37111 83110 46063 43541 10395 5405 56 18862 45124 24621 6387 30632 5211 70508 256 2144 1358
internal_value=-3.74864e-11 0.00335854 -0.00910334 -0.00497413 0.0055004 0.0118326 0.00428619 -0.0145416 -0.0131848 0.00557409 0.010409 0.00430098 -0.014558 -0.00170573 -0.00580565 0.00698704 -0.0118363 -3.04977e-05 0.00781689 0.0152025 -0.00479616 -0.00681585 5.53844e-05 -0.00194339 -0.00448221 -0.0137733 0.00067993 0.00407875 0.00306481 0.0137384
internal_weight=84049.4 61397.7 22651.7 12875.5 43148.6 6942.53 36206 9776.21 8956.61 30003.2 6253.69 23749.5 8417.02 18249.1 12573.9 12458.7 6285.35 13949.4 5184.88 3783.92 11580.2 8176.39 3403.81 6202.87 4582.48 1272.09 13255.8 5613.69 2469.77 698.789
internal_count=800557 429044 371513 197133 269245 33587 235658 174380 155208 178363 35503 142860 147887 159799 196131 69452 100435 118270 29322 19484 171717 128234 43483 57295 42230 11598 107875 37367 16019 3502
is_linear=0
shrinkage=0.05


Tree=17
num_leaves=31
num_cat=0
split_feature=12 12 11 14 12 12 9 14 11 14 8 15 15 8 13 15 11 12 13 11 11 14 7 13 14 14 9 2 12 13
split_gain=960.075 272.521 254.377 163.091 150.113 123.708 99.5463 67.3826 67.1918 75.0983 70.9198 66.1735 64.8432 63.7966 59.1553 55.9364 50.0693 50.0281 49.3839 48.3546 46.6355 45.7317 51.4166 45.447 45.2196 43.7506 43.1476 37.8462 37.5406 41.0174
threshold=0.050650000000000008 -1.0000000180025095e-35 2.3500000000000001 224.01000000000002 0.28725000000000006 1.0000000180025095e-35 3.2500000000000004 103.99500000000002 4.5900000000000007 153.11500000000004 2.5000000000000004 1.0000000180025095e-35 1.0000000180025095e-35 3.5000000000000004 4.8250000000000011 1.0000000180025095e-35 4.3650000000000011 0.0018500000000000003 5.535000000000001 1.2450000000000003 0.89500000000000013 69.995000000000019 30.500000000000004 5.2950000000000008 373.02000000000004 215.01000000000002 3.2500000000000004 3.5000000000000004 0.074150000000000008 4.9850000000000012
decision_type=2 2 2 2 2 2 2 2 2 2 2 2 2 2 2 2 2 2 2 2 2 2 2 2 2 2 2 2 2 2
left_child=1 8 4 6 15 20 -4 14 9 10 -1 17 19 23 16 26 21 -7 -5 -6 -3 22 -8 -9 -13 -10 -2 -22 29 -16
right_child=2 5 3 18 12 11 7 13 25 -11 -12 24 -14 -15 28 -17 -18 -19 -20 -21 27 -23 -24 -25 -26 -27 -28 -29 -30 -31
leaf_value=-0.02098889274382354 -0.0062335857617786816 0.042358813919520698 -0.0055323416905869414 -0.010788790657456512 0.026860255586478067 -0.017200959232155193 -0.03927390023976688 -0.0038534482987862212 0.0078126564369199857 -0.02406798869841573 -0.0097980654962099342 0.00067224715127578623 0.033082851916726046 0.0045081225944846627 0.01544025674100569 0.013553449999097834 -0.0082827686530299229 -0.0054697567037437327 -0.0018479690452987436 0.011677206907633651 0.011741006909312884 0.0015834325589327417 0.012180625705509717 0.0055260231306497537 -0.027986069548763415 -0.021466320220471319 0.0060503486887317206 -0.082977918733197473 0.012956577751685653 -0.012806624273569434
leaf_weight=1962.1184717387659 792.72872974677011 196.10069007053971 2880.8912444604794 2509.4600961662363 704.48425874765962 979.7560062041739 49.638498336076736 5072.3188613405218 531.65131394565105 1920.4856588415278 5084.0915699627367 5839.1893815012882 652.92068850668147 13025.784484973992 219.02134601632133 2389.1578669378068 727.67877138289623 12548.844206335547 4016.1899619753822 2051.3816612747032 86.677233716007322 2916.1951364309061 2215.6513404728612 1732.6329376224894 140.96968152443878 167.87692980730208 7277.6281543523073 12.006903525441883 4365.3050457725185 311.02372635062784
leaf_count=44383 6398 559 29253 26534 1709 25984 490 44379 6802 41381 77585 53819 1344 74841 1445 8626 5147 185260 43376 6306 347 18920 13724 13543 2174 4229 38489 96 21453 1961
internal_value=-2.77679e-12 -0.00725669 0.00396685 0.00194555 0.00980289 -0.00389747 0.00335359 0.00418921 -0.0141388 -0.0153032 -0.0129143 -0.00438325 0.0189151 0.00245833 0.00736608 0.0068332 0.00399869 -0.00631934 -0.00528619 0.0155585 0.028251 0.00572348 0.0110531 -0.00146531 -3.31243e-06 0.000786114 0.00484373 0.000216551 0.0114308 -0.00113465
internal_weight=83379.9 29469.8 53910.1 40041.8 13868.3 19803.5 33516.1 30635.3 9666.22 8966.7 7046.21 19508.8 3408.79 19830.7 10804.5 10459.5 5909.16 13528.6 6525.65 2755.87 294.785 5181.48 2265.29 6804.95 5980.16 699.528 8070.36 98.6841 4895.35 530.045
internal_count=800557 442619 357938 295066 62872 268239 225156 195903 174380 163349 121968 267237 9359 132763 63140 53513 38281 211244 69910 8015 1002 33134 14214 57922 55993 11031 44887 443 24859 3406
is_linear=0
shrinkage=0.05


Tree=18
num_leaves=31
num_cat=0
split_feature=12 14 12 15 11 9 12 12 3 15 13 14 8 14 13 11 14 8 9 14 11 12 11 7 8 11 14 8 2 12
split_gain=894.048 237.557 159.56 141.745 133.469 119.6 100.554 102.797 71.256 68.0756 63.426 58.7113 53.9706 49.6495 49.472 48.9805 47.6949 47.2296 48.2584 45.5298 44.6832 43.5574 58.3882 43.6292 43.1091 43.1063 42.5755 44.9862 40.6559 39.9182
threshold=0.019050000000000001 188.83500000000004 0.35225000000000006 1.0000000180025095e-35 2.0150000000000006 4.2500000000000009 -1.0000000180025095e-35 1.0000000180025095e-35 17.500000000000004 1.0000000180025095e-35 5.4050000000000011 99.00500000000001 3.5000000000000004 286.73500000000007 5.3350000000000009 5.0250000000000012 373.02000000000004 2.5000000000000004 1.7500000000000002 165.00500000000002 3.3500000000000005 0.12085000000000001 1.5000000000000002 87.000000000000014 3.5000000000000004 2.3500000000000001 198.99500000000003 3.5000000000000004 2.5000000000000004 0.35945000000000005
decision_type=2 2 2 2 2 2 2 2 2 2 2 2 2 2 2 2 2 2 2 2 2 2 2 2 2 2 2 2 2 2
left_child=3 2 5 6 24 8 26 28 9 17 13 -7 -9 -3 -13 -6 20 18 -2 -20 -12 -10 -23 -24 -4 -16 27 -1 -8 -22
right_child=1 10 4 -5 15 11 7 12 21 -11 16 14 -14 -15 25 -17 -18 -19 19 -21 29 22 23 -25 -26 -27 -28 -29 -30 -31
leaf_value=-0.016557793815525256 -0.051402238169324078 -0.0051484359162884095 0.019538972462177576 -0.0015972958304040653 0.0096771144760935332 0.011902563887553711 0.035749390832535449 -0.012364988400569812 -0.0043043499210276828 0.0083746387866724652 0.0066072891713065407 0.0021389720865606539 -0.0029137026767320322 -0.0180705800328574 0.023698659029662162 -0.0014668409418858571 -0.0098637553658447747 0.0033934271879289615 -0.002622749566036009 -0.066899468633680459 -0.0043095418840289274 0.018385592995574979 -0.010889500449694865 0.0018551284403066221 0.039837477020069748 0.0073960057885043423 -0.025772657380365022 -0.0067097464847452135 -0.014834123366555332 0.0052850094314590874
leaf_weight=5429.5970888679149 52.993587276432663 4019.7374002620345 1293.3897222925443 4239.9298536131391 5345.7327090131585 4199.6337183109717 185.90244158776477 3832.1471254308126 6564.7895204508095 5008.8868967429735 2406.4069510215195 6180.8525833670283 2493.2020302963792 911.98266457149293 469.00187959102914 1209.0204236775171 1174.2501380755566 7391.8943176500034 2831.3092965049436 27.821129595860839 3834.9649781651678 474.64641835680231 775.80464675521944 4996.0112353392178 327.87182229477912 2993.5209465071093 944.57385875386535 1474.5598472147249 50.517965718172491 1511.2992280040635
leaf_count=105350 953 36893 3207 52510 24868 23418 609 87843 59466 26379 15308 46678 37537 12202 2079 8221 18198 53523 30523 427 39100 1432 5378 31369 658 18169 23754 22264 298 11943
internal_value=1.02428e-11 0.00280719 0.00440863 -0.00963329 0.0107988 0.00316371 -0.0119977 -0.00742976 0.00129106 0.00359308 -0.00298715 0.00696827 -0.00863967 -0.00753802 0.00481942 0.00762162 -0.000472996 0.00126871 -0.00412449 -0.0032482 0.000949365 -0.00146046 0.00152835 0.00014209 0.023644 0.00960422 -0.0158166 -0.0144545 0.0249408 -0.00159732
internal_weight=82652.3 64001.8 50143.2 18650.4 8176.01 41967.2 14410.5 6561.77 28124.2 15312.9 13858.6 13843 6325.35 4931.72 9643.38 6554.75 8926.92 10304 2912.12 2859.13 7752.67 12811.3 6246.46 5771.82 1621.26 3462.52 7848.73 6904.16 236.42 5346.26
internal_count=800557 470392 336748 330165 36954 299794 277655 126287 209450 111805 133644 90344 125380 49095 66926 33089 84549 85426 31903 30950 66351 97645 38179 36747 3865 20248 151368 127614 907 51043
is_linear=0
shrinkage=0.05


Tree=19
num_leaves=31
num_cat=0
split_feature=12 12 11 14 14 8 12 14 8 8 11 14 15 8 14 13 14 3 13 11 11 12 11 10 11 13 2 7 11 8
split_gain=851.516 244.339 219.809 131.511 125.632 89.6687 85.0932 75.3572 73.4007 72.1965 70.6868 64.0056 55.5285 54.8892 71.7521 52.0395 48.6934 43.4012 42.983 41.8568 41.0952 40.7366 40.0299 43.5049 39.9413 39.9387 52.6953 39.522 39.3417 44.6727
threshold=0.0072500000000000004 0.092350000000000002 1.7000000000000004 141.21500000000003 194.00500000000002 3.5000000000000004 0.36685000000000006 389.03500000000003 3.5000000000000004 2.5000000000000004 2.5200000000000005 157.65500000000003 1.0000000180025095e-35 4.5000000000000009 296.97000000000008 5.6150000000000011 114.00500000000001 12.500000000000002 5.455000000000001 3.2400000000000007 2.6000000000000005 0.64545000000000008 4.4600000000000009 1.0000000180025095e-35 3.4150000000000005 5.3650000000000011 1.5000000000000002 215.50000000000003 4.8650000000000011 2.5000000000000004
decision_type=2 2 2 2 2 2 2 2 2 2 2 2 2 2 2 2 2 2 2 2 2 2 2 2 2 2 2 2 2 2
left_child=5 4 6 8 9 11 -3 16 12 -2 -10 28 24 14 18 -6 27 -18 -5 -15 -14 22 -12 -24 -4 -19 -27 -7 29 -1
right_child=1 2 3 13 15 7 -8 -9 10 -11 21 -13 20 19 -16 -17 17 25 -20 -21 -22 -23 23 -25 -26 26 -28 -29 -30 -31
leaf_value=-0.018430663201439733 -0.0063046569429613258 0.010897489929185825 0.0033518939327892659 -0.0026207795276953663 -0.014184014935777152 -0.0020886302878039436 0.026416330642675435 -0.031519203120772277 0.020991725051370053 0.0013959585828289146 0.0090933854599082545 -0.025399251754926397 0.016843402749761659 0.02236165134541071 -0.011840626131088133 -0.003640025573659915 -0.015812101104364498 -0.0094129466985168816 0.0034888887315734579 0.0039888950352213954 0.0053951126607068309 0.025443867812842393 -0.0067089628231853486 0.0088723357450659415 -0.0040734642413168118 -0.020432067000465723 0.013030167953119055 0.016116467531145061 0.0083696393473509482 -0.010501890223843294
leaf_weight=2749.9628908620216 3675.1149367353646 3741.9340942134149 6672.2053662941325 7078.7135810102336 2366.3914280057652 921.60719518736005 1156.2626178315841 263.27788650308503 1148.9246464418247 17716.54073184391 5206.8301248401403 1138.0299753036234 1054.3020958928391 364.58476847060956 1470.8136189725483 2315.0069260390592 1039.814496694773 977.69991659402149 4851.8668971878942 2070.4341650918359 3056.1503909102175 308.16555512137711 974.9764464290347 828.83261839020997 2485.742640538956 148.28232830262277 569.57427383639151 440.66883004247211 215.08365822921041 5018.656552970293
leaf_count=65924 54860 13445 42192 53879 31840 12070 2673 6639 3144 161839 21619 27671 3247 1983 19037 26821 19643 16139 32307 22485 16123 875 5274 3695 26211 3371 9664 4956 2366 88565
internal_value=-3.72219e-11 0.0022594 0.00459842 0.00329965 -0.00155066 -0.0114865 0.0145608 -0.00558917 0.00582461 7.29826e-05 0.0094617 -0.0143058 0.00350346 -0.000165948 -0.00142071 -0.00896989 -0.00392314 -0.00776961 -0.000136131 0.00673977 0.00833152 0.00765169 0.0068696 0.000450491 0.00133643 -0.00283748 0.00611812 0.00380035 -0.0127245 -0.0133085
internal_weight=82026.5 68543.8 42470.7 37572.5 26073.1 13482.7 4898.2 4360.92 21736.1 21391.7 8467.73 9121.73 13268.4 15836.4 13401.4 4681.4 4097.65 2735.37 11930.6 2435.02 4110.45 7318.8 7010.64 1803.81 9157.95 1695.56 717.857 1362.28 7983.7 7768.62
internal_count=800557 543549 268189 252071 275360 257008 16118 72482 122380 216699 34607 184526 87773 129691 105223 58661 65843 48817 86186 24468 19370 31463 30588 8969 68403 29174 13035 17026 156855 154489
is_linear=0
shrinkage=0.05


Tree=20
num_leaves=31
num_cat=0
split_feature=12 14 12 12 9 8 8 12 11 14 8 14 15 12 3 12 14 14 13 14 12 13 14 13 0 8 13 11 14 11
split_gain=810.116 232.305 192.411 120.717 102.395 84.2576 79.3869 79.1947 110.24 77.591 75.7322 68.7388 61.6706 59.8344 54.7374 50.4667 50.3539 50.0688 44.8974 43.8385 55.2666 45.1628 43.8013 49.9971 42.6648 71.6769 55.2898 44.9642 41.9722 40.8788
threshold=0.037750000000000006 128.00500000000002 -1.0000000180025095e-35 1.0000000180025095e-35 3.7500000000000004 3.5000000000000004 3.5000000000000004 0.23085000000000003 1.2450000000000003 239.00500000000002 1.0000000180025095e-35 398.61500000000007 1.0000000180025095e-35 0.61765000000000014 3.5000000000000004 0.0010500000000000004 265.09500000000008 99.00500000000001 5.535000000000001 90.00500000000001 0.43645000000000006 4.5450000000000008 137.04500000000004 5.3750000000000009 20.500000000000004 3.5000000000000004 5.4850000000000012 3.4150000000000005 41.010000000000012 2.8000000000000003
decision_type=2 2 2 2 2 2 2 2 2 2 2 2 2 2 2 2 2 2 2 2 2 2 2 2 2 2 2 2 2 2
left_child=2 4 12 -4 10 16 15 24 -9 13 -2 17 -1 29 -12 -5 -3 -8 -19 20 28 -21 -17 -24 25 26 -6 -27 -16 -7
right_child=1 5 3 6 7 9 11 8 -10 -11 14 -13 -14 -15 19 22 -18 18 -20 21 -22 -23 23 -25 -26 27 -28 -29 -30 -31
leaf_value=-0.015100524139526467 -0.027272636020251657 -0.0032471938555240876 0.028518191541328831 -0.02375191540574409 0.003546139116153731 0.0081253307506537111 0.0086644616616685967 0.034672593529684617 0.010932911461158226 -0.003320200387613435 0.0088040816354838201 -0.022384173261488931 -0.0044646225378766804 0.018676085017316862 0.016156987890883556 -0.0052256458201498145 -0.018599853456524255 -0.0050746618638802879 0.0050929403098413338 -0.017693557278258724 0.018705923483402675 -0.0013202501946929601 -0.019563765980611623 0.0026876830117338948 -0.0020419499640644506 0.016545274504483724 0.042397685292202641 0.0065770145562321887 -0.0004705638126189589 0.0014690101470486946
leaf_weight=7668.6019534227089 213.93174925469793 7517.46176902554 278.26543595828116 478.81492961349431 7169.1974008303368 3026.4541557882912 1438.373772334191 530.76181061752141 6218.9123846376315 5350.544373183162 2722.5358308062423 347.75668985559605 1657.500008549192 643.80500574503094 426.17042577418033 6364.8484076805762 574.92473639769014 3484.7932619446074 1577.1065630842349 541.74975234421436 519.86284815729596 1892.0885580073809 1167.1594254110823 322.1163223083131 1420.5040771004278 2501.3812028658576 92.758097539655864 2065.3518413901329 3467.8687073214678 9697.2598076401046
leaf_count=151368 2535 65403 1002 13762 50729 13808 12746 1142 25777 58426 18844 6861 23012 2799 3583 105565 7435 42446 18804 4193 2281 13644 24929 5040 8507 8906 402 10201 29853 66554
internal_value=-3.95814e-11 0.00330143 -0.00753831 -0.0041166 0.0063408 -7.49327e-05 -0.00471479 0.00839141 0.0127997 0.00176809 0.00214935 -0.000726274 -0.0132102 0.00380475 0.00280705 -0.00799256 -0.00433793 0.000432397 -0.0019068 0.000422735 0.00339344 -0.0049648 -0.00703181 -0.014751 0.00614566 0.0071289 0.0040424 0.012037 0.00134918 0.00305228
internal_weight=81378.9 56593.5 24785.3 15459.2 29783.1 26810.4 15181 19998.9 6749.67 18718.1 9784.21 6848.03 9326.1 13367.5 9570.28 8332.94 8092.39 6500.27 5061.9 6847.74 4413.9 2433.84 7854.12 1489.28 13249.2 11828.7 7261.96 4566.73 3894.04 12723.7
internal_count=800557 395022 405535 231155 180597 214425 230153 105664 26919 141587 74933 80857 174380 83161 72398 149296 72838 73996 61250 53554 35717 17837 135534 29969 78745 70238 51131 19107 33436 80362
is_linear=0
shrinkage=0.05


Tree=21
num_leaves=31
num_cat=0
split_feature=12 14 12 11 9 12 9 8 14 15 8 11 14 13 11 3 14 3 15 13 14 13 12 14 11 8 13 14 7 11
split_gain=761.979 237.939 171.852 134.143 96.9861 96.2206 71.245 68.1051 78.4987 62.2098 60.8421 56.8353 54.2642 54.1708 53.8823 53.2389 51.7015 46.4788 45.6011 47.951 45.401 43.2441 40.9279 39.978 48.6168 39.7271 38.215 38.2034 36.5429 36.1449
threshold=0.0058500000000000002 152.00500000000002 0.075250000000000025 1.7000000000000004 4.2500000000000009 0.13075000000000003 3.2500000000000004 2.5000000000000004 79.995000000000019 1.0000000180025095e-35 3.5000000000000004 2.8600000000000008 346.97000000000008 5.2750000000000012 6.1850000000000014 3.5000000000000004 249.00500000000002 5.5000000000000009 1.0000000180025095e-35 4.9850000000000012 109.00500000000001 5.9250000000000007 0.35225000000000006 389.03500000000003 4.5900000000000007 3.5000000000000004 6.1650000000000009 171.69500000000002 30.500000000000004 4.8550000000000013
decision_type=2 2 2 2 2 2 2 2 2 2 2 2 2 2 2 2 2 2 2 2 2 2 2 2 2 2 2 2 2 2
left_child=7 2 6 10 9 13 -2 29 -9 28 20 22 21 -3 15 -15 -17 -11 19 -8 -4 -13 -7 24 25 27 -18 -10 -5 -1
right_child=1 5 3 4 -6 11 18 8 23 17 -12 12 -14 14 -16 16 26 -19 -20 -21 -22 -23 -24 -25 -26 -27 -28 -29 -30 -31
leaf_value=-0.019178783428720293 -0.0090022363545557895 -0.010524507261713839 0.014701651940759406 -0.021633534055177175 0.0097084345465514796 0.0038492893562411833 -0.0037052882211113095 0.00046322568315140448 -0.013142868406799164 0.013215023669155722 0.025185545728747972 -0.00065969420103208925 -0.012530978806070129 -0.01331631368113159 -0.041665220928414237 0.0027459362589149377 -0.010704407952683204 0.0041187310464034623 0.0051394123710485975 0.0039827998181441613 0.001344644298514555 0.011147973209703356 0.018684259923014434 -0.030422940063233362 0.0047650943280805463 -0.0074150709691016559 0.0052903044284207112 -0.027995338406753487 0.0010422834560255482 0.0081993966871133032
leaf_weight=2781.8485421374789 1958.8080983324908 3621.5373355940683 2452.1789051673841 180.63135602721013 7699.615369218518 1638.6260015557054 5627.3432451589615 1707.4400205131678 3686.1496182809642 1972.3917771521956 1023.281304624863 8069.3869072363013 881.15175267413724 975.78163337847218 88.91898018727079 3829.2767308104085 1617.5634116681176 4875.9251036001369 4763.1761062375735 3171.0220809329185 859.06434481311589 857.85803373076487 649.09788489481434 265.48067341616843 477.45923909981502 3098.2313130737748 485.53378367086407 490.57762096315855 10842.3449527669 126.01389393082354
leaf_count=68724 31581 47052 8755 1613 39359 8264 73561 25419 70242 8345 2745 65055 14606 11317 1323 32892 21648 24097 33484 31140 3503 7161 2107 6966 7726 52299 6276 12856 79016 1425
internal_value=-1.73849e-11 0.00209103 0.00418034 0.00639584 0.00501711 -0.00208724 -8.86004e-05 -0.0112785 -0.00927111 0.00299592 0.0145294 0.000961781 -0.000693451 -0.00556052 -0.00299127 -0.00249347 -0.000713287 0.00673856 0.00119887 -0.000934422 0.0112363 0.000474956 0.00805843 -0.0113441 -0.0106907 -0.0117051 -0.00701177 -0.0148874 0.000670699 -0.0179923
internal_weight=80773.7 68140.5 45425.8 29905.4 25570.9 22714.7 15520.3 12633.2 9725.34 17871.3 4334.52 12096.1 9808.4 10618.6 6997.07 6908.16 5932.37 6848.32 13561.5 8798.37 3311.24 8927.24 2287.72 8017.9 7752.42 7274.96 2103.1 4176.73 11023 2907.86
internal_count=800557 554900 337199 167433 152430 217701 169766 245657 175508 113071 15003 97193 86822 120508 73456 72133 60816 32442 138185 104701 12258 72216 10371 150089 143123 135397 27924 83098 80629 70149
is_linear=0
shrinkage=0.05


Tree=22
num_leaves=31
num_cat=0
split_feature=12 14 12 8 12 9 11 14 8 11 8 14 11 12 12 14 8 7 13 14 13 14 7 11 14 2 11 7 11 12
split_gain=738.264 208.615 179.738 108.846 107.494 100.001 99.5767 85.6296 74.7855 71.7425 63.3779 60.5547 75.4866 57.8299 56.7786 53.8405 52.1715 47.9872 44.8822 69.9638 49.5319 44.3698 41.7959 40.5092 39.7724 39.5967 38.6699 38.0078 35.381 39.7526
threshold=0.037750000000000006 111.00500000000001 -1.0000000180025095e-35 2.5000000000000004 1.0000000180025095e-35 3.2500000000000004 2.4400000000000004 299.00500000000005 3.5000000000000004 3.7950000000000004 2.5000000000000004 219.00500000000002 4.3750000000000009 0.30665000000000003 0.47985000000000005 60.005000000000003 2.5000000000000004 54.000000000000007 4.9150000000000009 140.00500000000002 5.2950000000000008 99.00500000000001 98.500000000000014 0.89500000000000013 402.75500000000005 3.5000000000000004 1.2450000000000003 215.50000000000003 3.2000000000000006 0.27745000000000003
decision_type=2 2 2 2 2 2 2 2 2 2 2 2 2 2 2 2 2 2 2 2 2 2 2 2 2 2 2 2 2 2
left_child=2 3 11 28 23 -3 13 8 -7 14 -6 12 16 -5 -10 -12 -1 -9 -17 27 -21 -18 -8 -4 -22 -19 -15 -20 29 -2
right_child=1 5 4 6 10 7 22 17 9 -11 15 -13 -14 26 -16 18 21 25 19 20 24 -23 -24 -25 -26 -27 -28 -29 -30 -31
leaf_value=-0.019919810723514342 2.7497393574878547e-05 -0.012768695877390643 0.040854471225703078 0.011413030162836743 -0.011931381410741453 -0.0016272822377072995 0.0002616845149414528 0.0083678441010620313 0.00614241872137392 0.00094093141463257523 0.010021101604592464 -0.025527332846610906 0.0046609675428674223 0.039462901797845867 0.023032047320236275 -0.0078413900241852165 -0.0052648699159528016 -0.015051298109618153 -0.0029445447104016827 -0.01537297479096467 -0.00082324046734344979 -0.014243671712228224 0.0075431126081525988 5.6240904223906054e-05 -0.021737326776268977 -0.0012626425252033661 0.018597788338939655 0.0079796742840665263 -0.0065233695510117902 0.010226384603824142
leaf_weight=1972.6288270725054 3410.8695084318751 1352.5890387657564 181.28729079570621 4909.3597567717079 2409.38425371825 9637.5138243746478 2516.3170133691747 409.75575417326763 7893.3513210109668 9977.7744352205191 738.48838749236893 849.58840880182106 663.77732146630296 291.1498039951548 531.08488854812458 4469.3523162833299 2371.2281006920384 1483.9200249434216 1289.2708873023512 1040.523194080044 2619.573871083674 3277.9511003891821 9090.5987919138279 91.57830919418484 248.92443445633398 802.08876126783434 935.78427873319015 2082.0121954437345 1266.5596849604044 1327.2010292941704
leaf_count=46798 30743 13257 559 23341 54552 80350 16140 4487 43185 73086 8865 21962 9615 579 1584 68680 34887 22841 15195 19668 33950 61118 52437 443 5496 10066 2400 23747 15443 5083
internal_value=-3.98728e-11 0.00316624 -0.00727363 0.00671883 -0.00393709 0.000537021 0.00868804 0.00112257 0.00194088 0.00380958 -0.0045067 -0.0128145 -0.0115109 0.0138396 0.00720716 -0.00307423 -0.0129193 -0.00738896 -0.0038973 -0.00147603 -0.00602796 -0.0104748 0.00596454 0.0271619 -0.00263814 -0.0102133 0.0235491 0.00380195 0.000899976 0.00288435
internal_weight=80141.5 55835.9 24305.6 23747.8 15170.4 32088.1 17743.2 30735.5 28039.7 18402.2 14897.5 9135.17 8285.59 6136.29 8424.44 12488.1 7621.81 2695.76 11749.7 7280.3 3909.02 5649.18 11606.9 272.866 2868.5 2286.01 1226.93 3371.28 6004.63 4738.07
internal_count=800557 395022 405535 146166 231155 248856 94897 235599 198205 117855 230153 174380 152418 26320 44769 175601 142803 37394 166736 98056 59114 96005 68577 1002 39446 32907 2979 38942 51269 35826
is_linear=0
shrinkage=0.05


Tree=23
num_leaves=31
num_cat=0
split_feature=12 14 12 11 15 8 8 11 14 13 8 11 15 14 7 14 12 15 8 11 12 9 11 12 12 2 14 13 7 14
split_gain=694.696 219.838 169.697 115.509 101.052 64.8756 64.1085 90.9505 59.4009 73.9199 53.9899 52.4414 64.5339 50.7135 50.0484 52.4656 49.0418 47.0236 46.3086 45.5984 41.7674 41.5816 40.4987 36.7092 72.8279 38.978 36.1826 36.6826 35.9945 33.7095
threshold=0.010750000000000001 178.56000000000003 0.13075000000000003 1.2450000000000003 1.0000000180025095e-35 3.5000000000000004 3.5000000000000004 4.035000000000001 464.07500000000005 5.7250000000000005 1.5000000000000002 3.0650000000000004 1.0000000180025095e-35 286.73500000000007 215.50000000000003 127.00500000000001 0.15365000000000004 1.0000000180025095e-35 2.5000000000000004 4.8350000000000009 0.49425000000000002 3.2500000000000004 4.0500000000000007 -1.0000000180025095e-35 1.0000000180025095e-35 2.5000000000000004 98.995000000000019 4.8550000000000013 158.50000000000003 170.00500000000002
decision_type=2 2 2 2 2 2 2 2 2 2 2 2 2 2 2 2 2 2 2 2 2 2 2 2 2 2 2 2 2 2
left_child=4 2 5 16 10 17 11 20 9 13 28 12 -5 -3 -7 -16 -4 19 -18 21 -8 -2 -9 -12 25 -25 -20 -28 -1 -17
right_child=1 8 3 6 -6 14 7 22 -10 -11 23 -13 -14 -15 15 29 18 -19 26 -21 -22 -23 -24 24 -26 -27 27 -29 -30 -31
leaf_value=-0.012804874332647351 -0.010640180704532433 -0.0031616486570571348 -0.0033073737148466703 0.003906019796146157 -0.001830078804003085 0.00071867092710937834 0.012285226255201554 -0.03602293896381667 -0.016179643424112031 0.0029936790327554264 -0.013462942438085438 -7.2472644184492309e-05 0.015241155384658679 -0.013448452103641761 0.012717774541532454 0.0035598819248737904 0.0072475128333390135 0.0035011898791645398 0.038601538950002776 0.013452768604804414 0.027795188539717859 -0.0021107718336990013 0.0047147823131519278 0.033202080058071619 -0.0090060312199153579 -0.019643343681419893 0.0038096357426749953 0.029243548665348819 -0.037955917278789726 -0.023420001199769589
leaf_weight=252.5135120053892 1709.2669257185189 9196.5474860149552 204.02987950737588 5859.46748163749 3041.2841544321855 5132.1925686149625 4344.3945350456052 61.771808409132063 795.87799712654669 4774.4693295205361 6952.7495169528993 5584.2674619718455 1598.1461388589814 1377.600773731363 2530.7618307969533 1898.0764127823059 355.79672175529413 3961.5814678812167 463.42337100580335 411.85116558091249 482.24924302194268 8711.5406661360757 4934.6075929125072 159.78272705152631 3651.3074173117056 44.642682489939034 221.25051897857338 394.62087619584054 325.78672233066754 123.29466295149177
leaf_count=6138 27172 82750 843 31310 41819 36589 16002 468 12490 45886 139423 46491 5048 19223 12697 13660 1182 30344 986 3963 1180 100924 26408 564 83948 280 718 1015 9814 1222
internal_value=1.14048e-13 0.00219916 0.00386691 0.00680836 -0.00992682 0.000922406 0.00588922 0.00893986 -0.00286083 -0.0021702 -0.0120894 0.00359151 0.00633511 -0.00450181 0.00410389 0.00792047 0.0196298 -0.00116019 0.0228909 -0.0028649 0.0138349 -0.0035098 0.00421113 -0.011293 -0.00738008 0.0216616 0.0280478 0.0201065 -0.0269738 0.00191423
internal_weight=79555.2 65127.1 48982.6 24504 14428.1 24478.6 22864.9 9823.02 16144.5 15348.6 11386.8 13041.9 7457.61 10574.1 9684.33 4552.13 1639.12 14794.2 1435.09 10832.7 4826.64 10420.8 4996.38 10808.5 3855.73 204.425 1079.29 615.871 578.3 2021.37
internal_count=800557 518571 358222 131651 281986 226571 126907 44058 160349 147859 240167 82849 36358 101973 64168 27579 4744 162403 3901 132059 17182 128096 26876 224215 84792 844 2719 1733 15952 14882
is_linear=0
shrinkage=0.05


Tree=24
num_leaves=31
num_cat=0
split_feature=12 14 12 11 15 8 12 12 14 0 14 14 13 14 13 8 11 15 9 12 8 7 14 11 11 12 13 8 0 11
split_gain=675.916 192.475 140.552 123.763 109.36 76.6397 67.7115 72.1405 60.8158 51.0388 49.1428 46.3607 58.1009 46.1299 60.8215 44.4769 56.185 42.6567 40.5244 40.0839 37.9896 36.558 34.7662 34.6954 34.3897 34.3529 33.5459 33.4527 32.8624 32.816
threshold=0.019050000000000001 189.00500000000002 0.23085000000000003 1.2450000000000003 1.0000000180025095e-35 3.5000000000000004 -1.0000000180025095e-35 1.0000000180025095e-35 92.00500000000001 20.500000000000004 127.00500000000001 449.02000000000004 6.0650000000000004 109.00500000000001 4.955000000000001 3.5000000000000004 2.6000000000000005 1.0000000180025095e-35 3.2500000000000004 0.20285000000000003 3.5000000000000004 215.50000000000003 198.99500000000003 0.89500000000000013 3.6250000000000004 0.18185000000000004 5.5750000000000011 3.5000000000000004 18.500000000000004 1.5000000000000002
decision_type=2 2 2 2 2 2 2 2 2 2 2 2 2 2 2 2 2 2 2 2 2 2 2 2 2 2 2 2 2 2
left_child=4 2 5 -4 6 13 22 23 17 10 21 12 19 18 -15 -10 -17 -5 -2 25 -9 -7 27 -8 -19 -3 -18 -1 -14 -23
right_child=1 11 3 8 -6 9 7 20 15 -11 -12 -13 28 14 -16 16 26 24 -20 -21 -22 29 -24 -25 -26 -27 -28 -29 -30 -31
leaf_value=-0.014673200726617007 -0.0040593397871495516 -0.0048449176112264243 0.025716932918655323 0.0073402272344190965 -0.0014207524173228334 0.0056047764942487172 0.035822440267622588 -0.01123941153978544 0.00058826510380106966 -0.0019915707253772468 0.0028712128216986121 -0.014877963204930922 0.0043710356677543428 -0.0084417550761180429 0.0010680503886524686 0.022001778976171209 0.0034874526018173766 0.023755365034484784 0.0032087847110051013 0.00024561035115885514 -0.0031201002619706624 0.027224510811311348 -0.023433496336141935 -0.0059988344775871363 0.010726530548192252 -0.019101926203917475 0.014400994913777665 -0.0059218038092026144 0.025784700274417385 0.011350042522090452
leaf_weight=5067.2001775719691 2352.281098457519 5932.8513444529963 918.46513731312007 2846.7126968826633 4038.2863490766613 3146.7642744118348 142.44009173568338 3594.6166088578757 4196.1714167587925 2225.6143061926123 5570.2067433411721 766.7738811566378 868.59337136568502 3072.2817872366868 3713.6736394831678 593.69903918774799 3587.6758798068622 951.58003137027845 10384.045101884287 4640.6489556651795 2404.2814906116691 372.10221466096118 870.14708400904783 76.081653345841914 1082.7794824815355 454.91733531223144 876.05834301374853 1391.9519704807317 225.72793877357617 2602.6770944036543
leaf_count=105350 30112 63661 2387 15543 52510 17234 511 87843 26809 14248 37392 12612 8626 32613 34980 1537 17847 2455 84847 38825 37537 1235 23754 396 5187 4656 4469 22264 1806 11311
internal_value=-5.45776e-12 0.00247595 0.00391945 0.00793151 -0.00864258 0.00211339 -0.0107954 -0.00695736 0.00677582 0.00494839 0.00626946 -0.00295475 -0.00220059 9.23251e-05 -0.00323743 0.00439384 0.00755134 0.0112916 0.00186643 -0.00329097 -0.0079853 0.00936164 -0.0140512 0.0212617 0.0168208 -0.00586026 0.00562936 -0.0127873 0.00878808 0.0133357
internal_weight=78967.3 61382.3 48492.8 15053.1 17585 33439.6 13546.7 6217.42 14134.7 13917.4 11691.8 12889.5 12122.7 19522.3 6785.96 9253.6 5057.43 4881.07 12736.3 11028.4 5998.9 6121.54 7329.3 218.522 2034.36 6387.77 4463.73 6459.15 1094.32 2974.78
internal_count=800557 470392 340206 76234 330165 263972 277655 126287 73847 81420 67172 130186 117574 182552 67593 50662 23853 23185 114959 107142 125380 29780 151368 907 7642 68317 22316 127614 10432 12546
is_linear=0
shrinkage=0.05


Tree=25
num_leaves=31
num_cat=0
split_feature=12 12 11 15 12 12 14 8 14 8 15 12 11 14 8 11 8 13 14 3 8 11 8 14 4 11 7 13 14 11
split_gain=661.608 203.317 202.537 134.289 87.7276 84.8305 77.9411 61.9074 61.0339 71.3341 60.1146 55.381 52.0686 58.0711 56.3571 44.7807 44.3456 41.8218 41.0629 40.5433 43.4475 40.4228 38.4578 36.1191 35.2188 35.0744 34.5415 34.0394 33.6693 33.3625
threshold=0.061750000000000006 -1.0000000180025095e-35 2.3500000000000001 1.0000000180025095e-35 1.0000000180025095e-35 0.28725000000000006 208.11500000000004 3.5000000000000004 194.00500000000002 3.5000000000000004 1.0000000180025095e-35 0.0072500000000000004 4.5900000000000007 153.11500000000004 2.5000000000000004 3.6500000000000008 2.5000000000000004 5.6150000000000011 89.00500000000001 5.5000000000000009 3.5000000000000004 0.89500000000000013 3.5000000000000004 81.00500000000001 2.5000000000000004 1.2450000000000003 40.500000000000007 5.5450000000000008 215.01000000000002 3.2400000000000007
decision_type=2 2 2 2 2 2 2 2 2 2 2 2 2 2 2 2 2 2 2 2 2 2 2 2 2 2 2 2 2 2
left_child=1 12 5 6 21 16 7 -4 9 11 25 -6 13 14 -1 -5 -2 -10 -18 -8 24 -3 -20 -11 -21 -7 29 -25 -14 -22
right_child=2 4 3 15 8 10 19 -9 17 23 -12 -13 28 -15 -16 -17 18 -19 22 20 26 -23 -24 27 -26 -27 -28 -29 -30 -31
leaf_value=-0.018560466456319643 -0.00020758424491581909 0.040303869857081398 -0.0016889039239652412 0.010038285615131877 -0.012197707409630804 0.023249050219710084 -0.014827536459491288 0.0042180664089997667 -0.014461319878193647 0.010563758535850813 0.030692783039281631 -0.0030618759728371194 0.0075743021914225026 -0.021399798344363442 -0.0081628674645857751 0.0038007671430085616 0.015029518326666054 -0.0038666397700348625 0.0020918378420685924 -0.019628126819730484 0.045835128738664979 -0.0012271536362997687 0.010761170960757436 -0.0012471503047581116 0.005158948858568939 0.0096853605236019366 -0.0029531685813269973 0.010162653606355059 -0.019209249752581439 0.0062805403036988935
leaf_weight=1810.118341510708 1810.4995456953766 168.04824964562431 9562.4547741098795 4244.17644372012 2051.1364653533092 631.46248063142411 1023.0355264771497 8273.159727656981 1918.1614007659373 990.93212264694739 591.03537439741194 8673.3439919932862 505.9281446824898 1725.1660369412857 4653.9523628403549 8935.4662654433632 1820.2641243673861 1810.7961266970378 2643.7975761072012 635.19195189175662 65.156648599542677 89.950834856135771 2478.5033098517451 5038.3220257781213 185.05648043064866 1943.7500299694948 2995.5842409634497 751.13367284089327 152.76847752893809 293.19101951108314
leaf_count=44383 12417 559 91242 19649 53372 1709 12099 49195 31755 7904 1344 120570 6802 41381 77585 57976 7277 25122 15160 7991 309 443 10306 49366 1732 6306 33252 6234 4229 2888
internal_value=-1.7328e-11 -0.00578261 0.00364506 0.00178424 -0.00315637 0.00929846 -0.000518997 0.00105108 -0.0035085 -0.00227125 0.0163118 -0.00480917 -0.0121618 -0.0132496 -0.0110745 0.0058094 0.0067615 -0.0093165 0.00857892 -0.00590713 -0.00372086 0.0258242 0.00628663 0.00174296 -0.0140359 0.0130113 -0.00119818 0.000233177 0.00136252 0.0134726
internal_weight=78471.5 30339.8 48131.8 36212.5 21491.8 11919.3 23032.8 17835.6 21233.8 17504.9 3166.25 10724.5 8847.93 8189.24 6464.07 13179.6 8753.06 3728.96 6942.57 5197.22 4174.18 257.999 5122.3 6780.39 820.248 2575.21 3353.93 5789.46 658.697 358.348
internal_count=800557 469705 330852 276333 295325 54519 198708 140437 294323 237446 9359 173942 174380 163349 121968 77625 45160 56877 32743 58271 46172 1002 25466 63504 9723 8015 36449 55600 11031 3197
is_linear=0
shrinkage=0.05


Tree=26
num_leaves=31
num_cat=0
split_feature=12 14 12 12 11 12 8 14 8 2 14 11 15 12 8 14 5 13 11 14 13 13 13 8 11 13 14 13 8 14
split_gain=622.627 178.297 114.13 107.813 104.377 91.1791 65.5068 71.7476 57.1066 62.9139 48.4748 61.0933 46.4683 44.3732 41.789 42.3512 41.4208 40.8271 40.4771 38.6921 53.4167 38.4759 38.3435 36.4951 36.0091 35.8131 34.34 35.6599 33.8457 47.3756
threshold=0.024650000000000002 143.00500000000002 0.16425000000000003 -1.0000000180025095e-35 1.2450000000000003 1.0000000180025095e-35 3.5000000000000004 303.01500000000004 2.5000000000000004 2.5000000000000004 233.83500000000004 4.3750000000000009 1.0000000180025095e-35 0.0014500000000000001 2.5000000000000004 119.99500000000002 1.5000000000000002 5.1550000000000011 0.89500000000000013 68.010000000000005 4.7550000000000008 6.0050000000000008 5.0850000000000009 1.5000000000000002 3.3500000000000005 5.8250000000000011 49.005000000000003 4.6250000000000009 2.5000000000000004 94.00500000000001
decision_type=2 2 2 2 2 2 2 2 2 2 2 2 2 2 2 2 2 2 2 2 2 2 2 2 2 2 2 2 2 2
left_child=3 2 8 10 -4 18 17 25 16 -10 11 14 -11 -7 -1 -16 26 -3 -5 23 -21 -9 -17 -6 -14 -8 27 -2 -15 -30
right_child=1 6 4 5 19 13 7 21 9 12 -12 -13 24 28 15 22 -18 -19 -20 20 -22 -23 -24 -25 -26 -27 -28 -29 29 -31
leaf_value=-0.018515062414262432 0.015281132576665329 -0.0099543941631397986 0.022540439864408849 0.040189991363328167 -0.025696752026790927 -0.01572274410968548 0.00096999313817756286 -0.012347461969677613 0.0054347287920434723 -0.0066549899240151977 -0.024490312178960347 0.0036804808931204334 0.010731925250019134 -0.010901391099941982 -0.0065763473230536929 -0.022369008808051854 -0.018455436564663159 -0.0015903170202045095 -0.0016514552842326802 0.00088613960787681733 0.0078629057793143577 0.0001189002034127645 -0.0085594479670687649 0.012729529309363339 -0.0020586031765771253 0.0079191819470162753 -0.0033278912111359875 -0.048109929405849947 0.0036823971836182747 -0.0051053413723790063
leaf_weight=1888.0537021759374 403.74774939112831 2738.9934263245668 1122.2834944440983 162.62418612278998 63.151094863889739 898.2255973382853 11632.095704413601 1462.4402614927385 11695.409860304906 2227.1572734436486 701.4210828259238 669.23006000521127 979.98996203718707 1526.5001454376616 3503.5353904449148 1037.3417948751885 400.70695462322328 3122.0014243932674 89.673621094785631 4143.3860901880544 8120.4246536493883 1073.108279945387 975.20442774362164 2866.7302462272346 1254.9045285962056 2205.5571271236986 3083.6091838115826 23.475181507878006 2090.638595607481 5757.1920684381621
leaf_count=47059 4603 30207 3139 559 703 24414 87884 21961 81540 20078 19172 10152 4600 37057 54637 23346 5214 30505 443 22374 40437 14201 20014 15552 8007 16520 36780 463 28765 90171
internal_value=5.49812e-11 0.00256459 0.00472021 -0.00778947 0.00782594 -0.00437722 -0.000962956 0.000660801 0.00219526 0.00350757 -0.0118823 -0.0107869 -0.00154366 -0.00510656 -0.0120945 -0.00989688 -0.00322553 -0.00549907 0.0253184 0.00673905 0.00550577 -0.00707138 -0.0156774 0.0119013 0.00354998 0.00207761 -0.00148728 0.0117979 -0.00408934 -0.00276431
internal_weight=77918.8 58619.2 36385 19299.6 16316 10524.9 22234.2 16373.2 20069 16157.5 8774.79 8073.37 4462.05 10272.6 7404.14 5516.08 3911.54 5860.99 252.298 15193.7 12263.8 2535.55 2012.55 2929.88 2234.89 13837.7 3510.83 427.223 9374.33 7847.83
internal_count=800557 444768 243490 355789 82205 181409 201278 140566 161285 114225 174380 155208 32685 180407 145056 97997 47060 60712 1002 79066 62811 36162 43360 16255 12607 104404 41846 5066 155993 118936
is_linear=0
shrinkage=0.05


Tree=27
num_leaves=31
num_cat=0
split_feature=12 11 12 14 12 15 12 8 15 15 9 11 14 8 11 12 12 9 14 1 8 14 12 8 11 7 5 11 8 14
split_gain=592.305 168.95 153.26 117.488 95.7711 92.8568 80.3818 66.488 54.6967 50.0494 47.35 43.7383 48.1396 46.3966 39.5662 38.0289 36.3525 35.9844 37.7996 35.778 35.4998 39.7553 35.4672 35.4286 40.5615 35.0611 38.0112 33.6691 32.9071 35.1191
threshold=0.045350000000000008 2.1400000000000006 -1.0000000180025095e-35 259.00500000000005 0.28725000000000006 1.0000000180025095e-35 1.0000000180025095e-35 1.5000000000000002 1.0000000180025095e-35 1.0000000180025095e-35 3.2500000000000004 4.5900000000000007 153.11500000000004 3.5000000000000004 0.89500000000000013 0.14695000000000003 0.0031500000000000005 3.7500000000000004 60.005000000000003 153.50000000000003 4.5000000000000009 108.99500000000002 0.61765000000000014 4.5000000000000009 3.2000000000000006 50.500000000000007 1.0000000180025095e-35 3.77 2.5000000000000004 65.00500000000001
decision_type=2 2 2 2 2 2 2 2 2 2 2 2 2 2 2 2 2 2 2 2 2 2 2 2 2 2 2 2 2 2
left_child=2 4 11 5 17 7 14 -3 16 -6 -9 12 13 -1 -4 -12 -8 -2 -19 -15 21 -17 23 24 -7 -5 -27 -22 -26 -30
right_child=1 3 6 25 9 22 8 10 -10 -11 15 -13 -14 19 -16 20 -18 18 -20 -21 27 -23 -24 -25 28 26 -28 -29 29 -31
leaf_value=-0.012845423542464053 0.00033076187741937658 -0.017761349687304289 0.039946041637714043 0.005501356138521641 0.01403963209399324 0.0089853622333694472 -0.013290657719696536 -0.006216559448676072 0.00042259033334297532 0.032875960253863079 -0.0008533699338690603 0.00070980305263643303 -0.020212752641771924 -0.01195957871642519 -0.0017381027846113271 0.0067722513543583404 -0.0047403124390266909 0.025875867085348048 0.0071153729492341739 0.0047764348003636742 0.028401316100756181 0.00060009142439127296 0.01709217486946973 0.012794506675732739 -0.011620865883555934 -0.011552389893838498 0.00011099285191986675 0.0066955429710293295 0.01217257688457531 0.0019385818548944
