tree
version=v4
num_class=1
num_tree_per_iteration=1
label_index=0
max_feature_idx=15
objective=lambdarank
feature_names=site_id visitor_location_country_id srch_length_of_stay srch_booking_window srch_adults_count srch_children_count srch_room_count prop_country_id prop_starrating prop_review_score prop_brand_bool prop_location_score1 prop_location_score2 prop_log_historical_price price_usd promotion_flag
feature_infos=[1:34] [2:231] [1:28] [0:475] [1:9] [0:8] [1:8] [2:230] [0:5] [-1:5] [0:1] [0:6.9800000000000004] [-1:1] [0:6.21] [0:1047901] [0:1]
tree_sizes=14159 14146 14127 14165 14173 14136 14192 14121 14132 14161 14108 14108 14109 14135 14159 14149 14126 14130 14113 14121 14131 14123 14100 14136 14053 14165 14094 14117 14136 14162 14138 14128 14098 14148 14166 14097 14079 14115 14127 14114 14051 14129 14157 14095 14129 14056 14068

Tree=0
num_leaves=127
num_cat=0
split_feature=12 14 12 11 15 15 15 8 8 12 8 14 8 14 14 12 15 14 11 11 11 8 11 12 8 11 8 14 9 11 11 8 8 14 14 14 8 8 12 9 13 12 9 13 11 14 9 7 7 11 12 7 11 8 14 2 14 8 12 9 14 13 13 3 12 12 14 8 12 10 12 14 13 14 9 14 12 7 12 10 11 11 9 14 12 11 11 7 11 15 11 12 13 3 1 14 0 12 0 14 12 11 3 8 14 9 13 13 14 11 15 12 11 12 14 12 9 11 12 8 8 13 11 11 3 3
split_gain=5239.66 863.953 704.346 643.381 430.257 276.995 276.902 226.109 180.246 176.901 152.684 149.58 146.975 145.647 98.878 97.1734 78.8745 67.2418 66.3753 58.3136 57.4029 56.6366 56.2902 54.8334 48.0941 44.694 43.8018 59.8864 43.2846 53.3665 42.5851 42.3439 40.8904 40.0819 39.8333 35.9819 42.2275 35.9232 33.0733 32.8804 32.5744 31.9628 31.7038 31.1364 30.5458 29.9651 29.9495 29.3571 28.9318 28.8494 29.9197 28.0333 26.3608 25.9027 31.8745 23.5649 23.3263 24.2952 23.1319 22.9973 22.9025 22.5185 22.2258 21.8289 21.8104 21.8086 21.7358 21.6442 21.4515 21.1734 20.8387 20.6792 22.774 20.5852 23.4196 20.1271 20.0176 19.8501 19.7523 19.3364 19.2142 19.2035 19.1896 20.9415 20.3027 19.0113 18.9225 18.9049 18.5943 18.2794 18.1343 18.0518 17.9865 17.9383 17.5561 21.9355 17.4755 17.4083 17.4002 17.1901 17.1708 17.0209 17.0101 16.9275 20.0522 16.6442 16.632 16.3029 28.0245 16.3026 16.0372 15.9279 16.3758 15.9168 15.8443 15.7734 15.5785 15.4993 15.4604 15.6968 15.3479 15.2089 15.1776 15.1342 14.9711 14.7663
threshold=0.019950000000000006 289.00500000000005 0.086350000000000024 2.7400000000000007 1.0000000180025095e-35 1.0000000180025095e-35 1.0000000180025095e-35 2.5000000000000004 3.5000000000000004 0.25765000000000005 3.5000000000000004 118.99500000000002 3.5000000000000004 141.15500000000003 162.20500000000001 0.0029500000000000004 1.0000000180025095e-35 169.00500000000002 1.5000000000000002 1.7000000000000004 3.3500000000000005 3.5000000000000004 3.2800000000000002 0.037250000000000005 2.5000000000000004 4.0000000000000009 2.5000000000000004 152.00500000000002 3.2500000000000004 2.1400000000000006 4.0000000000000009 1.0000000180025095e-35 2.5000000000000004 442.92500000000007 143.00500000000002 194.00500000000002 3.5000000000000004 1.0000000180025095e-35 0.25475000000000009 3.2500000000000004 5.3750000000000009 0.16575000000000004 4.2500000000000009 3.8250000000000006 3.3500000000000005 149.00500000000002 3.2500000000000004 158.50000000000003 217.50000000000003 4.4600000000000009 0.28485000000000005 214.50000000000003 3.0650000000000004 3.5000000000000004 399.02000000000004 3.5000000000000004 169.00500000000002 2.5000000000000004 0.046550000000000008 4.7500000000000009 99.00500000000001 6.0250000000000012 5.3250000000000011 96.500000000000014 0.062750000000000014 0.027350000000000003 361.98000000000008 3.5000000000000004 0.018450000000000005 1.0000000180025095e-35 0.28965000000000007 122.00500000000001 5.035000000000001 167.92500000000004 3.7500000000000004 149.00500000000002 0.15315000000000004 39.500000000000007 0.19615000000000002 1.0000000180025095e-35 1.0000000180025095e-35 4.8550000000000013 3.2500000000000004 89.00500000000001 0.013450000000000002 4.7150000000000007 2.3500000000000001 215.50000000000003 2.9150000000000005 1.0000000180025095e-35 4.7150000000000007 0.038850000000000003 4.8850000000000007 54.500000000000007 97.500000000000014 139.00500000000002 23.500000000000004 0.0080500000000000016 18.500000000000004 97.00500000000001 0.0041500000000000009 3.3150000000000004 216.50000000000003 2.5000000000000004 90.00500000000001 3.2500000000000004 5.535000000000001 5.3350000000000009 376.99500000000006 4.8350000000000009 1.0000000180025095e-35 0.051550000000000006 3.5150000000000001 0.10735000000000001 231.02000000000001 0.23905000000000001 2.7500000000000004 4.785000000000001 0.036450000000000003 2.5000000000000004 1.5000000000000002 5.6850000000000014 6.1650000000000009 5.0250000000000012 1.5000000000000002 40.500000000000007
decision_type=2 2 2 2 2 2 2 2 2 2 2 2 2 2 2 2 2 2 2 2 2 2 2 2 2 2 2 2 2 2 2 2 2 2 2 2 2 2 2 2 2 2 2 2 2 2 2 2 2 2 2 2 2 2 2 2 2 2 2 2 2 2 2 2 2 2 2 2 2 2 2 2 2 2 2 2 2 2 2 2 2 2 2 2 2 2 2 2 2 2 2 2 2 2 2 2 2 2 2 2 2 2 2 2 2 2 2 2 2 2 2 2 2 2 2 2 2 2 2 2 2 2 2 2 2 2
left_child=4 2 5 9 7 10 8 31 22 12 23 21 16 30 39 35 18 24 105 -11 41 82 38 80 68 69 65 52 -25 56 79 47 89 61 48 36 90 -20 120 -8 43 66 55 -27 -16 -14 -24 117 111 50 113 96 58 92 63 -32 57 -30 -28 125 -59 -22 -29 -55 -58 -7 106 99 81 78 75 -31 -73 -18 -75 109 103 121 -15 -10 -2 -6 -9 -84 124 114 -64 100 -43 116 -13 -36 -17 -77 -94 -96 -26 -19 -63 -53 -23 -93 -56 -39 -105 -4 -3 -37 -109 -48 -34 -12 -113 -41 -33 -45 -21 -1 119 -82 -5 -68 -88 -72 -85 -42
right_child=1 20 3 6 17 26 14 11 13 19 34 15 45 25 44 53 73 97 37 32 33 87 46 28 51 40 27 62 29 71 42 85 110 -35 91 107 -38 76 -40 49 59 88 -44 115 -46 -47 70 -49 -50 -51 -52 67 -54 54 102 -57 64 60 -60 -61 -62 98 86 -65 -66 -67 77 -69 -70 -71 123 72 -74 74 -76 93 -78 -79 -80 -81 118 -83 83 84 -86 -87 122 -89 -90 -91 -92 101 94 -95 95 -97 -98 -99 -100 -101 -102 -103 -104 104 -106 -107 -108 108 -110 -111 -112 112 -114 -115 -116 -117 -118 -119 -120 -121 -122 -123 -124 -125 -126 -127
leaf_value=-0.019990663052727359 0.0030432108581481825 -0.0093035302413186985 0.0052879319423458368 -0.016108538700118795 -0.010356337867131655 -0.013365994555401946 0.0056779397071578383 -0.013021658137346799 0.011780890445806987 0.026511776278385191 0.0010099728628488566 -0.017994861588227364 0.023260663829493572 -0.0031893991144663803 0.016385415038781586 -0.018796254336737074 0.019957874962304115 -0.012442862621881861 -0.0080346375167259301 -0.0046219085501427951 -0.010051720271420353 -0.0078986923340377199 -0.00728639805349089 -0.0072066886802308119 -0.00086110083266355167 0.0036160751265071601 0.011268669874717167 -0.0028878169690654924 -0.00048032723398610828 -0.00052022457135501258 0.007810679912605996 -0.017277781483962539 0.019459343166103607 -0.016725945464782947 -0.0023015807729115929 -0.023339681800192129 -0.010380954481841034 0.00015592319268437443 0.010067780697777194 0.0087026827502249236 0.0025153925487373225 0.011548963238136613 0.015796990247219669 -0.013177371724665767 0.0047853606512810697 0.015276204882106511 -0.0020011092550511604 -0.027487455971704173 0.012152686109013057 0.011043184196909858 0.021399010680782912 0.0041042259926064098 0.0087467317789888775 -0.0076056425709265657 -0.0208060877048253 -0.007798319925457247 -0.019072127745414329 0.013289730188937645 0.019098404889664335 -0.011693504321213617 0.0040654214404355678 -0.006043306549752863 0.015096880979630576 0.001792136462868147 0.0059485477786966135 0.0028940698746974516 -0.030862601900438453 0.0080796353563681728 0.014834636602929248 0.010604652082036039 0.0045166876677459325 -0.011264303952744685 -0.0018683691551027624 -0.032977170220819717 0.015391066878079687 -0.011022609506367799 0.0098049505431777578 -0.013703091750514909 0.0094921914027587435 0.020593199004146145 -0.010281013242855954 0.021054153038628291 -0.0059931506798421054 -0.017569294909224837 -0.0019115657129009603 -0.0036420237094261843 0.0043156039278597772 0.002180960282487657 -0.0037956843922543927 0.023331306930044034 -0.001781865530928116 0.0069681124254883367 0.0010515024694184095 -0.00066679210372647872 -0.0053651350417510462 -0.016583271133180314 -0.01031895985912727 -0.0041565322328953463 0.0068142505486714624 -0.003858898637148766 0.00018718487454147837 0.00031601921712755304 0.011700569443745661 0.013091509310165209 0.0040594594680664568 0.01681355392088291 0.004084205460373325 -0.014799234806292211 -0.02626818250439757 0.0070535969518054353 0.026794853215803899 0.014268066908878193 0.0023954123499844628 0.015722254022126937 -0.034468029139302969 -0.0028087260445162194 0.011759591997272834 -0.0043097331869077059 -0.021070202269062505 -0.0051533226132957988 0.0021760864521771449 0.0098106381146736057 -0.038011558204046801 -0.002767890122472447 -0.010315513695694003 0.0085925334972970779
leaf_weight=163.48825853125891 75.972702057944844 55.51468301404384 58.046319710440002 18.944614399079001 266.41894300782587 40.304767245484982 177.78559542127186 483.04787720282911 143.57018904722645 561.93142598931445 254.59888435428729 842.06064063767553 497.28103990288218 105.67484692033031 101.75913144124206 160.76207137206802 329.33960249545635 300.07696361100534 67.883639803243568 25.91322538148961 686.30703759484459 303.13166945180274 348.71592768453411 402.80188648618059 390.80976285639917 162.70254215656314 345.49980637847329 151.62232301046606 185.67090030520922 673.50112317249295 261.36243609632947 1819.9400704158106 514.10455530823674 298.70799900669954 333.06033386173658 340.7363564845582 549.09900462918449 225.26044531220396 264.54081161526847 157.16513729959843 414.40621158870636 87.301721222756896 196.04782387698651 112.40150594920851 843.20799913679366 302.30779915509629 501.32748821727 312.64412787632318 321.34703665386769 587.55496339552337 347.74331972011714 262.49799164760043 581.77180800980568 571.25762372362078 86.942668039322598 45.409624001127668 31.097090208320878 193.52566526160808 268.00965460314183 35.324501431692624 242.67265659166151 160.20236485177884 76.272195390134584 119.55567928144592 25.251780319260433 181.91898054251214 4.2770429580996305 259.04392758099129 15.37970792094711 434.35628648215788 380.49550072322018 191.23312345071463 224.11215762104257 6.3543712060200077 10.826773565087931 174.14076805589139 536.97861303278478 139.38121863725246 91.811314422491705 325.20367223015637 367.0491183764243 8.019940838654291 745.39815549115883 135.27720191018307 99.313934946345398 40.58544275330496 252.55981311644427 206.26797568020993 49.498223283124389 49.781899444380542 28.530247671733378 293.10795841380605 44.354845031542936 108.6526641791861 110.67825354731758 188.40889695618534 97.676423228112981 153.18144884210778 57.109992491517914 184.75753434633953 160.76227710620151 323.86487558827503 6.9540645018860223 142.17402675830817 318.77055086518521 366.93182881741086 112.01257212882047 351.65066891076276 112.48164361913223 94.534719141462119 155.20449806805118 99.120887928875163 87.482553714187816 726.4012631981459 21.702852463902673 122.80672265516478 223.49040163643076 29.810619852447417 31.93748096388299 683.4155000516912 597.78862217022106 26.229278189421166 3.4347160517354487 162.92981626729306 717.22175803311984 260.4439374130161
leaf_count=5187 1645 1554 947 628 8742 1044 3972 15420 2469 4457 6022 29133 5989 2300 1661 6015 4266 9151 1365 462 21188 8518 10424 10772 10368 3936 6602 4266 4190 17929 5420 63292 6197 9756 9224 11775 16674 5116 4807 3299 10895 1313 3324 3084 18755 4757 14070 10118 6516 11194 4857 6605 13039 16871 2846 1215 950 3500 4200 968 5655 5081 1235 2853 493 4395 167 5736 273 9077 9550 5495 6290 110 163 5427 9601 4068 1742 4668 10946 117 22243 4919 2930 1199 6594 5370 1122 478 788 6562 1116 2800 3452 6804 2868 4181 1201 5443 4082 9336 119 2572 6459 4628 2451 11363 3905 2109 1306 1709 2129 12765 751 2899 3211 735 1117 20069 14394 566 188 4543 22754 5926
internal_value=-3.01154e-10 0.00573048 0.00690688 0.00970739 -0.011427 0.00178455 0.00643334 -0.0133151 0.00372887 0.0158977 -0.000669039 -0.0113458 0.0129628 0.00735482 0.0113645 -0.0141076 0.010141 -0.00289995 0.00838348 0.0213865 -0.00805049 -0.00794158 2.16424e-05 -0.0031659 -0.000841432 0.00389103 0.00828932 0.00939362 -0.00129025 5.84061e-05 0.0135578 -0.0185627 0.0184128 -0.0103747 0.00418338 -0.0166394 -0.0147242 0.00612676 0.00415195 0.0138871 0.00147052 -0.00215781 0.00951487 -0.0031106 0.00603452 0.0202419 -0.00203389 -0.0236993 0.00758795 0.0146895 0.0164295 0.000931485 0.0117968 -0.00973798 -0.00746529 0.00550017 0.0044623 0.00557881 0.0146891 0.00403732 0.00815792 -0.00827512 0.00345741 -0.00597921 -0.00785954 -5.50214e-05 -0.00546398 0.00347922 -0.00815034 0.00813597 -0.000745899 -0.00268468 -0.00619444 0.0188445 -0.00249771 -0.00264988 0.00691268 -0.0105048 0.00270627 0.0178943 -0.00667938 -0.00943843 -0.00950458 -0.00850358 -0.0104696 -0.017182 0.00635291 -0.00285661 0.00599682 0.0122662 -0.0174635 0.00145068 -0.013275 -0.00704378 -0.0106906 -0.012432 -0.00275227 -0.00964245 -0.00266432 0.000814726 -0.00509653 0.00347626 -0.0183986 0.00464939 0.00684531 0.0152393 -0.000352183 -0.0200176 -0.0175787 -0.000564562 0.0211604 0.00426326 0.00870198 0.0144736 -0.0174804 -0.0077637 0.0100575 -0.0175723 -0.0073618 -0.00694502 0.00161443 0.00410817 0.00374769 0.00233263 -0.0114666 0.00486073
internal_weight=32006.5 21316.6 19640 12697.8 10689.9 6942.22 8305.21 8752.06 5363.59 4392.58 5040.82 6363.89 2862.16 2711.52 2941.62 3513.47 2062.57 1937.86 1716.05 1530.43 1676.54 2850.42 2652.07 3328.24 1484.6 1739.93 1901.39 1679.17 2169.87 1767.06 971.594 2388.17 968.495 1202.33 1712.58 2224.56 1419.69 1291.07 881.274 1996.65 1108.09 474.215 502.82 397.911 944.967 799.589 1770.8 505.943 762.549 1818.86 1231.31 1194.79 1195.28 1288.91 784.71 306.772 678.218 621.869 613.509 710.175 436.198 903.619 483.889 690.813 56.3489 222.224 337.415 706.299 289.819 631.842 1422.08 1088.85 415.345 346.521 17.1811 878.656 1223.18 169.888 197.486 468.774 1158.37 274.439 2180.26 1697.21 951.813 1882.23 332.267 670.162 136.8 299.186 870.591 950.033 504.204 282.793 343.442 299.087 488.486 453.258 217.312 447.256 463.894 616.973 93.8967 686.205 460.945 424.978 167.527 804.869 464.132 595.862 669.309 441.202 186.603 883.566 1841.64 235.208 249.404 193.299 1082.4 1050.46 616.733 30.5063 255.995 543.425 852.499 674.85
internal_count=800557 465841 417374 245262 334716 172112 183178 281232 126675 62084 130549 199950 45973 57923 56503 113714 35227 53484 30688 16111 48467 86236 68752 89051 40152 40827 41563 36124 55274 44502 17096 81282 11654 37226 41498 73638 46595 25113 19829 36087 27708 11241 9959 9919 20416 10746 48923 16040 16376 32115 20921 31020 23841 40076 22689 6635 14788 13345 10802 17789 9155 27470 12283 19724 1443 5439 8806 17784 9132 13119 38499 29714 11785 4539 273 24406 23748 4801 4042 7137 33777 8859 68266 52846 30603 65242 8017 17970 2435 4151 29921 25122 17387 8227 11372 10256 13236 13332 6282 12048 12600 15898 2965 14147 9031 5575 4005 27043 15268 16179 7503 9860 3838 16064 64043 5983 3673 5922 32132 31015 15022 733 6782 14093 27673 16821
is_linear=0
shrinkage=0.02


Tree=1
num_leaves=127
num_cat=0
split_feature=12 14 12 11 15 9 14 8 14 13 8 14 9 14 13 12 12 12 13 15 13 12 14 8 11 11 12 8 9 8 13 3 12 14 13 11 8 11 14 13 12 8 12 11 12 11 13 2 11 11 8 14 13 11 12 11 11 14 14 2 14 13 11 11 8 2 14 11 13 12 12 11 5 14 12 11 12 14 1 12 11 13 12 3 11 7 14 0 14 13 11 10 14 0 14 13 12 11 14 2 7 11 2 13 12 3 12 12 11 13 11 1 14 13 10 7 3 12 12 12 14 14 11 5 11 12
split_gain=7375.35 1570.88 1026.51 642.52 551.559 405.54 395.443 405.651 385.18 355.794 345.834 273.142 248.104 184.067 200.668 143.135 133.829 324.654 132.648 119.734 119.451 114.07 111.933 108.873 106.143 105.852 103.568 100.686 100.197 99.6093 99.2274 96.9709 87.4992 92.229 87.3837 128.815 87.0871 92.7527 86.5157 128.739 86.193 81.3888 80.3218 104.011 75.1969 74.9891 75.5536 74.8516 74.7002 73.4787 70.8701 79.4605 94.0621 68.749 68.4636 65.9332 64.6004 63.9507 62.7831 62.5216 61.434 59.9999 59.9037 59.4278 59.2434 59.0904 58.2974 58.0156 57.7256 68.7394 56.687 61.7483 56.5971 55.8662 55.486 78.1952 55.0644 51.5831 51.564 58.5724 50.726 51.8186 65.7385 50.7205 49.0464 48.4033 47.2966 47.0233 46.7221 46.6081 46.3695 46.3462 46.3183 45.7914 45.2368 64.0049 45.1385 56.9747 45.0614 46.7337 44.9045 44.8268 44.0722 43.907 43.4178 42.6465 59.5953 47.7425 42.3752 42.2266 44.5522 41.9893 41.7972 47.4687 53.7255 50.9755 41.7851 41.563 40.9667 180.545 42.9562 42.4271 40.7682 59.6784 63.7242 40.7297
threshold=0.010850000000000002 223.94500000000002 0.15315000000000004 1.2450000000000003 1.0000000180025095e-35 3.7500000000000004 112.00500000000001 3.5000000000000004 99.00500000000001 5.3950000000000005 2.5000000000000004 119.99500000000002 3.7500000000000004 408.34500000000008 5.6050000000000013 0.043050000000000005 -1.0000000180025095e-35 1.0000000180025095e-35 4.8050000000000006 1.0000000180025095e-35 4.995000000000001 0.52555000000000007 179.00500000000002 1.5000000000000002 4.1650000000000009 3.5700000000000007 0.38035000000000008 1.0000000180025095e-35 3.2500000000000004 3.5000000000000004 5.2150000000000007 22.500000000000004 0.0060500000000000007 251.00500000000002 5.6050000000000013 4.1650000000000009 1.0000000180025095e-35 5.0450000000000008 219.00500000000002 5.0850000000000009 0.024550000000000006 3.5000000000000004 0.098450000000000024 2.4400000000000004 0.058550000000000012 3.4500000000000006 4.9750000000000005 1.5000000000000002 4.4000000000000012 1.5000000000000002 2.5000000000000004 92.00500000000001 4.8550000000000013 4.7150000000000007 0.094250000000000014 3.8400000000000003 4.5900000000000007 109.99500000000002 151.00500000000002 2.5000000000000004 178.01000000000002 4.7750000000000012 3.0650000000000004 4.1800000000000006 2.5000000000000004 3.5000000000000004 120.00500000000001 3.8800000000000003 6.1150000000000011 0.26985000000000003 0.036450000000000003 2.5200000000000005 1.5000000000000002 200.00500000000002 0.34165000000000006 3.1600000000000006 0.30025000000000007 335.01000000000005 95.000000000000014 0.0073500000000000015 4.1950000000000012 4.9150000000000009 0.16115000000000004 111.50000000000001 5.785000000000001 217.50000000000003 22.820000000000004 16.500000000000004 109.99500000000002 3.8850000000000002 6.1050000000000013 1.0000000180025095e-35 246.66500000000002 23.500000000000004 111.00500000000001 4.3050000000000006 0.38035000000000008 3.9600000000000004 228.99500000000003 4.5000000000000009 31.500000000000004 1.7000000000000004 7.5000000000000009 4.3550000000000013 0.11755 21.500000000000004 0.28485000000000005 0.32925000000000004 5.0650000000000004 4.8150000000000004 2.3500000000000001 131.00000000000003 197.00500000000002 5.0150000000000006 1.0000000180025095e-35 104.50000000000001 1.0000000180025095e-35 0.32345000000000007 -1.0000000180025095e-35 1.0000000180025095e-35 211.00500000000002 68.00500000000001 3.9200000000000004 1.0000000180025095e-35 3.6500000000000008 0.17745000000000002
decision_type=2 2 2 2 2 2 2 2 2 2 2 2 2 2 2 2 2 2 2 2 2 2 2 2 2 2 2 2 2 2 2 2 2 2 2 2 2 2 2 2 2 2 2 2 2 2 2 2 2 2 2 2 2 2 2 2 2 2 2 2 2 2 2 2 2 2 2 2 2 2 2 2 2 2 2 2 2 2 2 2 2 2 2 2 2 2 2 2 2 2 2 2 2 2 2 2 2 2 2 2 2 2 2 2 2 2 2 2 2 2 2 2 2 2 2 2 2 2 2 2 2 2 2 2 2 2
left_child=4 2 5 21 10 27 12 19 18 15 36 29 23 14 28 112 38 -18 40 20 -8 50 45 -5 41 -21 105 -2 -3 -12 83 44 33 56 35 74 37 -1 39 89 -7 62 92 -44 -29 46 -17 77 68 -11 58 -52 94 60 -47 104 -6 64 103 117 65 -57 -14 -37 116 -41 -48 -28 69 -49 -61 -72 109 -51 87 -76 -36 -16 98 -80 111 82 -82 101 -27 -20 -33 -9 -83 -13 -86 -65 -30 -69 -53 -96 -77 -98 -32 -100 -40 -19 -24 -4 -42 -25 122 -108 -56 110 -31 -26 113 115 -115 -10 -46 -15 120 -120 -38 -121 123 124 -107 -73
right_child=1 13 3 6 32 8 7 34 9 49 11 16 24 59 47 22 17 30 85 25 -22 -23 102 26 80 84 67 31 42 72 78 86 -34 -35 76 63 118 -39 100 53 55 -43 43 -45 57 54 66 48 -50 73 51 52 -54 -55 108 61 -58 -59 -60 70 -62 -63 -64 91 -66 -67 -68 93 -70 -71 71 125 -74 -75 75 96 -78 -79 79 -81 81 88 -84 -85 90 -87 -88 -89 -90 -91 -92 -93 -94 -95 95 -97 97 -99 99 -101 -102 -103 -104 -105 -106 106 107 -109 -110 -111 -112 -113 -114 114 -116 -117 -118 -119 119 121 -122 -123 -124 -125 -126 -127
leaf_value=-0.020751951811835881 -0.012058912309367542 -0.017504290714866037 0.00047775942510748065 -0.011114749748558011 -0.0043555153660796691 -0.0013870462559803138 -0.0016607715464322251 0.0070643534813667275 0.00078978591715759964 0.013262692353783655 -0.0075858908904988115 -0.010955825228394601 0.010921338954769291 -0.010831380753542822 -0.0021126122054778433 0.0010747068572752349 0.027099910322237949 -0.017749301469926565 0.0062179668300638632 0.0025605618896410603 0.0045785003030929241 0.024169982129984814 -0.0049391342674059806 0.0049916121476541982 0.0076848202295218418 -0.008700740405207897 0.011828890097472402 -0.0016257535016705774 -0.0037166440871379092 -0.0038837570765083624 0.007198179740727193 0.01616357427436204 0.0023098187095404745 -0.014406778799546527 0.0064290277541262757 -0.022912530721772798 -0.014389323724328809 0.0022962149148286841 -0.004792178375850195 -0.0088278699781463577 0.0052497049477892022 0.014432434838843744 0.0056762292792434371 -0.0041735783171586343 0.0089631421595393959 0.0024954691432120014 0.009134281153540702 0.00017980090723522377 -0.0013984694602765708 0.0062419922831054991 0.022433453920097754 0.011622876372516364 0.016943394882183042 0.00371663361144144 -0.0024543942331922471 0.00048001032272550887 0.0047588275531104049 -0.001765537296239978 -0.04024519408892039 -0.015583049102213382 -0.0149929689246478 -0.03354094101130245 0.0051870914710044512 -5.8185752918405749e-05 0.0066251831122988835 0.0031973680623574867 0.0034880002823265265 -0.0015882266596411703 0.0097680561442699005 0.0093045609884668638 0.0071279818225218347 -0.0019546955783392721 0.0086871699233716584 0.00074558327129769445 0.015840616433473804 0.013979239226938634 0.01308525942266388 -0.011790132319350936 -0.01057992495013493 -0.00064641985945092153 -0.031060174692980592 0.010661718310374133 0.0039982419766164201 -0.003692417640463437 0.01070968484534637 0.010635752961318072 -0.0033703682648220609 0.00019878483290121645 -0.0057890400558355424 -0.017508577180631445 -0.0093654559413178275 0.0046783478015365431 -0.010175082690303405 0.011982905218809585 0.007213533413922538 -0.017515240665658842 -0.00092518852622109878 0.014549085260233539 -0.018849276115234202 0.0076825504566275229 -0.018695422254762804 -0.010646438025248547 0.015438240820497695 0.013259064960349383 0.010310842551656627 0.0050809310736988893 -0.011860826871561233 0.0022252767342631871 -0.013310498624365763 -0.0063368622782087524 0.0054903267163331848 -0.016045785694916125 -0.0100394457983364 -0.0051308931383616078 0.0015165406111606627 -0.0059688491445693617 -0.00043573942325393227 -0.021652281599264588 0.02606099567215343 -0.0078900733350404529 -0.033946719610231303 -0.014717105710818823 0.0090647723183859413 -0.012151338005431125 -0.030644550298939564 -0.011279839048405521
leaf_weight=1143.9250244238647 331.77549273800105 250.7507083985256 178.98908052965999 167.52679180062842 3761.2449686996406 896.6158731279429 2359.9030122897821 2562.6759360060096 592.44896395062096 499.75894853775389 6282.0357036292553 642.22236844524741 3766.97181468294 711.40292012516875 1224.3744777912507 3084.4737529589329 100.60234302608296 700.96277901600115 1593.277320610825 642.5800699070096 2557.6095406324603 551.14013669453561 1229.0965772265336 2499.833498531254 50.725316174328327 1220.8415778584313 1171.8838093481027 3587.6772765445057 689.54670829907991 519.90422139083967 202.67382694827393 50.116268097655848 930.67127556842752 342.37662264704704 942.65509265777655 36.935460962587968 3007.7413550872589 74.382960401242599 100.04420514078811 872.91019526205491 3502.0999625317054 2264.3437962462194 495.72375321434811 3177.9199580732966 223.12993567949161 1436.7761069564149 1122.0418068997096 1536.4695725461934 2181.0530330024194 3931.3241822907003 507.07023563235998 162.26798999030143 698.3494682116434 180.97171034431085 1268.6232713819481 613.66066409531049 339.10455086780712 1107.501121730078 10.98314557597041 198.57016765885055 512.34796835610177 21.460799783002585 903.50189486262389 1474.7681227684952 1522.0410550406668 201.10920408321545 2101.2075026842067 278.2720540354494 497.91324496921152 420.64392875623889 168.87448176299222 406.59036878607003 167.26631130115129 911.12278071267065 654.45960566774011 213.54803018947132 1051.8631227409933 268.65355197107419 787.43818535516039 339.93839794397354 21.999838456045836 1103.4136656930204 777.08447370282374 213.44920604629442 109.25868193246424 2628.8436033150647 4637.4371839644155 472.63980671856552 73.66802685870789 1340.3479654655093 79.518692011013627 1879.3483110511443 1248.250823544804 154.76186607102863 100.44788688793778 71.787766548804939 374.9365268482361 127.55305701075122 68.790543862036429 43.252704174257815 1305.2100649155909 720.96171746251639 43.973902995465323 269.20474636927247 840.77695413958281 447.14385145087726 229.47506003128365 165.77574250521138 162.21102960593998 964.45012845378369 332.50304885418154 72.3859177979175 297.16897830041125 674.00128221104387 1746.6247137147002 1810.4723981025163 1244.3652632713784 177.38783203507774 51.672799527645111 611.2301572667202 45.603634684346616 900.62860858556814 322.32064319984056 123.36512709502131 20.905092813307419 347.4581745439209
leaf_count=14190 3019 1960 423 1234 28896 8380 12561 8727 4453 1932 62021 6571 11653 7154 8541 16809 322 9227 8179 1441 15487 635 8705 11277 175 5402 3145 30192 5066 4112 1409 279 7347 3482 5244 326 34679 541 998 9078 20151 5589 1350 20380 1246 9291 4520 9937 16432 22199 684 332 1164 1433 7209 4026 2187 5900 44 2120 5744 257 4826 7651 7280 1625 10279 2044 2441 1545 757 3525 948 6119 1237 643 4588 2754 9500 3109 252 4823 4015 1975 288 12954 34404 1766 429 15277 345 10019 10705 757 204 200 1391 365 856 284 15595 8363 194 540 3274 2063 924 729 837 8517 2276 406 2930 5264 13251 16266 8953 1905 200 8249 570 13037 2090 722 290 3465
internal_value=6.98264e-13 0.00273762 0.00384962 0.00645999 -0.00902173 0.00182361 0.00567531 0.00357867 0.00305666 0.00150776 -0.0104002 -0.00892797 0.00807976 -0.00342846 -0.00248955 -2.03964e-05 -0.0114832 -0.00825512 0.00626459 -0.000109145 0.00158429 0.0161141 0.0013221 0.0047645 0.0101279 -0.00416698 0.00525588 -0.00118601 -0.00513503 -0.00635204 -0.00941088 -0.000894444 -0.00326633 -0.00443443 0.00620374 0.00524813 -0.0145884 -0.0193448 -0.0134732 -0.0118871 0.00432117 0.0113207 -0.0045823 -0.00284444 0.000488439 0.00209318 0.00331228 4.07212e-05 0.00129499 0.00596135 0.0138932 0.0159495 0.0127662 -0.00796221 -0.000588428 0.00534931 -0.00360175 0.00233979 0.00699708 -0.00902905 -0.00929453 -0.00066956 0.00981205 0.00231791 0.00386064 -0.00657615 0.00545352 0.00951739 0.00368787 0.00214099 -0.00588914 -0.00380346 -0.00244549 0.00520782 0.00750345 0.0108436 0.00993937 -0.00385397 -0.0055865 -0.00758467 0.00618775 0.00696372 0.00303304 -0.0127833 -0.00723375 0.00896864 -0.00316152 0.00599529 0.00963214 -0.0153859 0.00225343 0.00259575 -0.00787691 0.00326196 0.00404547 -0.00309341 0.00627639 0.00300284 0.00157132 -0.00860704 -0.0177056 -0.0141479 -0.00423527 0.00815477 0.00622954 0.00346021 0.000535625 -0.00595285 -0.00368513 -0.0034704 -0.000227158 -0.0062681 -0.00275964 -0.00231115 -0.000334377 -0.00430248 0.000993343 -0.0129911 -0.0133333 -0.0107006 -0.0146814 -0.011957 0.00334232 0.00022358 0.00348528 -0.00625163
internal_weight=119448 91640.4 77638.8 33926.7 27808 43712.1 31376.5 16761.1 31008.1 20911.3 22434.6 16599.4 14615.4 14001.6 11991.3 15569.1 8333.23 3178.07 10096.7 6969.71 4917.51 2550.24 10448.4 5581.26 9034.09 2052.2 5413.74 12704 5862.19 8266.16 3077.47 12372.3 5373.4 4442.73 9791.38 7796.86 5835.18 1218.31 5155.16 3749.91 5874.61 6934.82 5611.44 3673.64 7684.71 9175.33 6307.72 6129.11 4636.08 5342.21 1999.1 1539.92 1032.85 1767.34 2867.61 4978 4100.35 4097.04 459.177 2010.28 1586.37 635.121 4670.47 3391.05 2989.54 1074.02 3223.25 1604.92 2455.03 1957.11 1121.49 922.923 1984.12 4842.45 4405.81 1370.5 1994.52 1493.03 1442.09 1127.38 2099.28 1976.17 799.084 1635.37 1409.62 4222.12 4687.55 3035.32 1177.08 1982.57 188.777 3354.12 1937.8 433.034 334.504 172.236 716.038 502.49 314.717 112.043 1405.25 1421.92 1273.07 448.194 4342.88 3808.82 1308.99 395.251 1430.83 1816.86 852.407 123.111 5120.72 4823.55 2420.63 2402.92 1467.5 888.791 4616.88 1563.53 3053.34 1511.86 913.735 591.414 468.049 754.049
internal_count=800557 517939 417902 139150 282618 278752 134924 77481 187479 130258 240706 169240 57443 100037 81111 100008 91366 35045 57221 35524 28048 4226 57844 25275 32168 7476 24041 91273 39461 77874 34723 88254 41912 34565 41957 32125 71466 14731 56321 39728 36088 22068 37501 21730 53571 48945 31608 41650 30355 30250 3591 2584 1900 17880 17337 27708 31083 23379 1007 18926 16447 4283 16479 17996 17479 10703 14799 5946 13923 11482 9867 7747 15853 28318 14129 3636 9832 11295 15158 12609 10100 9519 4267 19565 6035 21133 34683 10493 5252 21848 633 17670 15771 2801 736 404 2399 1756 2549 1140 16593 17590 8899 963 23425 18095 6818 1653 8046 14905 6388 581 42164 39234 18515 20719 10199 9059 56735 21486 35249 21286 5165 3075 2353 6990
is_linear=0
shrinkage=0.02


Tree=2
num_leaves=127
num_cat=0
split_feature=12 14 12 11 15 8 8 14 12 8 14 8 14 14 13 12 13 14 13 11 8 12 3 13 14 8 12 14 12 8 7 9 13 15 9 14 9 2 8 14 5 14 13 7 12 7 4 13 7 13 11 12 1 14 7 7 11 11 11 13 7 3 11 13 11 12 13 14 3 7 11 2 11 8 7 12 12 9 0 12 15 9 3 13 3 11 3 14 14 13 1 12 11 9 14 11 11 12 11 0 13 0 3 11 15 9 9 4 1 3 13 8 11 14 12 0 9 13 13 2 3 11 10 14 13 7
split_gain=6106.7 1282.26 746.586 704.206 478.196 443.107 310.945 276.728 251.241 220.881 200.071 176.491 167.601 158.532 142.349 141.042 137.224 133.03 124.26 114.47 114.398 109.907 87.4544 86.1064 82.7541 100.974 79.9892 75.7531 75.4104 74.3036 72.764 71.6779 71.3875 71.3578 70.0934 69.8389 72.7021 67.7906 67.3207 66.3466 66.1608 64.7184 107.96 64.3722 63.3693 62.1076 61.2562 60.7204 59.5008 59.25 58.6213 60.219 57.9954 57.7043 57.3887 56.9042 70.945 56.116 72.2358 55.6199 55.3647 54.7519 53.9408 53.9186 52.7791 52.6751 53.2584 52.105 59.9185 50.9096 50.7971 50.3058 53.4268 49.8452 66.8886 49.7724 59.2407 68.7099 49.4802 49.0845 48.365 48.1873 47.659 52.4937 44.9655 44.0684 43.894 44.5813 43.6139 52.8538 43.284 42.9786 42.9595 42.9873 42.7586 42.536 54.2449 42.7842 42.1281 43.5014 44.0223 41.4493 41.4161 40.8863 54.714 40.6061 39.9137 39.9036 39.7051 39.4101 47.9445 38.8905 39.7092 38.8388 38.8328 38.8103 38.3197 39.7614 38.2669 37.9772 37.552 37.1238 43.4667 63.8759 36.9608 36.8424
threshold=0.013450000000000002 187.00500000000002 0.061750000000000006 1.7000000000000004 1.0000000180025095e-35 2.5000000000000004 2.5000000000000004 346.20500000000004 0.37235000000000007 3.5000000000000004 143.00500000000002 3.5000000000000004 129.00500000000002 82.00500000000001 5.1550000000000011 0.0026500000000000004 5.2750000000000012 83.00500000000001 5.9450000000000012 4.0200000000000005 3.5000000000000004 0.25085000000000007 1.5000000000000002 5.2650000000000006 140.00500000000002 2.5000000000000004 0.33425000000000005 87.00500000000001 0.064650000000000013 1.0000000180025095e-35 128.00000000000003 2.2500000000000004 4.8350000000000009 1.0000000180025095e-35 3.2500000000000004 144.00500000000002 3.2500000000000004 3.5000000000000004 3.5000000000000004 262.01000000000005 1.0000000180025095e-35 78.995000000000019 4.7550000000000008 33.500000000000007 0.51055000000000017 115.00000000000001 1.5000000000000002 5.3550000000000013 214.50000000000003 5.3050000000000006 5.955000000000001 0.59565000000000012 34.000000000000007 48.685000000000009 72.500000000000014 99.500000000000014 3.7950000000000004 4.1800000000000006 4.3650000000000011 5.5150000000000006 217.50000000000003 3.5000000000000004 3.6750000000000003 3.9250000000000003 4.7150000000000007 0.49760000000000004 4.8350000000000009 176.72500000000002 91.500000000000014 54.000000000000007 3.3150000000000004 1.5000000000000002 2.7400000000000007 3.5000000000000004 80.500000000000014 -1.0000000180025095e-35 1.0000000180025095e-35 2.2500000000000004 18.500000000000004 0.75950000000000017 1.0000000180025095e-35 3.7500000000000004 71.500000000000014 5.2150000000000007 1.5000000000000002 4.8350000000000009 10.500000000000002 78.995000000000019 67.00500000000001 4.745000000000001 131.00000000000003 0.17745000000000002 3.0200000000000005 2.7500000000000004 142.10500000000005 2.1400000000000006 2.8000000000000003 0.0020500000000000002 2.6750000000000003 31.500000000000004 5.1350000000000007 14.500000000000002 4.5000000000000009 4.785000000000001 1.0000000180025095e-35 4.2500000000000009 4.7500000000000009 2.5000000000000004 54.000000000000007 17.500000000000004 5.3650000000000011 3.5000000000000004 2.1400000000000006 134.00500000000002 0.047450000000000006 24.500000000000004 3.2500000000000004 4.6250000000000009 4.8450000000000006 1.5000000000000002 312.50000000000006 2.8000000000000003 1.0000000180025095e-35 68.00500000000001 5.2950000000000008 215.50000000000003
decision_type=2 2 2 2 2 2 2 2 2 2 2 2 2 2 2 2 2 2 2 2 2 2 2 2 2 2 2 2 2 2 2 2 2 2 2 2 2 2 2 2 2 2 2 2 2 2 2 2 2 2 2 2 2 2 2 2 2 2 2 2 2 2 2 2 2 2 2 2 2 2 2 2 2 2 2 2 2 2 2 2 2 2 2 2 2 2 2 2 2 2 2 2 2 2 2 2 2 2 2 2 2 2 2 2 2 2 2 2 2 2 2 2 2 2 2 2 2 2 2 2 2 2 2 2 2 2
left_child=4 2 11 8 6 13 29 9 38 16 20 35 19 22 26 45 28 -13 44 21 27 33 91 57 25 88 63 60 -3 43 105 -15 70 34 48 36 53 69 108 106 82 -23 111 -1 55 49 -24 101 -7 -12 51 120 -17 -2 -40 -11 114 65 -59 -39 -8 -20 -46 -14 75 66 -21 68 -47 -9 -29 72 -26 74 90 -31 77 -77 -36 80 81 -10 83 -33 -34 -58 -79 -88 -6 -90 -35 -5 93 -48 -73 116 -97 113 99 100 -65 -22 -62 -55 -105 -19 -18 -68 -4 -54 -111 112 -43 -98 -57 -93 117 -27 -70 125 -16 122 123 -75 -124 -49
right_child=1 7 3 5 24 12 10 37 79 18 15 17 14 31 50 52 39 30 61 23 47 41 46 -25 71 95 -28 32 -30 64 -32 40 84 73 78 -37 -38 59 54 -41 -42 42 -44 -45 62 67 92 119 -50 -51 -52 -53 109 103 -56 56 85 58 -60 -61 102 -63 -64 98 -66 -67 107 -69 118 -71 -72 94 -74 121 -76 76 -78 86 -80 -81 -82 -83 -84 -85 -86 -87 87 -89 89 -91 -92 115 -94 -95 -96 96 97 -99 -100 -101 -102 -103 -104 104 -106 -107 -108 -109 -110 110 -112 -113 -114 -115 -116 -117 -118 -119 -120 -121 -122 -123 124 -125 -126 -127
leaf_value=-0.0084261975924559574 0.0031732389126748009 -0.016289700922348334 0.019524586102193865 0.0029622711646182156 -0.0039148278454973814 -0.010604899056849471 -0.008268201921446847 -0.0017047074512314387 0.0080103005535629244 0.0017817702815630207 -0.013254042898945675 0.0098744598448294932 0.0022725666559322323 -0.018228937216165489 0.0048451345184737536 0.0061462385608911461 0.0011260363384456441 -0.0040071666109263541 -0.0059230068643166501 0.0015382045256572422 -0.0018465908102684259 0.013365337337632836 0.0055239836161666746 0.0075374395846622535 -0.0058248079377066888 0.00081190461881899963 0.005142213043889129 -0.012435259731529038 -0.0066715962567916558 -0.014462901089916491 0.0034525770668989886 -0.0019558753164000491 -0.013343889847134773 0.0014366116883493798 0.0058467729473636364 -0.0055095952142414266 0.00025267512357828785 -0.012236594950804393 0.0045603419341252718 -0.008140319511049536 -0.0080182968728870901 0.0082556758657690195 0.010715729231372944 -0.020601921362845194 0.013120908632851223 -0.013227671884961188 -0.0082549691499567354 -0.019989159853262384 0.003497165216868256 -0.0044793027985245149 -0.0046940832684656654 0.012487136933317154 -0.011127722467092352 -0.0066276479706074308 0.014084933854620025 -0.0033782008650164066 -0.0051538408353471992 0.007371369407093196 0.001689164299783515 -0.0012890274855966283 0.0017446185754349203 0.0062086837530124592 0.0020141058238208596 0.00099130852240888849 0.0014220215259061106 0.016790035160972355 -0.0071956033124256939 -0.016753977793266716 -0.022176343843680165 -0.010637914544800555 -0.0012436670923495292 -0.034974326346073573 -0.020237826154752833 0.016204642668484332 0.0072263320086326122 -0.040382172094542396 -0.010930914211060985 0.025657172935052212 -0.00056686618027100273 0.025632411285524081 0.024209809573103078 0.01730892741495365 0.0043470797863139144 -0.017069404075488317 -0.0057476643557493072 -0.00062364553283088839 -0.04049586977533888 0.011913186386936796 -0.01979471226234596 -0.002766195966397289 -0.020917382969295923 0.012018567647914553 -0.0049517849735438088 0.0020786832779558033 -0.0042901911816402476 -0.0075899088931587061 -0.0016123412805736422 0.0057818808300652228 -0.00480410293572597 0.025025218450904121 -0.020845089686458689 -0.0069249474482587546 -0.0051670996483020757 0.014878189848434227 -0.026056923779676194 0.0019856343103674297 -0.020436342559449979 -0.031025384896487554 0.0072992100126754115 -0.0094545764478511738 -0.00090216475624681398 0.0099242753997563059 -0.0012229518519298042 -0.02566107149750951 0.0013397821517798 -0.040179961214106746 0.0036351075986065019 -0.019242310090095482 0.0038578191176823779 0.010614849079974309 -0.039987100195636185 0.013270434207936881 0.0079254693975543949 -0.0090638558714164139 0.024847780903527256 0.005251249071164317
leaf_weight=215.55568470666185 351.79574865859468 413.77778175775893 109.0009001661092 435.97481763339601 467.52629000577144 208.29470476228744 1142.7984295054339 298.34273928252514 324.73575851600617 2499.155257217586 690.76446421351284 960.3472293082159 1353.3374420786276 127.88057314464822 7069.1410448501119 134.78282421606127 1541.0896259266883 1051.313006188022 162.68728378647938 375.62650783220306 1475.872459293576 1326.2950046942569 791.48989064840134 1950.7851633649552 215.39215045562014 110.59130294481292 1153.1858012760058 2273.5880932834698 1538.3191934770439 2699.6960669108084 3612.9942683950067 1827.1647720490582 364.26014684676193 95.909254416823387 6091.1705573430518 1299.6880868196022 7998.7779069178505 229.28730150335468 310.47209501545876 439.70941218163352 779.92309714807197 240.23362765088677 2272.5387626125012 894.21953739505261 217.66641334630549 934.48074058629572 181.55252343672328 38.175310994731262 281.30941435624845 555.21377511951141 245.35113801178522 432.27372156642377 704.36221317248419 1432.1063495848794 1367.9894687323831 914.45313472882845 2534.9371843768749 1315.3307330848183 2799.8016542683472 975.00192393746693 582.17148071201518 1743.7923647626303 890.27798189502209 776.89204002404585 107.03937805176247 53.743918118067086 327.24241536203772 1821.3237755484879 26.854394375812262 1763.7655818060157 174.68827193975449 18.420576930046082 196.93372041638941 58.463307682424784 1903.1836323547177 10.989652790129183 1553.4294281523908 44.662456080317497 522.4189067138359 273.1451814007014 249.04589814599603 711.01992994733155 476.80500382138416 96.7951470175758 2160.4263679848518 1299.1013294716831 9.8597085960209387 19.009580202400684 198.87912457599305 115.10771681508049 54.243987513240427 521.81262758444063 726.22428621537983 1424.1334160396364 1313.6989168705186 492.64879823185038 618.05245141196065 382.53128174226731 1466.0104145488003 28.653867819346488 38.772322977427393 1139.0423948806711 857.67466094926931 71.818893689429387 15.963810944464056 793.70929780276492 35.121700123883784 30.749346530996263 4230.623853537254 504.86995314690284 545.47341987281106 269.98500071302988 669.44364015641622 28.082716562785208 2945.7126191800926 5.7604721686802796 1412.4399971525418 61.560235589742661 142.00993863772601 195.80032901815139 7.4812096683308473 996.23166359658353 304.61193168908358 126.82320095971227 62.163565808907151 58.702452537138015
leaf_count=2509 3281 4785 255 2932 4560 1684 12227 2554 580 15160 7940 4829 7298 1168 35937 945 9495 7381 1449 2235 12595 3440 4576 8326 1825 759 4874 26713 9999 34422 20235 10844 4840 503 29771 11604 63560 2203 811 3578 5045 475 6252 12632 506 11344 1588 479 1780 5840 1654 1609 8882 15091 2865 7506 20151 6821 15013 7687 4995 10162 4526 3601 1017 161 1949 24191 354 18636 1826 198 2177 109 6743 52 23746 59 2635 313 278 1102 2649 834 23642 9269 46 43 2250 907 413 1999 6686 7563 11238 4040 4726 2594 10428 61 236 9843 8658 458 107 4967 364 248 13431 5876 5007 609 2505 300 14218 43 9262 616 1158 1369 70 3425 679 391 89 508
internal_value=-1.87659e-12 0.00258056 0.00391014 0.00515947 -0.00818693 0.0041538 -0.00951391 -0.0018076 0.0107749 -0.000792833 -0.00813776 0.000367173 0.00509595 -0.000293268 0.00324869 -0.0110295 -0.00493072 0.00301016 0.000450313 0.0061356 -0.00646288 0.00708814 0.00234139 0.00398356 -0.00298494 -0.0013609 0.00054841 -0.00776018 -0.00871031 -0.0136077 0.00180237 -0.00354776 -0.00920336 0.00596233 0.00479959 -0.00115148 -0.000577633 -0.00714361 0.00892182 -0.00127079 -0.0029575 0.0096102 0.00816752 -0.018237 -0.000346457 -0.0130832 0.000716425 -0.00309176 -0.00250235 -0.00934398 0.00492607 0.0052404 -0.00649646 -0.00412601 0.0123231 -0.000840205 -0.00169185 0.00256942 0.00350538 -0.00337336 -0.00498129 0.00517344 0.00419614 -0.000897549 -0.0124518 -0.00232239 -0.00372254 -0.0146762 -0.0112464 -0.00934547 -0.0116367 -0.00660404 -0.0127087 0.00825551 0.00621241 -0.0127942 -0.0100437 0.00626248 0.00534015 0.0179332 0.0162964 0.0143936 -0.00131343 -0.00271624 -0.00684364 -0.00361886 0.0132337 -0.00598604 -0.00778675 -0.0135521 -0.00663894 0.00760882 -0.000915342 0.000910273 -0.00471449 0.000255979 -0.00213273 0.000480823 -0.00275453 0.000804195 -4.66771e-05 -0.00405869 -0.00237249 -0.00581551 0.00743389 -0.00142913 0.000645576 -0.00924244 0.00760628 -0.00746757 -0.00501306 0.00325856 0.00128023 -0.00265756 0.000222117 0.0114486 0.0025493 -0.00635935 -0.000282378 0.00554725 0.00479774 0.010965 0.00680483 -0.00109091 0.0107936 -0.0046949
internal_weight=115620 87910 67467.8 49879.2 27709.7 42303.2 22077.8 20442.2 7576.03 17175.8 16523.3 17588.5 34907.7 7395.52 12571.1 6060.14 3968.02 6418.36 13207.8 22336.6 10463.2 15483.3 4086.95 6853.28 5631.87 3887.42 4816.85 7555.61 1952.1 5554.46 5458.02 3308.57 4972.96 10704.8 7103.19 11170.2 9870.46 3266.4 6018.09 2015.92 3180.69 4778.5 3452.2 1109.78 11301.3 4170.65 3123.4 2907.59 489.604 1245.98 7754.25 7508.9 1889.49 1871.68 1678.46 10193.4 7694.2 4902.49 4115.13 1204.29 2582.64 1906.48 1107.94 3663.67 4444.69 787.362 733.618 2924.67 1103.35 2062.11 2448.28 1744.45 412.326 3601.63 2053.34 4337.65 1637.95 84.5214 6613.59 1557.95 1284.8 1035.76 2400.76 1923.96 2524.69 3834.04 73.5317 28.8693 781.513 313.987 150.153 963.548 2331.91 1605.69 1332.12 3105.91 1521.32 1028.67 2310.33 844.318 815.664 2614.91 1439.85 1519.89 87.7827 1845.02 1576.21 357.992 4339.62 1754.71 1050.34 1179.66 909.677 646.135 3860.17 527.573 1584.59 172.152 168.864 292.678 7076.62 1548.29 552.062 185.287 366.775 96.8778
internal_count=800557 501347 359099 227586 299210 207951 253758 142248 19635 111168 179232 131513 162024 45927 65768 71537 28221 37412 82947 96256 107695 61503 25387 34753 45452 30014 26498 82901 14784 74526 32583 20540 57021 48222 35870 94101 82497 31080 17362 13437 19372 13281 9841 15141 71336 50827 20413 24794 3464 13780 39270 37616 20710 18937 3676 66304 51144 26427 21834 9890 25880 11611 5032 21624 59385 4593 4432 37047 12856 21190 28539 15438 4002 12352 7659 58368 23946 200 32406 2273 1960 1682 14327 11678 28482 29420 148 89 7717 3157 916 4974 15837 9151 11436 22297 11660 7620 14326 3898 3837 22438 13653 15656 565 12348 9859 2197 13686 19765 10883 3589 2980 5026 21724 2042 10637 1375 1512 2356 36007 4693 1268 500 768 987
is_linear=0
shrinkage=0.02


Tree=3
num_leaves=127
num_cat=0
split_feature=12 14 12 11 14 8 15 8 8 14 8 12 12 12 11 11 12 11 8 14 15 8 14 13 11 13 13 3 12 12 14 12 7 14 8 7 8 14 13 3 11 14 11 9 11 11 14 8 13 9 14 13 13 14 12 12 13 13 13 12 13 8 11 9 9 11 14 12 12 13 11 11 3 13 13 14 2 12 13 14 11 11 7 5 14 13 14 13 12 13 10 4 2 12 9 11 12 8 13 11 8 2 14 12 14 12 12 2 1 11 8 15 2 3 11 3 7 11 13 4 8 1 14 12 11 7
split_gain=5068.01 1034.58 817.001 402.411 355.593 302.865 299.516 221.793 195.289 202.458 158.953 147.827 135.979 133.04 124.141 114.394 111.042 128.363 107.846 113.461 99.9067 90.2307 110.936 83.0164 80.0579 75.8455 73.7121 71.679 71.3327 179.373 83.8129 66.3003 65.1988 64.4579 74.8834 61.3362 70.0603 66.6857 68.5589 61.11 58.891 53.825 53.5806 53.4745 51.0333 50.5581 57.2615 54.5857 50.4698 70.3071 48.201 46.7401 53.1829 46.8155 46.6664 46.5098 46.3608 47.6607 46.2415 46.0126 44.7758 44.5853 43.2411 42.7189 41.7916 50.1692 40.7813 40.5875 40.3237 53.2061 40.1293 39.7761 39.469 40.4544 39.3249 38.8539 38.6827 38.6121 43.4491 40.9838 39.0955 38.8582 38.5949 38.4844 38.0822 50.5567 37.9839 39.8484 37.8779 52.9421 37.8251 43.0434 37.5663 38.4315 37.447 37.0832 37.6445 37.0216 47.6534 38.3835 36.9685 36.6028 36.5425 37.3851 36.403 36.3838 85.4489 36.4373 36.1352 35.9058 35.5126 39.2861 34.7459 34.6726 34.5993 34.3452 33.8417 39.447 43.9353 33.8368 34.4762 33.8361 46.6442 39.9393 41.1314 40.2383
threshold=0.0073500000000000015 156.25500000000002 0.13105000000000003 1.7000000000000004 299.00500000000005 2.5000000000000004 1.0000000180025095e-35 3.5000000000000004 2.5000000000000004 119.99500000000002 3.5000000000000004 0.34165000000000006 0.13105000000000003 0.034150000000000007 3.2800000000000002 2.5200000000000005 0.065650000000000014 1.7000000000000004 3.5000000000000004 89.00500000000001 1.0000000180025095e-35 3.5000000000000004 384.53500000000003 6.0050000000000008 4.7150000000000007 5.2150000000000007 4.955000000000001 31.500000000000004 -1.0000000180025095e-35 1.0000000180025095e-35 211.00500000000002 0.64935000000000009 217.50000000000003 235.71500000000003 3.5000000000000004 215.50000000000003 4.5000000000000009 110.00500000000001 5.1150000000000011 97.500000000000014 1.2450000000000003 140.00500000000002 2.1400000000000006 4.7500000000000009 5.3850000000000007 3.2400000000000007 204.00500000000002 4.5000000000000009 5.3350000000000009 3.7500000000000004 80.00500000000001 3.8850000000000002 4.3350000000000009 111.00500000000001 0.7168500000000001 0.43225000000000008 5.5450000000000008 4.7150000000000007 5.2350000000000012 0.056350000000000004 5.8050000000000006 3.5000000000000004 3.3850000000000002 3.2500000000000004 4.2500000000000009 3.2800000000000002 251.00500000000002 0.16825000000000004 0.29525000000000007 5.0150000000000006 1.0000000180025095e-35 2.0150000000000006 162.50000000000003 5.205000000000001 4.6550000000000011 143.00500000000002 6.5000000000000009 0.043050000000000005 4.3550000000000013 68.00500000000001 3.7250000000000005 1.0000000180025095e-35 99.500000000000014 3.5000000000000004 149.00500000000002 5.0650000000000004 95.00500000000001 5.3250000000000011 0.27935000000000004 4.8850000000000007 1.0000000180025095e-35 1.5000000000000002 2.5000000000000004 0.13855000000000003 1.0000000180025095e-35 4.535000000000001 0.099850000000000008 2.5000000000000004 4.1550000000000011 6.4450000000000012 1.5000000000000002 8.5000000000000018 119.00500000000001 0.57655000000000012 65.00500000000001 -1.0000000180025095e-35 1.0000000180025095e-35 1.5000000000000002 159.00000000000003 4.8550000000000013 1.0000000180025095e-35 1.0000000180025095e-35 2.5000000000000004 7.5000000000000009 3.2000000000000006 55.500000000000007 47.500000000000007 2.2500000000000004 5.6250000000000009 1.5000000000000002 3.5000000000000004 218.50000000000003 84.995000000000019 0.016950000000000003 1.5000000000000002 101.00000000000001
decision_type=2 2 2 2 2 2 2 2 2 2 2 2 2 2 2 2 2 2 2 2 2 2 2 2 2 2 2 2 2 2 2 2 2 2 2 2 2 2 2 2 2 2 2 2 2 2 2 2 2 2 2 2 2 2 2 2 2 2 2 2 2 2 2 2 2 2 2 2 2 2 2 2 2 2 2 2 2 2 2 2 2 2 2 2 2 2 2 2 2 2 2 2 2 2 2 2 2 2 2 2 2 2 2 2 2 2 2 2 2 2 2 2 2 2 2 2 2 2 2 2 2 2 2 2 2 2
left_child=6 2 5 11 7 13 8 12 24 50 14 -4 25 94 20 -12 56 54 19 32 41 62 39 61 28 76 51 -25 30 -30 100 64 121 34 109 36 -20 83 -39 43 102 63 68 82 101 47 -47 -19 92 -50 -10 -21 -53 74 72 -48 57 -9 59 -59 -57 -6 70 -5 104 -66 -58 -16 69 -14 105 -27 73 -18 -54 -42 -3 79 -79 80 81 -34 -23 -37 85 -72 97 -88 89 -22 -81 112 -44 -94 -2 96 -76 98 115 -100 -1 -24 -13 -104 -17 -11 -107 -108 113 -8 111 -15 -92 -36 -112 -69 -63 118 -118 -52 -121 122 -7 -123 125 -125
right_child=1 4 3 10 23 18 33 16 9 21 15 40 42 110 67 31 17 45 35 26 88 22 44 27 -26 71 -28 -29 29 -31 -32 -33 77 -35 108 37 -38 38 -40 -41 75 -43 48 -45 -46 46 55 -49 49 -51 119 52 53 -55 -56 60 66 58 -60 -61 -62 116 -64 -65 65 -67 -68 86 -70 -71 84 -73 -74 -75 95 -77 -78 78 -80 90 -82 -83 -84 -85 -86 -87 87 -89 -90 -91 91 -93 93 -95 -96 -97 -98 -99 99 -101 -102 -103 103 -105 -106 106 107 -109 -110 -111 114 -113 -114 -115 -116 -117 117 -119 -120 120 -122 123 -124 124 -126 -127
leaf_value=-0.018827084029328513 -0.027210538637755067 -0.0094374862462850342 0.0089203612121390545 0.00080676973021935464 -0.012923236529892562 0.0027294048950490218 -0.0058963819088228763 0.0016329137586557716 -0.0035427717045345302 -0.01351513092428974 0.012614074862498117 0.022048784895568857 -0.013363989474498019 -0.0074965439063940965 -0.0026878926606246373 0.0098712987958148677 0.0026658897161643915 0.0028671691321737781 0.0014855677270892449 0.001521768107353158 0.0043300075665526506 -0.0041731425988348805 -0.022512866716494752 -0.0069368289919040024 0.00018005031658885727 0.0037801294299991397 0.0019177247467624461 0.00077430196335883771 0.018734070248993161 -0.011650492584351557 -0.033194157683096144 0.014045351918009074 -0.029162071934293585 -0.01161152386824949 -0.011401965055742026 0.0081145307746267499 0.0070757114328718054 -0.00072539893325739913 0.0057412910558709666 -0.0010997796845579235 0.013112331157069024 -0.0039053697924709219 -0.0055050364294980435 -0.019571254233481418 0.0064513841310302016 0.0025658065761435074 -0.0016603090294855028 0.010714874661332269 -0.007167957355970026 0.0043166387180382506 -0.010110131510902572 -0.028812075521654271 -0.0063502833751043156 -0.005641858708764858 0.028305567864088194 0.00048670488297790425 0.0026803834276266786 -0.0079560578442948084 -0.0027659439206946398 -0.029850165039883716 0.0094671914445313109 -0.00070992594787005852 -0.0078036201430111357 0.0051514810682800937 0.012729920110510251 0.0063643555114838036 -0.0036489022299372336 -0.021671263916752372 0.011170951529117575 0.0062211065222115029 -0.015790946501080753 -0.0042614400587418907 -0.010475788583181224 0.012526166179873375 -0.00055424871775381702 -0.016357387301349228 0.0035942098138268632 0.00049438493916247799 0.0077039916358115123 0.0079978178407491413 -0.017647348759333905 0.010011648174172662 -0.0096182866986745819 -0.040229000952743003 -0.018040309209489527 -0.0066296642515448912 -0.00065206565510465277 0.0058404120755758968 0.012194255015642062 0.013869534874193876 -0.0060850122642251139 0.00079221191510602993 0.019894234217718319 -0.00086948666237694717 -0.0059892142798527248 -0.023807404315633655 0.007429116037288911 0.0058464288289400944 0.003076824991075454 -0.039988501245245674 -0.013540080683211567 0.005012139625720822 0.0018018934103091438 0.021728660138243479 0.0040472708011463415 0.02426682000388429 -0.024800904473738127 -0.0014157626524116259 0.0027464033256423266 0.0055247159798580917 0.0012285122197585206 0.024558016454759822 -0.028596119719670621 -0.00065484324255776609 -0.0032797743701309212 0.0050063661531608581 -0.00863072404113914 -0.0083915616439812317 0.0069228791496292923 -0.0073721032360966558 -0.0028981852686620134 -0.024235621195712223 -0.010646683920791045 0.018567694979385912 -0.0062720078364353494 -0.03980840720346232
leaf_weight=673.79977214185055 33.761932383524254 1665.9939534327714 2700.1164075313136 1085.9057364864275 531.48253509378992 1304.9269250177313 2160.8530085992534 620.27800914086401 2165.182063243934 232.34891762328334 1288.6660978160799 710.89781532995403 81.286941320635378 365.80928480741568 832.31310323090293 476.79801316908561 240.52805493585765 2474.2888757043984 4895.5846436165739 1259.0579266276909 917.17316170362756 749.20528630644549 336.38813243201002 826.06725056492724 173.12534615211189 308.7930251439102 3807.6465602712706 1158.3106739259092 83.184939445927739 1182.1701862137415 100.91026726947166 411.35408042278141 10.394289301708339 380.18415588873904 161.20582182542421 2336.9924530058634 1097.8944868019316 1021.7767194041517 1830.799595014425 503.336780486512 680.20812613517046 325.44265270954929 1197.0208965572529 169.52718404214829 29.472209770232439 4542.1530205084709 3646.8951220267918 413.82555361371487 271.73843142576516 990.11418845178559 1162.4009483717382 31.535680139437318 431.57807714422233 1363.3759194628801 50.380057282745838 778.02218181616627 1425.1585642674472 520.64518389943987 1380.5544473397313 41.452700488967821 310.78798326314427 342.22615073830821 465.18492708087433 5440.5799839440733 611.77775939460844 2600.050679562497 570.09343842649832 62.647886274848133 261.3795861210674 174.79366389522329 739.3528537931852 1210.6389217337128 41.725647791288793 540.30948127061129 1479.8369888456073 18.378985416144133 96.382840642472729 401.63238723576069 1996.2890891635325 201.71250174427405 23.264190626796335 396.36670221353415 1707.0252122469246 6.6053097993135443 1127.017160297255 357.43488582852297 2130.0718893866288 459.75530763249844 875.40272711776197 311.82124439347535 154.39467963110656 647.67784043448046 37.430392291862518 752.29408259806223 2240.65261912602 25.00616303877905 281.14539286727086 1461.4138201074675 482.81841353350319 8.4228734276257438 2462.0397949181497 20.502876969054341 79.696333872154355 71.400562901049852 4308.3636545081972 39.797636731527746 41.191647826461121 75.504937111632898 972.49730660696514 116.01709882495925 3078.3055987140397 15.96124384133145 33.35091648530215 470.65633575594984 874.34033794351853 27.899964977521449 139.56514071347192 2098.4090755066136 151.50854153721593 2571.7838614396751 941.08976436080411 39.531028311233968 113.33666858053766 48.951818782603368 252.14378732768819 5.2274976335465899
leaf_count=9915 540 17029 6311 5771 5259 9580 19298 4946 21426 2747 2464 943 401 2973 6505 1962 777 9658 27574 9098 2821 7378 5283 8405 1526 1966 27721 9278 261 19603 1787 1107 136 4346 1435 8708 5338 5343 8535 4882 1146 1766 8244 2531 301 25440 25976 1409 1898 5991 12308 344 3495 12140 58 4235 9707 4705 10654 449 1509 2823 5736 22655 1444 9272 4595 699 543 507 10637 9987 119 1257 11201 54 729 2189 9895 1308 223 2766 21810 38 15825 4270 14348 2760 1704 764 1462 5731 151 4792 27251 225 1377 8070 3790 112 33248 182 176 97 17244 63 792 995 7157 610 23251 72 374 3690 8384 222 1140 21621 932 29856 7879 622 925 195 2303 66
internal_value=-7.73119e-12 0.00210958 0.00361387 0.00608622 -0.000934295 0.00142855 -0.00852292 7.22657e-05 -0.00964554 -0.00842029 0.00508524 0.0117525 -0.00292573 -0.00238691 0.00375387 0.00706529 0.001273 0.00221236 0.00241748 0.00126723 0.00520339 -0.0109212 -0.00873194 -0.00566156 -0.0131662 -0.00590167 -0.000167076 -0.00243573 -0.0136794 -0.009653 -0.0152534 0.00621488 0.00347866 -0.00375232 -0.00298247 0.00388832 0.00250958 0.00547861 0.00342496 -0.00748351 0.0166527 0.00403275 -0.000332442 -0.00870722 -0.0188428 0.0016808 0.000961458 0.00399163 -0.00128454 0.00184344 -0.00600979 -0.00179658 -0.00295312 -0.0027254 0.0096205 -0.00057732 -0.00141407 -0.00319374 -0.00473486 -0.00957067 0.00305008 -0.00762322 -0.0134216 0.00442859 0.00581209 0.00757685 0.000871948 0.00137848 0.00564478 4.26496e-06 -0.0144219 -0.00262716 0.00847609 0.00948882 -0.000932333 0.012337 -0.00872479 0.00493281 0.00649644 0.00237722 0.00756843 0.00901061 -0.0079574 0.00797828 -0.0154584 -0.0128054 0.00210899 0.000500502 0.00901496 0.00675038 0.000224809 -0.00165198 -0.00327123 0.000114647 -0.00630423 0.000376896 0.000720316 0.0041478 -0.000119032 0.00233842 -0.0146761 -0.0209316 0.0201503 0.0112183 0.00462758 -0.0084943 -0.00103982 -0.00967027 0.000326984 -0.00531442 -0.000331355 -0.00615639 -0.0100839 -0.00339674 0.000231262 -0.0134512 -0.00659205 -0.0074345 -0.000534823 -0.00715229 -0.00617355 0.000292685 0.00166049 -0.00531635 -0.00287482 0.0129353
internal_weight=112749 90378.8 60486.2 28379.4 29892.5 32106.9 22370.4 24645 18109 13433.7 24118.7 4260.7 7047.87 6608.83 14421.7 9697.01 17597.1 13038.9 25498 14308.4 8956.33 6593.29 3515.46 5247.57 4675.23 3281.81 8679.18 1984.38 4502.1 1265.36 3236.75 8408.34 5629.2 4261.41 3881.23 11189.7 5993.48 5196.17 2852.58 3129.09 1560.58 6851.93 3766.06 2625.76 386.363 12166 9277.86 2888.11 3248.6 1261.85 6840.46 4871.54 3612.48 3580.94 872.943 4735.71 4558.18 2562.93 1942.65 562.098 1088.81 3263.19 3077.83 6526.49 7996.99 3211.83 1995.25 5465.34 517.46 256.081 2612.65 1519.43 822.563 780.838 2217.57 698.587 1762.38 3865.08 2397.92 1467.16 430.025 406.761 2456.23 2343.6 2223.8 1096.79 4633.03 2589.83 2104.4 1228.99 1037.14 835.423 1986.75 789.724 2274.41 1785.99 1760.98 2043.2 581.789 491.241 3135.84 356.891 861.995 151.097 4785.16 388.843 156.494 116.697 1604.36 2276.87 4334.42 381.771 187.746 631.862 3952.65 90.5479 2731.71 2389.48 291.074 4675.27 3512.87 1764.12 1418.26 345.854 306.323 54.1793
internal_count=800557 542780 335590 114207 207190 221383 257777 157732 221241 154901 105480 8727 52238 62471 71987 33493 105494 70438 158912 103376 35481 83432 42367 49458 66340 29711 65601 17683 64814 19864 44950 31029 37775 36536 32190 55536 32912 22624 13878 36601 2416 30192 22527 31719 5766 68227 57160 11067 21076 7889 71469 37880 28782 28438 2211 31720 35056 20754 15808 5154 5744 31775 41065 28426 29922 10716 14302 36506 1451 908 35329 11953 2153 2034 16298 1200 17758 24084 12084 12000 3125 2902 29188 8746 30732 14907 30001 17108 5289 3585 8875 7567 13187 4943 27791 12803 12578 12893 4823 3902 43163 5465 1216 273 19206 4597 1850 1787 12282 19908 34680 3045 1836 5125 31635 921 26516 23693 2072 50043 37735 13691 10505 3186 2564 261
is_linear=0
shrinkage=0.02


Tree=4
num_leaves=127
num_cat=0
split_feature=12 14 12 12 12 11 8 12 14 8 14 15 11 8 12 15 15 14 11 8 14 11 11 14 12 14 14 14 14 13 11 8 11 15 8 13 3 13 5 13 2 11 13 14 7 11 13 3 11 12 4 8 15 15 14 11 13 13 12 13 11 14 8 7 14 14 11 8 12 9 8 11 9 11 14 2 13 2 14 11 14 12 9 11 12 12 12 13 2 8 2 11 11 11 2 14 3 1 5 3 13 13 11 10 8 12 4 11 9 2 12 12 1 3 10 11 8 14 8 4 14 13 13 14 12 2
split_gain=4544.76 821.591 687.093 636.725 423.828 327.19 308.297 289.939 226.138 202.79 243.243 162.918 154.402 113.213 112.129 105.306 98.0128 90.5885 87.9704 83.1992 82.563 105.994 81.8784 79.2981 74.6429 74.5247 73.3399 73.1357 71.6955 69.6471 68.0365 68.0067 68.0414 66.5704 65.8726 63.8665 61.5109 61.429 59.8039 59.7574 59.5129 59.3278 58.6411 77.779 65.3456 58.3974 57.91 57.2072 56.6986 56.5671 52.7986 52.0725 51.9602 51.3614 50.2842 49.6446 49.2655 49.0552 48.8453 47.5902 46.5981 45.7221 45.0688 49.4745 44.4452 44.1177 43.8743 43.6439 43.5937 43.347 42.7781 48.2256 42.75 42.2439 42.1579 40.9816 40.6325 40.1245 39.5365 38.9474 38.8787 38.3119 38.2207 37.788 42.9501 41.4692 37.2994 37.1303 36.9835 36.8595 36.8252 61.9895 37.0172 36.7808 41.1167 36.7449 36.2645 36.1928 36.0052 34.9325 34.8699 34.5169 34.1117 33.892 33.5822 33.3519 33.2999 32.9829 32.8652 32.6941 32.3887 32.3428 32.131 31.7408 31.6977 36.0374 34.043 33.0848 31.5145 31.4057 31.328 31.2113 42.8647 33.3229 31.2054 31.176
threshold=0.028050000000000002 167.92500000000004 -1.0000000180025095e-35 1.0000000180025095e-35 0.34835000000000005 2.1400000000000006 2.5000000000000004 0.0018500000000000003 265.01500000000004 2.5000000000000004 128.99500000000003 1.0000000180025095e-35 2.5200000000000005 3.5000000000000004 0.080150000000000013 1.0000000180025095e-35 1.0000000180025095e-35 442.92500000000007 1.2450000000000003 2.5000000000000004 233.54500000000004 4.4000000000000012 4.7150000000000007 137.02500000000003 0.083850000000000022 286.01500000000004 60.005000000000003 92.00500000000001 211.00500000000002 5.1150000000000011 1.0000000180025095e-35 2.5000000000000004 3.4500000000000006 1.0000000180025095e-35 3.5000000000000004 4.3450000000000006 3.5000000000000004 5.0850000000000009 1.0000000180025095e-35 1.0000000180025095e-35 1.5000000000000002 1.7000000000000004 5.1150000000000011 91.00500000000001 217.50000000000003 1.8700000000000003 4.5650000000000004 120.50000000000001 2.9150000000000005 0.15735000000000002 1.5000000000000002 1.0000000180025095e-35 1.0000000180025095e-35 1.0000000180025095e-35 93.00500000000001 3.1600000000000006 5.7250000000000005 5.5550000000000006 0.22785000000000002 4.785000000000001 0.89500000000000013 88.00500000000001 3.5000000000000004 16.500000000000004 139.00500000000002 146.00500000000002 5.495000000000001 3.5000000000000004 0.20675000000000002 3.7500000000000004 4.5000000000000009 2.3500000000000001 1.7500000000000002 3.1600000000000006 257.00500000000005 3.5000000000000004 4.4350000000000014 4.5000000000000009 79.00500000000001 2.7400000000000007 286.01500000000004 0.00025000000000000006 3.7500000000000004 3.6250000000000004 0.16575000000000004 0.046550000000000008 0.10245000000000001 5.5950000000000006 1.5000000000000002 1.5000000000000002 1.5000000000000002 2.6000000000000005 5.6750000000000007 4.4600000000000009 1.5000000000000002 68.00500000000001 15.500000000000002 102.50000000000001 1.0000000180025095e-35 1.5000000000000002 5.495000000000001 5.5450000000000008 3.6250000000000004 1.0000000180025095e-35 3.5000000000000004 0.092150000000000024 3.5000000000000004 2.3500000000000001 4.7500000000000009 3.5000000000000004 0.0073500000000000015 0.038850000000000003 54.000000000000007 1.5000000000000002 1.0000000180025095e-35 2.8600000000000008 4.5000000000000009 176.72500000000002 4.5000000000000009 1.5000000000000002 54.005000000000003 1.0000000180025095e-35 4.4050000000000011 72.00500000000001 0.085050000000000014 8.5000000000000018
decision_type=2 2 2 2 2 2 2 2 2 2 2 2 2 2 2 2 2 2 2 2 2 2 2 2 2 2 2 2 2 2 2 2 2 2 2 2 2 2 2 2 2 2 2 2 2 2 2 2 2 2 2 2 2 2 2 2 2 2 2 2 2 2 2 2 2 2 2 2 2 2 2 2 2 2 2 2 2 2 2 2 2 2 2 2 2 2 2 2 2 2 2 2 2 2 2 2 2 2 2 2 2 2 2 2 2 2 2 2 2 2 2 2 2 2 2 2 2 2 2 2 2 2 2 2 2 2
left_child=2 4 9 60 6 18 26 40 15 22 16 13 14 23 33 19 66 31 -6 -3 21 37 28 48 57 -15 46 51 89 -25 108 -10 36 82 -29 39 -33 -12 47 55 -5 112 43 44 52 49 86 -34 59 -21 81 78 -26 64 62 98 58 61 -47 95 -4 90 72 -64 -32 -39 -11 -20 -38 -37 71 -60 -13 -36 -58 -62 -54 -22 -7 -17 100 -42 -8 84 -71 -85 -2 -40 -49 -1 -14 -92 103 -44 -95 99 -67 -61 -28 -9 -31 -83 120 -93 -18 114 -35 -84 -16 -43 -99 -41 -19 -87 115 -81 117 -117 -108 -109 -78 -97 123 -123 -116 -106
right_child=1 8 3 7 5 27 12 11 17 10 20 54 24 25 30 79 104 41 67 45 77 -23 -24 29 42 -27 35 34 -30 80 53 32 38 106 73 69 68 65 87 111 50 109 93 -45 -46 56 -48 88 -50 -51 -52 -53 76 -55 -56 -57 74 -59 70 97 75 -63 63 -65 -66 96 -68 -69 -70 83 -72 -73 -74 -75 -76 -77 102 -79 -80 105 -82 101 107 85 -86 113 -88 -89 -90 -91 91 92 -94 94 -96 121 -98 110 -100 -101 -102 -103 -104 -105 125 -107 118 119 -110 -111 -112 -113 -114 -115 124 116 -118 -119 -120 -121 -122 122 -124 -125 -126 -127
leaf_value=-0.018091363164248014 0.00080768591426045179 -0.0074667895611775417 0.025951778295267708 -0.015648507955217227 0.019408095877354217 -0.02865322084459232 -0.0021568764881491052 0.0024397942687584425 -0.018642241699327679 -0.0069269926247828096 -0.014205281674042397 -0.031798897054170647 0.0067116949520836982 -0.00086624598227791967 0.015130646353700499 0.0072856824370507878 -0.0032939818039015257 -0.039906163561789033 0.0098665528435608451 0.00095418849594414699 -0.017548150877377461 -0.00092625999239874925 -0.0012111920686183983 -0.014177926348800572 -0.0011268437282683191 -0.007558308589943461 0.0032854674154720966 0.0014584229480484601 -0.032366081566148612 -0.0067510802163304878 0.0063884459836046148 -0.0093336915086446384 -0.0065413359721390365 0.0079302675609744452 0.01241533762097758 -0.0018149547845740736 0.00018390011555314986 -0.0029629401599870408 -0.0050517315401897821 -0.023886974642171425 -0.032435283934534667 -0.012965375602123005 0.0060291281304556037 0.0011168201732990137 0.0073613181148823124 -0.0023458085913328338 -0.005840443780738204 -0.020802743931044986 -0.00053491504815722751 0.0099286199038390987 -0.006278886838379176 0.0088649056339056009 -0.00071313950568148681 0.0094448007337872546 -0.0016531634218103744 -0.0099517316327026751 0.0038183907197029123 0.0079529049594429281 0.0097072476496879584 -0.0095364493338976637 0.01477063223267628 -0.00025603125266286816 -0.040007759964499526 0.0082021299550435883 0.0012719360240335165 -0.014411718964715917 0.014970980853094231 0.018216269757388551 0.0075187439380710068 0.00088931981164759729 0.0085259560659016517 -0.00055468608972644999 0.00091869739979047471 0.0051826044666796502 -0.00819748785487346 -0.025299229742649275 -0.0096488758221995336 -0.0083178577719873175 0.0070229712792500825 -0.036961588113828645 -0.023334118230317863 -0.014650785846792658 0.0036981379917877923 0.013556633018134343 0.0075852214334848726 0.010209365787786806 0.0062006134976357388 0.0029043794596698047 0.0038900412277662819 -0.012736831317276135 -0.032115824513433526 -0.00058643981365679994 -0.040188455157086321 -0.0014718637514258088 0.0047512305250395062 -0.0047520562352244252 -0.0073832151906406051 -0.0067273580003215216 -0.0063983948454246053 -0.0064534267446244463 0.0044570552712923078 0.0098480393499779904 0.0050266577964826918 0.0062787618122557131 0.0037137555117274725 0.0034417232110336084 -0.011191200597449937 0.006536418128974048 -0.0055038617296949855 -0.0057166027105399666 0.0004235221719887799 -0.0076389229480488185 0.0064197613733706048 -0.011612981747526958 -0.003762196111057884 -0.014991260008108029 0.015361383664005222 0.0032843502236373952 0.030097288821300042 -0.0072255560173811505 0.016629013780549599 -0.0072091360881154512 -0.0091448042422787555 -0.024008212451132244 -0.027830094573046315 -0.039801342919388957
leaf_weight=634.78357281570788 893.81028059509117 610.60088330460712 279.67158490000293 744.16070167755242 832.0219000428915 26.29052002588287 727.61721306014806 230.33086726884358 103.01290043513291 5090.1761182907503 1458.8712607133202 16.199266407173127 794.96909526013769 3730.1879009567201 519.48306046240032 810.25003124494106 795.41963131516241 6.2956746798008671 1338.2105871532112 760.95178283937275 1028.7404418358346 458.7903661148157 205.29538013366982 810.2138409569161 953.49275590141769 810.22278157738037 612.81022646441124 2040.9034785712138 84.885948248615023 488.47827118868008 5081.6213237044867 204.04664908791892 2292.9732393192826 1253.0837260307744 385.88740429095924 2474.7350699764211 1100.9548292926047 419.64088162546977 352.25133846502285 52.592880707466975 45.041269630659372 652.58429747389164 5069.2156204853673 5298.5826770712156 2005.9649362741038 4685.1221963317366 276.11944047291763 26.187641215510666 938.23203000240028 445.36164442636073 1011.5589297271799 2343.1281182637904 315.76251563918777 1959.2587289088406 2866.438870320213 214.49577901302837 1429.7521687753033 414.65942517179064 197.08740318845958 284.65385439764941 103.24649748299271 4541.2037008095067 8.6523767472244781 535.12068977858871 783.85933323949575 528.35224271425977 36.86346234800294 308.0439877640456 459.34674415597692 1070.1930237705819 268.59948961134069 2596.0075927546714 1152.4358009991702 1982.4549921876751 127.18563761515543 11.330087604932485 19.894024267792702 230.61067501467187 23.559604077599943 8.9649287229403836 45.55452620354481 292.70479804952629 2626.1025044883136 40.686864196322858 596.90468128630891 31.167074016295373 1204.0482771059033 702.68108945467975 329.96063398150727 2708.0155249478994 21.947772296145558 738.6060178228654 8.3419729191809875 616.38958398019895 1365.4801056708675 475.7225134720793 661.00672955648042 355.26738130603917 204.93708722596057 758.3900920022279 143.69215780473314 24.965966340620071 521.23978962912224 471.10725010721944 531.60066551691853 2978.7955803894438 61.651501409709454 94.443671976216137 32.826015546917915 402.32846346648876 883.2335743161384 718.2253753899131 122.83787599252537 184.40190020366572 378.12428967759479 45.900716824457049 79.214636965189129 289.69912719307467 8.4023395627737028 222.8201581875328 206.68226866284385 68.576275364495814 1142.8358064325294 151.74449014500715 22.850499074440449 6.6682841805741182
leaf_count=10014 8571 4451 559 11786 1214 233 5547 2842 1093 53553 19259 266 4496 32484 1073 2908 6438 55 2783 4021 14685 4672 1540 12213 6499 9220 3268 11156 1825 6114 16816 1528 22512 4811 685 18958 7101 4194 3179 760 653 7863 22333 29365 9365 34612 2707 381 9996 968 13847 8684 1577 4320 22037 2064 8821 2100 479 3677 347 31022 112 2916 3172 6982 314 446 1680 7288 1518 15099 9667 7265 950 96 99 2886 117 113 760 3464 16102 245 2085 210 6614 5161 2649 37137 257 4804 99 3289 6422 6119 7388 5372 1318 10957 1376 216 2350 2502 3406 16641 330 621 95 3792 9147 5155 534 1902 2988 404 396 1996 10 2076 552 1007 16221 2734 247 87
internal_value=1.22411e-12 0.00266709 -0.0061757 -0.0035924 0.00399242 0.00788625 0.00319487 -0.00414266 -0.000549899 -0.0093717 -0.00804469 -0.0032164 0.00399195 -0.00450428 0.00570592 0.000764187 -0.00551316 -0.0036106 0.0141077 -0.000289703 -0.011462 -0.00989231 -0.0134798 -0.00614161 0.00301103 -0.00206042 -0.000219703 0.00561955 -0.0142146 -0.0102205 0.00712004 -0.00254292 -0.00223965 0.00333389 0.00409179 -0.00136411 0.000992813 -0.0112332 -0.00377936 -0.0045341 -0.0110931 -0.00863446 0.00374971 0.00270871 0.00480532 0.000127263 0.00276965 -0.00538304 -0.00499412 0.00426748 -0.0086263 0.00843458 0.0022634 0.00664118 -3.32188e-05 -0.00138776 -0.000409552 0.00128101 -0.001062 -0.00595574 0.0215508 0.000860318 0.00267844 0.00743503 0.00570468 -0.00853834 -0.00676955 0.0114289 0.00234325 -6.45319e-05 0.000902531 0.00016942 0.000465176 0.00636107 0.00283682 0.0108083 0.00530274 -0.0158579 -0.0117923 0.00330438 -0.00548938 -0.015173 0.00194761 0.0021877 0.00328679 -0.00496255 0.00390291 0.000247763 0.00207438 -0.0137536 0.00335154 0.00119734 0.0017976 0.00512594 0.00281576 -0.00749095 -0.0105055 -0.00310574 0.000858578 -0.00438168 -0.00420347 -0.0127254 0.00784292 0.00208712 -0.00068327 0.00245627 0.00718007 0.00296226 0.0139043 -0.0102008 -0.00162773 -0.00874753 0.00416122 -0.0084579 -0.00110294 0.00271097 0.00356837 0.000784755 -0.00623901 -0.00312887 0.0143217 -0.00916273 -0.010702 -0.0187794 -0.00513376 0.00317467
internal_weight=110369 77080.3 33288.6 18408.9 54590.3 9280.5 45309.8 18014.6 22489.9 14879.7 11246.7 15896.2 36734.7 11317.3 13371.2 15734.5 6460.73 6755.46 2478.28 11120.7 4786.01 3526.66 3632.98 6776.93 23363.5 4540.41 8575.13 6802.22 3427.69 1487.94 8377.05 5571.42 5468.4 4994.12 4409.25 6201.15 1764.35 3067.87 3704.05 1803.06 2118.43 1184.05 16372.7 9321.62 4023.04 10510.1 2373.98 2649.12 5288.99 1206.31 1374.27 2392.98 2017.07 7824.74 4578.85 1032.24 9303.75 6990.84 7746.82 4350.75 394.248 6576.18 1712.41 543.773 5865.48 1609 5127.04 1646.25 1560.3 4398.09 3061.69 2793.09 1168.64 2368.34 1556.94 114.577 1063.58 1259.35 49.8501 4613.8 677.725 362.712 3670.98 1923.35 1667.1 256.256 2097.86 1054.93 356.148 3342.8 2034.97 1240 1218.06 7051.09 1981.87 2827.6 1189.36 1523.15 817.747 988.721 632.17 317.671 747.816 1209.71 1333.69 3803.55 1323.14 2943.37 552.309 1054.91 1238.5 770.818 129.134 215.569 824.754 423.779 414.814 335.6 70.0538 317.264 226.576 1838.88 1363.16 220.321 400.975 538.269
internal_count=800557 429972 370585 196205 275832 32583 243249 195203 154140 174380 123864 165237 182104 130239 54973 96612 63798 57528 4443 70919 60066 42495 50516 88535 127131 41704 61145 28140 48976 20463 25476 45284 44191 29497 19106 43253 10309 37823 33882 12565 29966 12244 81851 49807 20442 66468 17892 25542 68072 4989 18180 9034 11077 24308 34998 6650 61479 45280 51708 58076 1002 43180 12961 3028 19988 18564 53867 3229 8781 30688 17096 15578 9933 7950 9771 443 4578 17571 350 25693 8250 4333 24346 11730 9373 2357 15185 8340 3030 47151 12158 7662 7405 32044 9711 39880 14370 18196 4586 13799 7490 3680 3001 7306 9931 22785 5151 18799 1168 11655 14519 5915 589 2112 6144 2909 2796 2400 340 2697 651 26081 19962 3741 3235 3493
is_linear=0
shrinkage=0.02


Tree=5
num_leaves=127
num_cat=0
split_feature=12 14 12 11 15 12 8 8 14 14 12 15 11 15 13 12 12 13 9 12 11 14 8 14 14 12 12 14 2 11 14 13 14 13 12 13 14 13 8 9 14 14 13 12 12 11 14 11 13 12 14 8 13 14 8 13 12 0 8 14 11 11 11 14 14 8 14 11 8 7 11 11 2 11 9 7 0 14 4 7 3 13 11 11 2 11 14 11 2 14 13 14 3 5 0 8 7 14 11 13 3 12 14 9 7 13 12 3 14 13 14 14 14 7 12 11 13 11 8 8 12 9 11 9 0 13
split_gain=4058.64 800.166 568.336 431.264 309.395 258.685 253.768 208.824 177.022 158.263 157.525 157.474 122.681 112.736 98.4999 97.3563 108.349 95.5652 92.4649 86.6717 84.2941 81.4085 79.4998 72.8988 72.3022 71.4774 70.3402 64.1619 62.7794 56.8079 56.0539 62.0773 55.7294 55.136 54.7983 51.2152 51.0098 51.0008 50.6416 49.6334 48.8373 48.6199 48.4482 47.3544 97.5805 47.4565 52.1516 47.0393 46.9088 46.0914 45.8375 44.773 44.6469 44.1559 44.9755 42.7711 42.1994 41.6021 40.9403 42.5363 74.3985 40.4226 39.3539 39.1682 39.0489 38.9059 55.8308 38.6117 38.51 42.7043 38.4748 37.9515 37.5449 37.5241 37.3828 37.2924 36.4502 36.371 36.3135 36.1101 41.3128 36.0596 35.9958 35.8341 35.6683 35.1786 35.0155 34.8088 34.7104 39.798 47.2525 34.2976 33.8581 33.8023 38.4466 33.7432 33.6781 39.2718 37.4366 38.2135 33.5712 33.5367 40.6707 33.4048 39.6951 33.3928 33.5388 33.2791 32.8246 32.7687 92.9358 32.5806 32.4423 35.11 32.3922 32.3397 32.2564 34.4524 32.1816 32.137 32.0466 31.936 31.851 50.6321 35.4898 36.7363
threshold=0.010850000000000002 194.00500000000002 0.049050000000000003 1.7000000000000004 1.0000000180025095e-35 0.37235000000000007 3.5000000000000004 2.5000000000000004 346.20500000000004 114.00500000000001 0.092150000000000024 1.0000000180025095e-35 3.2800000000000002 1.0000000180025095e-35 5.0850000000000009 -1.0000000180025095e-35 1.0000000180025095e-35 5.6150000000000011 3.2500000000000004 0.46085000000000004 3.3150000000000004 119.99500000000002 3.5000000000000004 198.99500000000003 134.99500000000003 0.18025000000000002 0.20675000000000002 109.00500000000001 2.5000000000000004 4.285000000000001 172.90500000000003 5.2350000000000012 129.00500000000002 5.2950000000000008 0.30525000000000008 5.455000000000001 119.00500000000001 5.8650000000000011 1.0000000180025095e-35 3.7500000000000004 319.02500000000003 99.00500000000001 6.0750000000000011 -1.0000000180025095e-35 1.0000000180025095e-35 4.7150000000000007 211.00500000000002 2.6000000000000005 5.5050000000000008 0.15735000000000002 162.20500000000001 3.5000000000000004 5.2550000000000008 128.00500000000002 2.5000000000000004 5.3450000000000006 0.0020500000000000002 29.500000000000004 2.5000000000000004 99.995000000000019 1.2450000000000003 3.3500000000000005 5.0050000000000008 57.535000000000004 110.00500000000001 3.5000000000000004 180.00500000000002 1.0000000180025095e-35 4.5000000000000009 217.50000000000003 2.5200000000000005 3.5150000000000001 4.5000000000000009 3.6500000000000008 2.7500000000000004 99.500000000000014 14.500000000000002 130.00500000000002 1.5000000000000002 204.00000000000003 7.5000000000000009 4.9450000000000012 5.3850000000000007 1.5000000000000002 1.5000000000000002 4.7150000000000007 74.995000000000019 2.3500000000000001 4.5000000000000009 392.01000000000005 6.0250000000000012 54.005000000000003 272.50000000000006 1.0000000180025095e-35 22.500000000000004 1.5000000000000002 87.000000000000014 225.01000000000002 4.5050000000000008 5.5450000000000008 318.50000000000006 0.055450000000000006 161.00500000000002 4.2500000000000009 55.500000000000007 4.8550000000000013 0.062750000000000014 1.0000000180025095e-35 138.27500000000003 4.9150000000000009 88.00500000000001 166.39500000000001 429.04000000000002 55.500000000000007 0.26595000000000008 4.5250000000000012 5.2650000000000006 1.8700000000000003 2.5000000000000004 2.5000000000000004 0.59565000000000012 3.7500000000000004 3.0650000000000004 4.2500000000000009 18.500000000000004 4.6550000000000011
decision_type=2 2 2 2 2 2 2 2 2 2 2 2 2 2 2 2 2 2 2 2 2 2 2 2 2 2 2 2 2 2 2 2 2 2 2 2 2 2 2 2 2 2 2 2 2 2 2 2 2 2 2 2 2 2 2 2 2 2 2 2 2 2 2 2 2 2 2 2 2 2 2 2 2 2 2 2 2 2 2 2 2 2 2 2 2 2 2 2 2 2 2 2 2 2 2 2 2 2 2 2 2 2 2 2 2 2 2 2 2 2 2 2 2 2 2 2 2 2 2 2 2 2 2 2 2 2
left_child=4 2 13 5 7 39 11 43 10 22 17 18 19 14 53 23 116 40 25 32 34 49 -9 29 26 38 55 68 -10 51 31 58 103 100 35 -12 48 -22 -5 57 74 119 85 45 77 46 -1 -28 95 62 -27 -11 -43 54 61 75 -33 64 -6 -60 79 -2 87 107 -4 67 -67 -7 69 115 78 109 -32 -73 -3 -13 -65 91 -19 80 -61 -23 88 -36 -76 114 -77 -20 89 90 -25 -45 93 122 -95 -16 97 -35 99 -99 111 102 -54 -8 -105 -66 -107 -40 -26 110 -51 -18 -44 -114 -30 -14 117 -17 -85 -41 -49 -72 -15 124 125 -124
right_child=1 8 3 6 30 65 12 9 28 15 20 24 27 92 36 16 33 70 21 -21 37 81 -24 82 108 50 47 -29 42 -31 72 56 -34 96 83 -37 -38 -39 63 41 -42 52 112 44 -46 -47 -48 120 -50 71 -52 -53 101 -55 -56 -57 -58 -59 59 60 -62 -63 -64 76 105 66 -68 -69 -70 -71 121 73 -74 -75 84 86 -78 -79 -80 -81 -82 -83 -84 118 -86 -87 -88 -89 -90 -91 -92 -93 -94 94 -96 -97 -98 98 -100 -101 -102 -103 -104 104 -106 106 -108 -109 -110 -111 -112 -113 113 -115 -116 -117 -118 -119 -120 -121 -122 -123 123 -125 -126 -127
leaf_value=-0.013909021666321502 -0.0057913997690498464 -0.022664985047975712 0.0057079029160581234 -0.02473137021119853 -0.0074432116424430483 0.023569584741197892 0.00666830731470343 -0.0063223204323518559 -0.0094545280563323418 -0.012270173519852195 -0.0014187286513915346 -0.0034030258735892964 0.0050913121697840503 0.0026842891899444832 -0.039109631862260734 0.0076034216455965536 -0.0078864131134810563 -0.0095532010442305401 0.0032788266407236793 0.015254122286162382 -0.0014652814799009041 -0.0027992798394069307 -0.0010479589502112713 -0.016658722430467933 -0.012400915011742232 0.0016075810444380835 0.012193850748386399 0.002876805217585755 -0.0063605257883200123 -0.0010837300717786839 -0.0097379376795378569 -0.00045859436038254455 0.0041225310316857031 0.0089198958238197734 0.017720898503486158 0.0048421975406630685 -0.00031208263845242638 0.0028398614792533696 0.016231455349095286 0.0051332867872425593 -0.021753345576103759 0.0045896843217800905 0.0046983568557548965 -0.040858010395836211 -0.010729678062019054 -0.0034809638890373664 -0.031345036210243919 0.0050766013417285821 -0.016785289095298975 0.0065914887493645881 -0.015560945018835129 -0.0071827078859074316 -0.03897358012215546 -0.006133247569330768 -0.00090805209810612437 0.013118089926643411 0.010176459782466469 -0.016258665334099195 0.00027443180590727348 -0.037849537757430926 -0.0084094675442978745 0.0024929780200172967 0.012229624263329405 -0.0050744304895018431 -0.0083074162139526592 0.023764495260748114 -0.010017464181726717 0.012569589388307883 0.011690381905613379 0.0077052433586491968 -0.015176497203416002 -0.012823502496691284 -0.00011482954871690511 0.0015510954940095821 -0.0087468901419207653 0.0060998361344762409 -0.015239472990251284 -0.027093418769836401 0.0055671826407496343 0.0080657497985212791 -0.00071912288406626224 0.00070594037999870205 -0.0018465120513041686 -0.01386969264154655 -0.0037791126093486933 -0.011851007454625296 0.0017403678297589615 -0.00047067839118456758 -0.0082566103192967377 -0.026143862430882812 0.0019354569849036295 0.017223475019112162 -0.036986566537875118 0.006204689674481359 -0.0046721657731178126 0.0068632617931009641 -0.0057015367152605904 -0.031875766691894118 -0.039604139196245169 0.0038511039465482905 0.018122039303520267 0.012179187139027211 0.010581546282269308 0.019876303319528194 0.0093349326285863728 -0.023556667215964583 0.006121498997035668 -0.0014440507715158604 0.00069395711252974294 0.0083008424580742046 -0.00010839109950834418 -0.013885225802204502 0.006057702080937373 -0.0069355686290581264 0.0046839115205850367 -5.7500766412355246e-05 0.024203977625080305 -0.040489084323107001 0.0070679662750161819 0.01126014109335363 0.012937323683430648 -0.0017088663847813657 -0.015959535054967614 0.0039358823513076383 0.0018664626768314086 -0.0041893422052059533
leaf_weight=2869.2668446941534 1685.9312280751765 52.212577258236706 1421.5348832439631 52.216372867347673 645.53195816138759 147.3286626348272 2300.6201961268671 4705.7317335910629 1324.0782079924829 1806.8863805710571 1028.7575259932783 337.69851540611126 1513.8357295806054 1974.5923651133198 6.4364131782203904 70.166074716020375 1096.4777291032951 72.592418535146862 1480.6125752497464 489.08743108250201 5588.6461364552379 1839.7375966329128 1509.8817999027669 903.55330187355867 82.51084248139523 1376.5437053772621 696.55668555106968 9349.6418770810124 454.07933720666915 292.8829434751533 671.2944911493687 355.54227338533383 2371.8943368801847 154.24252524366602 126.23696095682681 1062.2367598004639 1959.8967312739696 1370.6256243048701 48.794320060871542 435.45221757516265 80.318262235028669 2176.3228988619521 338.38043985632248 4.2806893754750481 1379.5869556777179 170.77263012109324 70.298321864509489 1604.6542088447604 36.106347352731973 2004.7093843659386 65.147346748737618 1121.378876651288 11.60084468778223 1395.5394126748433 3826.8544194095302 172.25999517878518 257.20259623718448 40.666672614403069 1547.1305332453921 14.996174134314058 721.92793484521098 273.86407925956883 123.18819391028956 926.87666803086177 164.30963709112257 324.84339237213135 20.823222843930125 955.23257108684629 407.03084233344998 1608.9491524918703 73.951363966334611 77.982677737018093 213.83170623565093 1060.3590672577266 903.11394437914714 1288.3483600083273 166.44330263603479 9.4147473610937578 509.11281465296634 205.37333459104411 59.719404567964375 3243.9317449107766 79.472731617162935 30.804726012982428 1606.5230379236164 339.47058866161387 1722.0379181473982 2991.1446185130626 211.06386947695864 165.78560298774391 58.188285958021879 81.37245524302125 8.8418363817036134 1126.090525816544 146.95410409430042 818.53391135134734 818.83884716499597 14.575737686362116 12.565410895273088 67.123456657398492 17.322061547078192 510.04677862208337 15.44396419264376 165.21320777013898 1057.5313719194382 16.549151686485857 191.24828518182039 336.04487312107813 1063.4018207807094 808.75462550623342 1411.062487391755 540.75195104442537 112.30536966654472 320.83428669231944 138.65773444902152 720.05458072805777 49.7064323220402 6.5112408474087706 627.73708437103778 1603.2914569908753 238.25322989234701 1479.1140838299179 143.25520229851827 454.94533563242294 247.79447968583554 408.61881354311481
leaf_count=43163 21105 635 5735 809 7409 216 6939 55629 15796 24579 4971 2188 6169 12382 120 209 16205 587 8530 822 40736 13934 13605 13615 545 9155 1307 46546 4430 3198 7693 2985 9525 1132 238 4112 16342 9752 281 1624 1165 7554 2498 26 24826 1429 1787 6677 396 7651 607 12693 92 14555 34536 598 1640 190 11960 215 6210 2395 729 8452 708 422 47 1632 1386 5814 628 738 2107 8174 9089 6565 1872 41 2676 1233 460 21963 1026 171 14420 4174 7569 24210 2790 3166 641 194 83 5967 873 5614 10606 249 242 789 90 1170 57 303 2699 141 610 3454 5995 3016 6089 8636 837 3439 854 3674 98 42 1828 3859 731 11862 1424 2848 1505 3123
internal_value=-1.38516e-12 0.00200786 0.00299572 0.00395217 -0.00746084 0.0082218 0.00319325 -0.00863635 -0.00178639 -0.00740013 -0.000874369 0.00185931 0.00487667 -0.000512474 -0.00169616 -0.00935845 -0.0064479 -0.00385401 0.000859752 0.00716375 0.000572858 0.0014967 -0.00504109 -0.0111454 0.0043581 -0.0023638 0.00522929 0.00380299 -0.00618776 -0.00948195 -0.00287957 -0.00182564 0.00649255 -0.00728844 0.00345321 0.00176186 0.00147055 -0.000617385 -0.00537419 0.00653904 -0.00639674 0.00761769 -0.00364895 -0.012331 -0.00937913 -0.0137306 -0.014326 0.00776631 0.005528 0.002548 0.000831767 -0.0103219 0.00586416 -0.00293996 -0.00216985 0.00339916 0.00400552 0.00374457 -0.00294406 -0.00180472 -0.00501497 -0.00463373 0.001078 -0.00469039 0.00419809 0.0158749 0.0217294 0.0140395 0.00584058 0.00522097 -0.000706913 0.0038075 -0.00741316 0.000566356 -0.00591528 0.00289912 -0.00662192 0.0102194 0.00368027 0.00373434 -0.00817157 -0.00056257 -0.014924 0.0079597 -0.00556681 -0.00671716 0.00360608 0.000770794 -0.0157004 -0.0170938 -0.0155337 0.0143207 0.0021123 0.00218908 0.00494912 0.00650458 -0.0037444 0.00270444 -0.00746575 -0.00252283 -0.00957469 0.0110284 -0.0106751 0.00808802 0.0107592 -0.00156972 0.00375791 0.000797052 -0.000248932 0.00468086 0.00382375 -0.00986773 5.82957e-05 -0.00356665 -0.00377692 0.00343168 0.0116547 0.00351953 0.00608856 0.00995152 0.00609284 -0.00235015 0.001101 -0.00139088 -0.00442137 -0.00724464
internal_weight=108373 85391.9 67752.1 53237.8 22980.7 8034.69 45203.1 18288.1 17639.8 13703.1 14612 25219.3 19983.9 14514.3 10003.2 7487.49 2848.28 4776.94 18013.5 6384.35 9835.04 15041.5 6215.61 4639.21 7205.72 2972.07 6059.81 13599.5 3027.81 3221.15 4692.55 3807.42 5895.26 2721.9 2875.77 2090.99 2820.97 6959.27 1530.38 6586.47 2642.17 4752.16 1703.73 4584.99 1474.65 3110.34 2939.57 2539.46 861.077 9957.81 1441.69 2928.27 2713.41 7182.19 5786.65 3520.34 612.745 1834.31 3194.68 2549.15 1002.02 1959.8 4594.95 1478.16 1793.64 1448.23 345.667 1102.56 4249.87 3842.84 2134.77 5362.87 885.126 1138.34 2561.85 3348.08 1093.32 95.0679 581.705 280.089 74.7156 5083.67 1418.06 784.779 2509.64 932.208 3010.39 4471.76 1338.59 1127.53 961.742 85.6531 4511.09 4502.25 1273.04 824.97 1067.35 248.507 94.2646 81.6992 1654.55 537.092 27.0448 3523.36 1222.74 372.107 207.797 384.839 1145.91 4224.53 3415.77 1637.23 771.52 433.14 592.737 2233.89 126.384 76.6773 658.542 2038.74 1842.91 1553.07 3229.21 1254.61 799.668 551.874
internal_count=800557 517939 383041 259773 282618 24057 235716 240706 134898 169240 102870 151839 83877 123268 95063 100006 38298 41062 119664 20288 61808 95034 69234 61708 32175 24630 25635 63589 32028 40470 41912 32112 19466 37949 11320 9083 22472 50488 14868 21740 25309 14356 16232 71466 25087 46379 44950 8715 6130 59137 9762 37272 8873 72591 58036 16920 4625 7384 27487 20078 8118 23500 33469 14059 7194 2317 469 1848 17043 15657 15753 25668 9800 8912 24144 16322 10324 261 3263 1908 675 35897 21238 2237 23509 9458 14134 32740 20212 17422 14256 220 28205 28122 6840 5734 13018 2412 1280 1038 24931 1319 149 9941 3002 1459 751 3735 6540 16756 13740 24841 6774 4276 5284 9843 349 251 1999 5483 7408 12490 21282 8900 6052 4547
is_linear=0
shrinkage=0.02


Tree=6
num_leaves=127
num_cat=0
split_feature=12 14 12 12 12 11 9 14 8 8 15 12 15 8 14 11 15 8 14 14 2 11 12 8 13 7 11 14 8 12 14 2 11 12 13 11 8 8 14 13 14 12 14 11 8 12 11 7 14 2 12 11 2 11 14 13 12 11 12 14 1 11 11 11 14 4 11 14 12 12 13 15 14 13 12 0 9 2 12 14 2 11 0 7 0 12 3 14 7 0 14 13 12 1 13 8 14 3 14 11 13 13 3 11 3 8 1 3 3 14 13 9 4 13 14 14 11 11 13 3 7 8 11 8 8 9
split_gain=3775.95 750.946 462.656 429.013 493.412 371.011 252.557 252.36 211.229 186.665 173.105 129.862 118.853 118.702 130.021 117.486 120.797 98.4495 81.137 80.5884 78.3908 73.3155 103.641 70.2312 61.6047 60.5253 64.8232 59.0745 55.8471 55.8455 68.6638 55.1166 55.0516 54.6596 54.3395 54.0918 53.1022 52.3405 50.6224 64.887 50.5127 50.8129 50.2928 49.9837 47.5981 46.1787 47.95 47.5245 45.9136 45.8429 45.351 44.7425 49.1977 44.0255 44.3625 43.9903 43.8414 43.8214 43.7768 43.4731 42.9966 42.9039 42.3028 42.215 42.1212 47.1055 41.6018 40.7154 40.4241 39.5485 38.8304 38.4375 39.3507 54.024 38.4324 37.5586 40.7231 37.1042 37.0219 36.9226 46.9994 36.8312 36.7908 36.7242 36.5822 36.1926 36.1502 35.5311 35.1264 34.2987 34.1226 43.6578 48.8515 43.3266 41.9434 49.4778 46.342 35.2252 33.783 33.7479 33.3417 39.6965 33.9007 35.8787 33.214 33.0167 32.7387 46.8837 37.1664 32.4969 46.5823 38.8017 32.2231 42.2683 32.1301 32.0865 32.0448 31.987 31.8937 31.8919 31.6159 31.5613 31.5419 31.3372 31.1343 30.8957
threshold=0.018950000000000005 143.00500000000002 0.23185000000000003 -1.0000000180025095e-35 1.0000000180025095e-35 1.2450000000000003 3.2500000000000004 299.00500000000005 3.5000000000000004 3.5000000000000004 1.0000000180025095e-35 0.0010500000000000004 1.0000000180025095e-35 2.5000000000000004 119.99500000000002 3.5950000000000002 1.0000000180025095e-35 3.5000000000000004 139.00500000000002 184.48000000000005 2.5000000000000004 2.7400000000000007 0.37235000000000007 2.5000000000000004 5.1550000000000011 54.000000000000007 2.1400000000000006 223.94500000000002 1.0000000180025095e-35 0.31205000000000005 268.90500000000003 2.5000000000000004 3.1150000000000007 0.037250000000000005 5.5250000000000012 4.7150000000000007 2.5000000000000004 3.5000000000000004 178.01000000000002 5.0850000000000009 52.005000000000003 0.075150000000000008 241.88500000000002 2.2500000000000004 3.5000000000000004 0.12585000000000005 4.4250000000000007 217.50000000000003 62.005000000000003 1.5000000000000002 0.52555000000000007 4.3750000000000009 1.5000000000000002 4.7150000000000007 211.00500000000002 5.2950000000000008 0.0018500000000000003 4.035000000000001 0.037950000000000005 215.01500000000001 58.500000000000007 3.2800000000000002 4.0000000000000009 4.785000000000001 384.53500000000003 2.5000000000000004 3.7500000000000004 455.04000000000002 0.75950000000000017 0.023950000000000003 6.1350000000000007 1.0000000180025095e-35 87.00500000000001 4.9050000000000011 0.051550000000000006 22.500000000000004 4.2500000000000009 10.500000000000002 0.083850000000000022 254.00500000000002 10.500000000000002 0.89500000000000013 10.500000000000002 58.000000000000007 18.500000000000004 0.090750000000000011 41.500000000000007 149.00500000000002 54.000000000000007 6.5000000000000009 69.995000000000019 5.1650000000000009 0.026750000000000006 99.500000000000014 4.7350000000000012 2.5000000000000004 89.00500000000001 1.0000000180025095e-35 835.35000000000014 4.5900000000000007 4.7750000000000012 4.1050000000000013 3.5000000000000004 4.1950000000000012 48.500000000000007 2.5000000000000004 218.50000000000003 36.500000000000007 14.500000000000002 99.00500000000001 5.0150000000000006 4.2500000000000009 1.5000000000000002 5.6650000000000009 208.01500000000001 78.995000000000019 2.6000000000000005 0.89500000000000013 4.7550000000000008 14.500000000000002 131.50000000000003 3.5000000000000004 4.3650000000000011 1.5000000000000002 2.5000000000000004 3.7500000000000004
decision_type=2 2 2 2 2 2 2 2 2 2 2 2 2 2 2 2 2 2 2 2 2 2 2 2 2 2 2 2 2 2 2 2 2 2 2 2 2 2 2 2 2 2 2 2 2 2 2 2 2 2 2 2 2 2 2 2 2 2 2 2 2 2 2 2 2 2 2 2 2 2 2 2 2 2 2 2 2 2 2 2 2 2 2 2 2 2 2 2 2 2 2 2 2 2 2 2 2 2 2 2 2 2 2 2 2 2 2 2 2 2 2 2 2 2 2 2 2 2 2 2 2 2 2 2 2 2
left_child=3 2 6 10 81 50 28 8 24 11 13 -6 17 53 -15 16 36 33 23 56 63 22 74 117 29 98 -27 51 -2 30 31 58 71 100 60 38 43 -17 39 -16 -30 -42 -36 -7 -28 46 48 -47 -22 -21 124 116 -53 54 123 86 -11 62 -3 -37 66 109 -26 69 -51 -66 -23 70 -24 115 -46 72 -25 82 -10 90 -77 -41 -62 80 -80 -5 -74 -73 -72 -59 -20 -68 -40 -45 99 92 104 94 95 -94 -97 -96 -9 -14 101 -8 -103 -104 -92 120 107 -44 112 111 -111 -35 -108 -114 -89 -19 -12 -13 -101 -65 -88 -95 -98 -1 -4 -123
right_child=1 7 5 4 9 15 12 25 21 19 27 18 75 14 35 37 -18 20 55 49 45 34 68 32 57 26 44 -29 40 -31 -32 -33 -34 61 42 59 -38 -39 88 77 41 -43 106 89 67 47 -48 -49 -50 64 -52 52 -54 -55 -56 -57 -58 85 -60 -61 78 -63 -64 119 65 -67 87 -69 -70 -71 84 83 73 -75 -76 76 -78 -79 79 -81 -82 -83 -84 -85 -86 -87 105 114 -90 -91 91 -93 93 121 97 96 122 -99 -100 118 -102 102 103 -105 -106 -107 108 -109 -110 110 -112 -113 113 -115 -116 -117 -118 -119 -120 -121 -122 125 -124 -125 -126 -127
leaf_value=-0.017688454243347949 -0.015665802800790433 -0.014764471606905251 0.0082220328983166422 0.021575373428110681 -0.014059463145932134 0.0064844663622789676 0.0012645238017983734 0.0017472899142748932 -0.00034601626243041517 -0.0058461323064263803 -0.0022662709627957085 -0.012962508659316814 0.0082568321807030623 -0.0063817266692729937 -0.01309814365529441 0.0013843648107205574 0.011584284122313429 -0.039951355739265552 -0.015971500163891036 -0.010073570690681521 0.014264329203580417 0.0093064883507245656 0.010653655601280121 -0.0016722648817715723 0.00068415712741539151 0.0017126174037139666 -0.013871991272734341 -0.013044238229180867 0.0023955696069625351 0.0003448339809769215 -0.025332876714162404 -0.00099925086937818893 0.0029422045571231132 0.0023121382111335061 0.0034439021466065823 0.0020684485696320278 0.0072144875134619781 0.0053194013343039704 -0.0070503515389849069 -0.0065862753994696743 -0.0058189407955983397 -0.0007293728357448938 0.00093127963803131379 -0.0020264318058615177 -0.0058693708589565557 -0.00076950842353793543 0.0061232414951230179 0.011009513891110125 -0.0060698760380336302 -0.0013126804740669184 0.023056806878912709 -0.012269015026968689 0.0072048864579526972 -0.0033611597591657102 -0.030522849654041253 -0.0044159599612513681 0.0011116295120618559 -0.010028344159316938 -0.0057392332824739781 -0.011679267441790887 -0.0036431226782309063 -0.00063914250440963861 0.016899851709990026 -0.0089578050057081901 -0.0070719733516366014 -0.033065889807084331 -0.014390825723762671 -0.010073436007847282 0.027866732912006583 0.0062387672454478488 -0.0026635690859099382 -0.022916242329249478 -0.0086117990154544622 -0.0030452030363799839 0.0041594328260334407 -0.00058764682894926095 0.0067928804339376847 0.022284107745741594 0.00070884477768765552 -0.005321966145259204 -0.027262176255009138 0.0083579334598089892 -0.019326333220789783 0.00074107526193731071 0.010476562637841687 -0.001830257953940675 -0.0031497708193934069 0.0049330545170549415 -0.016036955781060368 0.0075693358644255736 -0.00094164679705559403 0.0070289326988153891 0.01950706605311368 0.0035342296341701229 -0.040379754872344166 -0.025772256327376938 0.0011377534551014386 0.0035167860896613752 -0.020320821118618868 -0.020894002342597938 0.00092943551857949938 -0.00057193308322753148 -0.011155686609942215 0.011037820417140244 -0.017783314913465804 -0.0043303960677561126 0.0044951451576133103 -0.0084506540896452167 0.0041859850946064448 -0.00041704169709566537 0.0044962119502489455 0.0059974314003598582 -0.02386846538105937 -0.0034461473865715912 -0.0042758258520352223 -0.0013345247367796706 -0.0076748124325774804 -0.0064274734056257903 0.0050820643358882138 0.0045691577787356445 -0.031775109069054085 0.00066761334006691436 -0.02614111811218843 -0.012466676851062631 0.017084541444392712 0.0086992184806030468
leaf_weight=581.60942397988401 117.64731182856485 247.09039213089272 216.04675338137895 291.04915989935398 828.48297134868335 885.06432346440852 367.86526851984672 639.7977629720699 1052.1940382665489 414.26713790697977 1185.4233287880197 377.98085417493712 1863.7948773158714 4473.8240328668617 1210.4767303598346 2473.7726957092527 2011.4118903456256 9.055261892732231 534.20065372285899 507.97034474817337 47.425945878960192 335.96995041193441 377.75653234124184 769.98014751449227 2424.8083731818479 412.60396849142853 332.55481650703587 264.95420121774077 936.39527364494279 871.98515047621913 67.68830986507237 943.49486924288794 538.01713115000166 3886.7570163486525 4598.3575638362672 205.72582223941572 3839.6831306903623 2981.8389018371236 200.23835929529741 879.34799092903268 1360.2001721491106 1854.330345436465 473.86848186678253 756.06625135242939 1767.4597619877895 286.93952953699045 205.76504091266543 262.22171707125381 700.03040229575709 1115.6617413947824 385.51264697685838 63.728258445276879 279.39008041098714 166.65756829455495 63.080757438146975 356.48674952704459 2884.7937210306991 253.05121525283903 1653.9488443173468 166.44624727469636 1454.3575324676931 2293.9475348726846 66.10572252003476 138.06796341878362 250.45874027325772 31.379948342218995 56.558297078125179 703.71197461162228 63.789209254086018 4609.0054093629587 323.15304953121813 27.227785615250468 634.85954142455012 663.1095359059982 2702.3647078466602 921.43755129957572 442.71279139327817 18.174486010335386 4410.9871458412381 472.97149289748631 24.160603595897555 118.73151979851536 160.62194572505541 728.70091393380426 114.87453276570886 1447.8882783823647 25.708185825496912 489.41318412078544 1326.7794154381263 185.56662808172405 262.84110290044919 2189.653495854931 22.400907011702657 2247.4267740286887 7.4401857755146912 62.783622674643993 87.12124234996736 425.3852901244536 29.005736228544265 31.000949354260229 1014.5893579374533 237.37104879447725 464.53148506698199 31.086853897897527 56.996257253456861 259.88307464728132 141.32875815615989 387.10535145062022 839.02463386044838 2699.9733646409586 1080.8641910231672 1618.7325723990798 50.130273688351735 211.86338316905312 219.53022009157576 173.68326254189014 695.13696942897514 1444.7145382367307 48.463948303367943 140.82791007589549 38.615976300556213 229.5623620999977 21.051848119590431 2193.3614074024372 595.85785260982811 1157.9360158001073
leaf_count=9915 1534 3417 492 559 13762 2514 3535 5180 7606 5109 9833 7203 8158 48668 17365 16385 4129 125 9329 6857 206 1540 755 9518 15318 2645 3945 3352 8062 4822 822 7569 4791 23283 26781 2008 11774 12084 2548 10613 14452 13084 3396 3855 19201 1324 1124 769 4176 11351 511 666 1944 1429 1787 4346 24027 2493 13756 2810 12386 19953 276 910 3245 559 404 8565 88 17952 3403 355 9673 8279 10023 4565 1755 90 25273 3636 227 443 2745 5684 707 10754 302 2767 20887 783 1726 8619 83 9810 56 397 396 1915 250 277 9725 2639 6220 220 479 3564 938 3066 5303 17328 6247 8105 488 1650 1794 1248 7217 22677 257 702 771 857 161 33248 1011 3812
internal_value=-8.77083e-12 0.00219139 0.00372881 -0.00646656 -0.00385192 0.00675083 0.00247768 -0.000262896 0.000472224 -0.00455471 -0.00889944 -0.00659835 0.00311839 -0.00993558 -0.00872538 0.00577916 0.00737371 0.00223581 -0.00565608 -0.00165346 0.00424784 0.00165269 0.00397471 -0.00459567 -0.00224534 -0.00474144 -0.00575381 -0.00411735 -0.00207734 -0.00409528 -0.00542475 -0.00495102 -0.00294659 0.00127018 0.000964871 -0.0113419 0.00587906 0.00353511 -0.0120855 -0.0100767 -0.00169221 -0.00288298 0.00227213 0.00307203 -0.00670412 0.000235281 -0.00242614 0.00485492 -0.00477968 -0.00492814 0.0174083 -0.0030537 0.00358795 -0.0133515 -0.0139381 -0.0103216 0.000237935 -0.000575298 -0.0069123 -0.00407993 -0.000208884 0.0018102 0.0011145 0.00543672 -0.00305785 -0.00996614 0.00343941 -0.00588475 0.0131404 0.00587697 -0.00454826 -0.00400816 -0.00533007 -0.00726099 0.00289681 0.00489341 0.00180758 -0.00600166 -0.000840476 -1.00046e-05 0.000556472 0.0177457 -0.0107753 -0.000111037 0.000782484 -0.0030499 -0.0127741 0.000864411 -0.0148585 -0.000135404 0.0053765 0.004706 0.00359565 0.00416149 -0.000697463 -0.00844185 -0.0121041 0.00276221 0.000790205 0.00771261 -0.00168599 -0.00409647 -0.006787 -0.00976363 -0.0039429 -0.00750569 -0.000289636 -0.00328696 0.00178758 0.00241524 0.000987557 0.00339569 -0.00320179 -0.00735379 0.00208145 -0.00324811 -0.0042655 -0.00778267 -0.00505175 -0.00212739 -0.0203345 0.00499854 -0.00417106 -0.0135611 0.0147262 0.00737039
internal_weight=106584 79607.1 48946.1 26977.3 13002.9 14330.8 34615.3 30661 26337.8 12593.1 13974.4 7388.59 30346.8 11485.7 8481.01 13133.4 7677.79 20268.7 6560.11 5204.53 6573.02 18361.7 4196.1 5345.21 7976.06 4323.16 3654.36 2488.63 4268.57 3784.21 2912.22 2844.53 3522.52 13695.7 14165.6 4007.19 5666.38 5455.61 3635.02 2108 4150.93 3214.53 6701.68 1826.7 3241.75 1502.38 953.221 549.161 747.456 1905.47 1197.42 2223.68 343.118 3004.71 2838.05 1214.89 3299.06 4191.85 1901.04 372.172 7463.95 11580.3 2490.91 5070.64 1397.5 281.839 1101.47 2909.2 441.546 4791.74 2205.49 2984.5 2228.57 1458.59 3754.56 10078 1364.15 897.522 6362.48 4908.12 4435.15 409.781 795.481 755.929 438.028 1700.94 858.408 765.502 1527.02 941.633 8713.86 6770.6 4580.95 4261.11 626.183 193.358 170.957 432.825 668.803 1943.26 2115.44 1100.85 732.989 495.618 319.837 324.207 2103.32 860.974 1242.35 9286.33 3780.84 5505.49 403.322 261.994 708.943 182.739 1880.56 1822.7 79.4649 278.896 64.3242 3634.93 108.173 2774.97 811.905 1387.5
internal_count=800557 471028 259784 329529 155149 53538 206246 211244 167348 154147 174380 102999 169114 151368 104989 51524 23055 125791 89237 51148 28536 108121 18472 70925 59227 43896 38466 23012 37132 30386 25564 24742 41045 97255 89649 56321 18926 28469 51503 28068 35598 27536 41622 7152 35821 7599 5506 2093 4382 22012 2014 19660 2610 46379 44950 18312 29136 28841 17173 4818 48027 74916 15594 20937 15155 3804 6505 31876 843 19325 23311 36254 30215 20697 17629 43323 6320 10703 41522 29136 25500 1002 12418 6039 4110 13247 13966 4965 23435 4638 37003 28311 19692 17487 3008 1037 954 1971 5430 8692 22339 12614 9079 6440 2205 4637 14841 6462 8379 54963 23575 31388 3076 2138 4561 1373 17050 29880 534 1612 1073 14479 557 43163 1503 4669
is_linear=0
shrinkage=0.02


Tree=7
num_leaves=127
num_cat=0
